#include "parseEncog.h"

bool isNumeric(int c) {
	switch(c) {
		case '-':
		case '.':
		case '0':
		case '1':
		case '2':
		case '3':
		case '4':
		case '5':
		case '6':
		case '7':
		case '8':
		case '9':
			return true;
	}
	return false;
}

bool _readInt(File* fp, int* out) {
	String s = "";
	int c;
	while(isNumeric(c = fp->read())) {
		s += ((char)c);
 	}
 	if(s.length() == 0)
 		return false;
 	*out = s.toInt();
 	return true;
}

bool _readDouble(File* fp, double* out) {
	String s = "";
	int c;
	while(isNumeric(c = fp->read())) {
		s += ((char)c);
 	}
 	if(s.length() == 0)
 		return false;
 	*out = atof(s.c_str());
 	return true;
}

bool _readString(File* fp, char* out){
    int i = 0;
    int c;
    c = fp->read();
    if(c != '\"'){
        return 0;
    }
    while((c = fp->read()) != '\"'){
        out[i++] = (char)c;
    }
    fp->read();
    out[i] = '\0';
    return true;
}

// set file pointer `fp` to the position right after the seeked string
int _parseEncogModel_seekString(File* fp, char* searchString) {
	// rewind(fp);
	fp->seek(0, SeekSet);

	int c;
	char* comparisonRefference = searchString;
	int found;
	while((c = fp->read()) != -1) {
		// if we match a charecter
		if(c == *comparisonRefference) {
			if(*(++comparisonRefference) == '\0') {
				return 1;
			}
		} 
		// else: reset comparisonRefference to start
		else 
			comparisonRefference = searchString;
	}

	// while(feof(fp) == 0) {
	// 	if(fgetc(fp) == *comparisonRefference) {
	// 		if(*(++comparisonRefference) == '\0') {
	// 			return 1;
	// 		}
	// 	} else comparisonRefference = searchString;
	// }

	return 0;
}

void _parseEncogModel_parseNumberOfLayers(File* fp, network* n) {
	n->n_layers = 0;

	int tmp;
	_parseEncogModel_seekString(fp, "layerFeedCounts=");
	// while(fscanf(fp, "%d,", &tmp) > 0)
	while(_readInt(fp, &tmp))
		n->n_layers++;
	n->layers = (layer*)malloc(sizeof(layer) * n->n_layers);
}

void _parseEncogModel_parseLayerSizes(File* fp, network* n) {
	int n_nodes;
	int layerIndex = n->n_layers-1; // start from last layer

	_parseEncogModel_seekString(fp, "layerFeedCounts=");
	// while(fscanf(fp, "%d,", &n_nodes) > 0) {
	while(_readInt(fp, &n_nodes) > 0) {
		n->layers[layerIndex].n_nodes = n_nodes;
		n->layers[layerIndex].nodes = (node*)malloc(sizeof(node)*n_nodes);
		layerIndex--;
	}
}

void _parseEncogModel_parsesLabels(File* fp, network* n) {
    _parseEncogModel_seekString(fp, "labels=");
    n->labels = (char**)malloc(sizeof(char*)*n->lastResult.length);
    for(int i = 0; i < n->lastResult.length; i++){
        n->labels[i] = (char*) malloc(sizeof(char)*ENCOG_LABEL_MAX_LENGTH);
        _readString(fp, n->labels[i]);
    }
}

void _parseEncogModel_allocateWeightArrays(network* ann) {
	int n_weights;
	layer* l;
	node* n;

	// for each layer except output
	for(l = ann->layers; l < ann->layers+ann->n_layers-1; l++) {
		// number of weights is the number of nodes in the next layer
		n_weights = (l+1)->n_nodes;

		l->bias.weights = (double*)malloc(sizeof(double) * n_weights);
		for(n = l->nodes; n < l->nodes+l->n_nodes; n++) {
			n->weights = (double*)malloc(sizeof(double) * n_weights);
		}
	}

	// handle output layer
	l->bias.weights = NULL;
	for(n = l->nodes; n < l->nodes+l->n_nodes; n++) {
		n->weights = NULL;
	}
}

void _parseEncogModel_parseWeights(File* fp, network* ann) {
	int n_weights, n_nodes;
	int weightIndex;
	layer* l;
	node* n;

	_parseEncogModel_seekString(fp, "weights=");

	// for each layer except output (output has no outgoing weights)
	for(l = ann->layers+ann->n_layers-2; l >= ann->layers; l--) {
		// number of weights is the number of nodes in the next layer
		n_weights = (l+1)->n_nodes;
		n_nodes = l->n_nodes;

		// itterate through the number of nodes in the next layer
		for(weightIndex = 0; weightIndex < n_weights; weightIndex++) {
			// for each node in the current layer
			for(n = l->nodes; n < l->nodes+n_nodes; n++) {
				// read a weight from the file
				_readDouble(fp, &(n->weights[weightIndex]));
			}

			// plus the bias node
			_readDouble(fp, &(l->bias.weights[weightIndex]));
		}
	}
}



network parseEncogModel() {
	File f = SPIFFS.open(ENCOG_MODEL_FILE_PATH, "r");
	network n;

	_parseEncogModel_parseNumberOfLayers(&f, &n);
	_parseEncogModel_parseLayerSizes(&f, &n);
	
	// allocate results array
	n.lastResult.length = n.layers[n.n_layers-1].n_nodes;
	n.lastResult.results = (double*)malloc(sizeof(double)*n.lastResult.length);

	_parseEncogModel_parsesLabels(&f, &n);

	_parseEncogModel_allocateWeightArrays(&n);
	_parseEncogModel_parseWeights(&f, &n);

	return n;

}

// Junk model 40 40 2
// static const char defaultModel[] PROGMEM = "encog,BasicNetwork,java,3.4.0,1,63644971562097\n[BASIC]\n[BASIC:PARAMS]\nlabels=\"Morten\",\"Anton\"\n[BASIC:NETWORK]\nbeginTraining=0\nconnectionLimit=0\ncontextTargetOffset=0,0,0\ncontextTargetSize=0,0,0\nendTraining=2\nhasContext=f\ninputCount=40\nlayerCounts=2,41,41\nlayerFeedCounts=2,40,40\nlayerContextCount=0,0,0\nlayerIndex=0,2,43\noutput=0.00000000000000000001,1,0.139681724260193,0.00000000000000000001,0.00000000000000000001,0.993954956329878,0.0000333944873444995,0.000171764434264009,0.167061998599295,0.00000034575144649218,0.984333922016594,0.999971765763756,0.000193597307976289,0.0000105215509007824,0.998772832780131,1,0.95811189732392,0.0000085980818579191,0.00000000000132140642,0.0299289033135597,0.0705993967403804,0.000480438107090368,0.146017609181075,0.895349319881298,0.118887802577183,0.0101416818615643,0.999895988988845,0.0725282187452965,0.877314641841697,0.000408205598282156,0.111658541462416,0.999897318642831,0.083147437765888,0.339049196099212,0.0548279601771487,0.00000000000000000001,0.00000283141212604307,0.00000000000000000001,0.00442921701345135,0.0563969538328807,0.999999999826032,0.99999999998996,1,0.659925,-1.09885,-0.55035,-0.69585,-2.06165,-0.460475,-0.101675,1.188275,-0.0175,1.38795,0.160875,0.271645,-1.3945,0.566675,0.03735,2.167255,-1.08435,0.258375,-0.751425,0.129825,0.818825,0.552175,-1.025475,-0.18143,1.07165,0.454825,-1.0269,0.01057,0.662925,0.46,-0.9886,0.146465,0.092125,0.474925,-0.9353,0.116905,0.04975,0.397125,-1.038975,0.01219,1\noutputCount=2\nweightIndex=0,82,1722\nweights=-0.784398753104989,-1.56505396720441,-10.9570750873925,-20.7418127386414,19.4820526461328,23.4484323772917,0.887209742730177,-3.90362483897496,-0.897922870640143,-9.62635812982464,26.0591032935033,1.04549347774238,-24.0496376728272,-5.51705863165609,18.8317900169796,29.8107527896187,14.7856784744295,17.2476441625583,-0.667308065747968,-0.445483472898362,0.907755359834297,-14.6503636768751,0.602878774086458,2.34240691996965,-5.84486399036403,12.3522311952319,-21.0899662351083,0.51075335987874,-0.468925038889801,-0.911632186440204,0.398117635635988,-0.439710168609836,-124.736658331455,-12.679929007421,7.04385168947427,-0.0515630792891982,3.81012651541494,0.522558094939342,15.794048164219,-13.7085890393057,0.747432492348098,-0.800214109684459,1.37752324264769,9.49154641877404,17.5950244591729,-17.5957588421601,-20.6919568644476,0.349214503588087,3.97666633244106,-0.950992411576256,7.38267150968159,-24.1775843603453,-1.35733735839294,21.1663810677411,5.57071554001369,-16.2763122989421,-25.1849790564518,-11.9048983433864,-15.7948974266676,0.753922601205089,-0.638387217427058,0.861351587763957,12.4680805586874,0.430109210103957,-1.60761701611961,4.73031063200434,-11.4425124399421,18.8948429557932,0.82900259344602,-0.532577173315061,1.27435914033326,0.379658539520467,-0.495859319188798,108.537604196414,10.9093006424084,-4.64819092181885,-0.0405725890711107,-2.87077578075036,0.772074241117731,-14.4105968247086,12.8364446079661,-0.715289127021464,0.541008451666205,0.24133756324824,-0.0950574432468539,-0.0587714557128056,-1.19323378469056,-0.862103063827372,0.477221130982425,-0.624284306905421,-0.636471809396922,-0.714628124639012,0.647607070226103,0.0322792013754743,0.173699038281983,0.560091886337748,-0.223208135740581,-0.36449503783915,0.4537198196024,0.157403777399616,-0.864678108760721,0.0137926349135078,0.0741254554700254,-0.508131627859011,-0.571727888276597,1.10660529702237,-0.634872074795476,-0.920834469393821,0.617598464391011,-0.0366030819262975,-0.971360508645591,-0.238571651617972,0.695725771086177,-0.153807752087704,0.328940884291549,-0.861889050003875,-0.908352473938696,2.41666755716055,-0.321191889901842,0.519445136826729,0.203428058518179,0.250088329691291,-0.381879076788607,9.83314317154785,-3.37660779630986,0.275289327333818,1.48493349690391,25.9949012420856,-3.61331898109232,-0.894451980333209,8.65904540279866,1.30666590051045,-1.30334825036814,-0.013692933204407,-1.78337450690743,5.7261408911791,-0.445039714868452,0.922503978414815,-4.48706562505711,13.9517431569389,0.532477017212932,-0.0943432944216479,-1.94249296538807,17.1113746149365,-0.148950837544828,0.088324984822831,1.39732707368601,-3.94560684383413,0.784016962343834,0.762084067919483,7.86239761759323,1.31446372781583,-2.64426920679596,-0.783828628931183,0.43197534449517,-3.99985033172508,-0.0700105443499352,0.596772990406335,-0.14872110506768,-1.11520766898967,-30.599807296059,-0.707052019587936,9.28378026987192,-0.569493979316113,1.53534627039608,-0.747391146543247,-0.114430025443072,-1.4427490012869,24.4401641436445,-0.828713924627572,1.27769311697033,4.19468112807521,1.12976816300596,-0.387676010046602,1.00710076240825,-0.844102251897977,1.07454026765715,0.128909300150038,0.26983226138613,0.365421867456301,5.26371352895348,0.608884124425668,-0.113300369057123,-1.79739667332644,0.481328167214691,-0.296150151585271,-0.409649781203411,-0.729153851297093,2.78644842699672,-0.313253325386488,0.528293802472643,-0.442757054849194,-1.10574059448893,-1.12928065659584,0.751455325317883,1.2796093238093,-0.394635020758169,-4.91576481246123,0.995401794932647,-9.21041540322351,-39.4681708200034,-0.652378809869389,-0.159602272683299,-3.34879030033878,0.316247274342882,3.22743406724297,-0.275181570667416,-0.680147629393716,1.88521711514787,3.28422395674959,-0.146276022193539,-0.812263431129622,2.5634361127936,-3.10871829462815,0.681481131183098,-0.785588670245475,-0.506367856225167,0.920766192918098,2.13608893885287,0.974543334885855,-2.558748907689,3.28245386449318,-1.10786010305479,0.18531208164855,-2.39452511211541,3.24178184587256,0.764249978765484,-0.4796397557919,1.54289117078212,8.21197311322961,-0.772880188877885,0.0957373976720338,12.4768504477231,7.14755422518429,0.407336265715696,0.706730248049208,-0.774231084229571,13.9103458566544,0.822263962960531,0.227603074048221,-7.51465840575335,17.5477895131609,-2.34590889547083,-0.669367057680567,-6.81785142268517,-0.694152164702047,0.812156742396625,-0.019746213011896,0.748806684363677,1.66435817428525,1.03718136194175,-0.862012074852089,-0.784498653384617,-0.412804038389594,-1.38038926105474,-0.949088652073147,0.0252265620973594,-1.06664058032789,0.0689844471267822,0.935440049945552,-0.776324663600358,-0.789794005590926,-0.0641054974531625,-0.317814168350314,-0.563886154019654,-7.192757329267,-3.36573175303931,0.920924750084168,-0.62733469604457,-4.17333686224519,-0.715841113547056,-0.141102374841315,0.373606324429471,4.40233395908628,0.0473767072007049,0.0576548732986666,0.952068722868684,1.6370408763683,-0.60287102169183,0.97832325063311,0.479511510796533,-4.7494162834019,1.81264231306414,1.78224908760463,0.756090209352905,-3.44244003366923,-0.450980928805718,0.139863938956719,-0.293504100942861,0.462620184345854,0.294197513515133,-0.013157181500622,0.517310975749094,-0.589379456612599,-1.25520681806732,0.0544097662742035,-0.621707101666302,0.0136034548834196,-1.74258305219624,-0.981372606972592,-0.875495872311742,0.292806254661875,-1.1273831602532,0.893471227569423,0.0382569425087341,-0.256751618409325,7.16024511838983,0.626465762587968,0.755492257735191,1.13994081538583,15.8189955411703,1.47006057246146,0.520393574337009,0.389094539260643,1.08101790267181,-0.994392395448578,0.485279850846184,-0.215150600117238,-0.0493142714931734,2.56998850382545,-1.39812461192859,0.948136883166827,-6.54980281879791,-2.74251607832667,0.240779484850708,0.300866461207738,-0.273020013227586,0.101368711615908,1.25831776549138,-0.209635463580876,0.996360506434007,0.155675268109128,1.60463256046989,-0.39191310410541,-0.674828657365569,-0.993047276010709,-0.447962936261104,-0.421921539142643,0.152097354150949,-1.78214112393735,0.304043988356624,0.695198248154233,-0.239779515605914,-4.67010440592639,-8.39961152101512,-0.22076236056563,0.56839067102689,-0.7409919506789,-0.50155412332215,0.481358883465541,-0.709801534488551,-10.3237128561789,-1.0291044473019,-0.512959191444397,0.216758149576278,-1.8410154092462,2.73078309558069,0.530248903259036,0.274533737965086,-1.23999270489136,6.29182654449072,0.548692750250745,-0.874373007145954,-1.43401150575112,-0.828669183467317,0.990161903216432,0.152880454156577,-7.617381733446,0.828676264016069,-12.9491968650952,-0.529326693700077,0.26036048906287,0.721295285562843,-0.17936765487111,1.27083468307124,0.149366537329241,-6.0410797662991,1.80388613101276,0.794491446613344,0.976739934799921,-5.18869255200925,-3.27359429988001,3.29314806260589,0.591606799988829,-2.49041355509045,-0.588738949571597,0.453182747544381,-0.763979339076531,-3.76493173130336,-0.0686229591105521,-0.765127888836235,-0.553124615970594,1.22444849510985,2.7667455629149,0.808918320801472,-0.35138952919049,-0.0911495322675936,-6.16557322348365,-0.896085707604145,-0.158651214219524,-1.26860283259437,1.33244362488625,-0.845973761428495,-0.82604520415097,0.238724519233928,-0.909946760327538,-0.692232376133859,0.109077591814407,1.48339130276206,0.288307529130469,-0.958278397126925,0.443909931442408,-0.702848394699428,-1.10721296092625,-0.811075396341692,0.820785563257682,-0.795108153660046,0.653206337553575,0.396589582180455,0.425397755518924,0.22926168588433,-0.45822528277377,0.384130781718958,0.259570984339837,-0.580911408387807,-1.17486930894653,-1.29101082801266,-0.398170568375072,-0.57234362755329,1.07568646615726,0.672665265713687,0.665704738994371,-0.588074017923642,-1.39983111114742,-1.41975866328645,-0.705492982340953,-0.906614580782677,-0.757710308822443,0.437494541995972,0.633512866629352,-0.780257045472813,0.463726720891013,-0.439139971545611,0.121448030326078,-0.772984108064797,-0.741096466165737,0.188239226784806,-0.780667247258906,0.345867712234872,0.630061537889905,0.268016330163544,7.81725840906637,2.14201534319224,-0.605416916977289,0.74952393255385,-2.70892560580838,0.296344843407761,0.554766732916441,3.25828794825107,-3.65030920705569,-1.1357980551715,0.40456283681217,0.48014102724945,0.474155966540619,-0.147819939310779,-0.42742423646121,-1.28282459096362,1.70625056596816,-0.0287405895621977,-0.577800094065392,-4.734988271812,1.80831037281034,0.723224693874085,-1.13627531561101,0.216196734285165,-1.44833946593276,0.412208362138342,0.816068532251514,2.07425643797993,2.29860391711538,0.559884827980297,-0.279852566602928,-2.98818893145298,10.0654174638238,0.460969512463416,-0.245458731667802,-1.62185520019793,4.38956803443317,0.82184866121353,-0.622699876059929,-4.55877245425513,0.722873759985207,-3.13987485362741,0.755245257222037,0.458549539071433,-0.738417925032676,0.538344303756593,0.184844728600567,-0.0227220567337252,0.0062105535858594,2.39686980874076,0.00891262380533357,-0.295594469841897,0.37251138144112,3.22003614736358,-1.32957940833102,-0.891061173374415,-0.197331261642434,-3.37258698695082,-0.271581677175759,1.01626723956862,1.89153470590614,-1.09663584965931,-0.601309750836603,1.11536628575259,-3.96311953934433,0.293743278778274,0.518918435350712,1.07357688532929,-4.05394427761962,2.05566738463181,0.321144202570242,0.172817270234271,-2.73017193673283,-1.70920641580867,-0.654310064922969,0.524569033249714,0.197037191802763,-0.487928973957526,1.32882333769607,-0.468056047418403,1.09378153720435,-0.869652469171451,0.0905439745055364,-2.175012121272,0.0441426977677969,1.18488909989747,3.21079298757593,-0.184638510496844,-1.96839829523609,-2.31935701494347,3.43353079348963,-1.08006192896987,-0.635416155697009,0.480376976692051,0.31935980819679,-0.917496841329035,-1.67019915495337,-2.32387706562389,-0.729098297454687,-0.455541676307475,0.147114293579904,-5.72452261835888,0.249494781030114,-0.212561279836186,-0.793886641718218,-0.782528173252993,3.50431673170086,-1.41550636529077,-0.851659036103764,-0.00404239229681563,-0.892643153686429,-0.245948330059355,-0.631483002843457,3.27994064860673,-1.75103415454483,-0.584532356760549,0.50728940818244,5.02406067653539,12.061164178871,-3.42161822675736,0.866888879122054,2.16483173915371,0.333368964464526,1.65276855509906,-6.37633938081579,-0.750156003752874,-0.791352935180994,-0.367071510344954,-0.96221096107829,0.280207888741853,-0.688525647937592,-1.53559532040552,0.0837257065544446,0.462949597595988,-0.659350599708297,-0.38759747404799,0.740552067212026,0.684945693692835,0.537861194865028,2.71868988828397,-0.754183806397754,0.4572409113316,-1.77512129955305,3.38798091057689,-0.858767855207627,1.02701397693963,1.40331734837454,0.692687143940889,0.468860051771956,0.411106350176728,-2.2010504365032,-3.27909529181083,-0.197319865985927,0.801531742674358,0.771192478788898,-2.35737223514674,-1.01804284939698,-0.32606647068519,8.9197381818863,-0.35806822666533,-2.55575614539688,0.199228343541623,2.91611509654905,0.813628590905816,-1.39056653776789,5.16986237517011,0.659121528869892,-1.35565805144489,-18.9027738753314,0.874104384563155,-0.0441212575285264,12.7574569683293,0.472619566148016,-1.12645581448888,0.649099289250116,4.20505896891753,-1.15993221647741,-0.250500377118604,-0.881868524025952,0.482795689169968,-0.644609646709513,-0.710175432271486,0.542314470743484,-2.87017923736543,-7.68545386268336,-0.106320584954417,-0.767179317764124,0.808482100783251,6.82783957509924,0.300365324359713,0.64524102249337,2.42532620803886,-1.89437041604953,0.755702221366301,-0.674383620039872,-0.109147049909264,4.89063032358792,0.461273039698833,-0.711136658507628,-19.891850531031,1.72870704965209,-0.978037857530711,-0.89295250171417,-4.08890691943866,-0.422063518422217,3.2559346079458,2.15992013009182,0.365427185114593,0.445910956720364,-0.108493636692659,0.629508513286353,0.0902031970402152,1.59090116720566,-5.84559058246469,0.325028226461114,0.281651236296376,7.06010089244218,-1.7954855022883,-0.50498697368545,0.675969613359308,0.266616851759416,0.557048503391138,-0.608094635452245,-0.378487578384828,-5.00626315442885,-2.52591336005721,-1.14768653994211,0.293200616668506,-0.755466561667345,4.92931427046419,-1.22048897666396,0.202657823750924,10.5961220240399,2.45625712358281,-2.32691150618437,1.42120187500111,4.43884499114207,-1.79682028733294,-0.985908058572498,-0.338580211185621,-5.80941416436849,6.39981540146169,-1.85623726644377,2.75370251359302,0.380264770844638,0.543113797484146,-0.729548239879089,0.697001902745656,0.0903660811441456,-0.437084955853212,-2.58074222630267,-0.670955024411091,0.348282551814555,-0.0109853999600476,-1.73050421809041,-0.405643946435018,-0.64648302069545,-1.22115563000173,4.61271465445318,0.441717083019781,0.549103531512605,0.256754015567682,2.14937513060521,-0.35056700734995,0.677995236467718,-6.98376665718994,1.52118863183571,-0.612946496885383,1.00959882791706,6.78356253792388,-2.57502249690557,0.19218774299514,0.618808484308139,-0.190136459459494,-2.02376935863894,0.505943161465618,0.0505974092677121,0.325044187524891,3.47646725366363,-0.792661695936551,0.74787469937647,2.64948752832102,-0.635278071086919,0.263628448026115,-0.242609129844161,0.821202413516774,0.0494474510291041,-1.70184527598455,-1.54794676643075,0.936188090530348,-0.696039347218205,-0.73378989597762,-1.48977195432277,0.213519203258688,0.338490315641163,-1.47670312447747,-9.27779451297918,0.0447163753678268,-2.99536170974473,-3.88460557330957,-6.94526373356275,-2.37467137802887,-0.431861383011643,3.16365857351736,-2.76222827724177,0.393488958484865,2.63381380639616,-1.43061937919364,-20.2962503984598,-0.338716709955028,-4.77533030425534,2.57855004150065,-0.126645909001043,-0.802647726765357,-2.38215761564537,-6.46429584630507,0.0907757331267948,0.75061739257662,-1.53622390676453,3.46573528882496,-1.17916752248448,-0.437117722390609,-0.266624590907016,2.04672636058165,-1.77893703604248,-0.133551380126357,-10.4002501568431,0.146730057842329,-0.16718900256143,0.814815981453954,0.927625849527708,-0.976215643768759,-0.286630569503587,0.460971089349993,0.304867190625026,-3.56501592465868,-0.393874760381892,0.376142189800496,0.230227561243386,-1.03245266762767,-0.664946133253421,-1.44335540974256,0.687131572615299,0.264468971797789,0.685960526442528,0.292724548541208,0.449901564868037,0.812184328198798,0.511632159307265,-1.54727455358152,0.748116501176944,-1.07873336045338,2.87456351473838,-1.98892305317814,0.771635677428642,0.0793344359061913,-0.159483295824068,0.399598861702067,0.682966004254738,2.94503377722335,-7.93388966286819,0.302484183781768,-0.0469949283864325,8.11280094108396,0.831796052732193,-0.532058268058886,0.0449168383560631,0.977296812065724,0.741817215235141,3.52945046512043,-0.649063114310689,0.312842806903576,-1.46882418147346,4.56051369759056,0.209849304736149,0.0864974462591841,2.15925471780485,-3.45878206952962,-0.451375941616471,0.662660604165221,2.33486434410585,-0.098249730240346,1.41892766855207,-0.04025856524336,0.047150479277937,1.14209703619379,0.334158973894508,0.638919553744133,0.461530853689398,0.239462886599757,0.511710932112518,-0.301003253532015,8.70651246294634,-7.26111382249072,0.729331156815084,0.621986522830522,3.27196503700647,10.6224485045604,0.644293862246591,-0.837655105488539,-0.214485825250311,6.62647373454977,-2.14768724463579,-0.731122232710487,-9.79000400402711,2.62281561749715,0.0494850319772391,-1.15540527882171,-4.15840200664857,1.10908833835787,-1.87105459510363,-0.836900668551437,0.71774995486339,-0.428779788044158,0.867415325656443,0.754348481702176,0.768221529382582,-0.268052175563425,3.67636950175019,-0.276934498302281,1.14723816226994,-0.040816850584922,1.07246205995084,0.735742119243009,0.614009389086258,-0.712219452818272,-0.669860755992172,-0.172568808782702,-0.843145248241945,0.971705040123311,-0.862503669025425,-0.0868770170062834,-0.172626800731619,8.72623947970357,-0.718536836291128,-0.964153306923688,-0.0419517839653536,0.23269518603478,0.146246024815613,-0.344159231660938,0.225810911613654,-0.642449836809112,0.921652876185072,-0.10001422946902,0.826384154464535,0.337584521001945,2.26085392363849,-0.552278783399054,-0.391694219423515,-1.98827751764933,0.858984091721667,-0.571615176072269,-0.785392025531713,0.671007974816513,-0.151793390590981,-0.119484993792821,-0.607578441777517,-0.44785285376007,0.153100112383471,-0.168446917684341,0.464724681866833,0.345729794898143,-0.331801924872537,0.622024983684756,-0.246603949119445,0.494083792594165,0.0495891093289462,0.544120065152308,0.811447170342524,-0.677557927388944,3.25283663747181,-0.422322842278337,-0.502525443432393,-0.496784103876623,0.428743699283081,-0.153318189291352,0.514939786063012,0.898882208395497,-0.89045598546264,-1.14745539290498,0.057235843681021,0.397155736932814,-0.152783837660426,0.979253375780466,-0.229957235723917,0.781920995258545,0.267379975938003,0.559497989036404,0.706597827168396,0.660383428970008,0.507040072872004,0.26894385077882,2.36917545795272,1.09873321382332,0.973551182538481,-0.95053408945449,-0.970307739767542,0.60001589932811,0.17553412246239,0.99689017514167,0.408092116436875,2.14634833917305,0.103182878187925,0.174105109248268,0.479723577197741,0.939245468521378,0.941727463823869,-0.70293737002797,0.749936873729335,0.576340250936871,0.203297049258645,1.46162563001036,-2.59009464842152,-0.415979207155477,0.9171069288368,0.844735147056161,0.640904102735142,-0.240180377693265,0.455040471544284,-3.09870689170372,-0.0496765978147128,0.985640539259488,-0.305227384279717,-0.81541869284915,1.518921859957,-0.184899521008704,-0.318885586515528,-0.643957153499899,-2.42388626533003,1.63464458655247,0.122067780105199,-0.940771226213175,0.0890132391058129,0.519983369401126,0.31612733728983,0.602123360361213,-0.712907447261462,0.493884733053083,0.112658380975309,-0.748670818748721,-0.559571426876409,-0.35784086602574,0.347554060117608,-0.117968957502618,0.46262805849804,-0.378410569746783,0.339174611516006,0.19973626610161,0.93564206276546,0.246724351601153,-0.935792297553933,0.453184319246722,0.0139532267072756,-1.53821894500587,-0.747480250404358,-0.694405417164617,3.30650758138005,0.244092999835414,0.627833829878756,0.946875728964477,0.769978558071892,0.759565132781882,-0.313832316644482,-0.653265491344951,2.74802184941501,-0.0295904552895396,-1.10934446111214,0.0217023372728113,-1.82971277802913,0.542260386399308,-0.72834698406221,0.666340293067503,-1.37018222341319,-0.70227665607036,-5.04530249285706,-1.29084500290892,-0.488691607191198,-6.63875475448192,-1.16100364978293,1.36001186498458,-3.27613861863467,-3.84937096659769,-0.881635289635732,-0.464578144867486,0.475893661505712,0.460309909597123,-1.48062440059201,-1.28875307651528,-1.81800992512218,-0.754076188110901,2.01473177541414,-0.266817948255262,-0.254147284399112,-4.48911505570317,-2.29917171741799,-0.0270520439690422,-0.587124422457049,-3.40699028542349,-3.3911667558443,0.0465137910420791,-0.58853480230677,-0.915729602589084,2.48084486684114,-0.783056574089067,0.335832695099518,3.90698669327326,-0.651365618842627,-0.765055497066454,-0.918366757593422,2.26716492445072,-1.15889143734863,-1.54727396463626,0.142187672727186,0.0328941738194934,0.64610123708955,0.54976460066102,-0.738891686095806,-1.16326523028501,-0.240275436908413,0.598732620029695,0.713441890652397,0.509386550511449,3.05634280998178,2.40626351971206,0.764397227608592,0.31316933664341,0.422898800150441,13.6315319048721,-0.0309099799541095,0.00302447206795846,13.8240510564449,0.868553595076537,-4.32080955311894,-0.903570605698553,-0.179082047720082,-0.638948263148294,-0.295694961281635,0.770261866404865,-3.44897906597324,-1.21284592758413,-0.66068675209864,0.187384553399253,-0.387623002461721,-0.277852241258572,-4.34767675086564,-0.557494867410704,-10.0234470919413,-10.8210269085168,0.121307082316471,-0.378769797658865,0.458253952097485,-0.422443537672059,-2.26605446308674,-0.946221661365117,9.66827886923095,0.556257673928563,2.29485293783339,-0.453580531429263,0.311202413296184,-2.50882067955714,2.05005392111059,-0.411090557958213,0.410677777186765,0.261338465467273,-2.04160766847561,-1.34449909537883,0.63245263381119,1.68215988141574,2.07561002437338,-1.17622632180827,0.922908552485707,-1.01006570198703,2.2409949947713,-0.349827102707674,-0.514883377966815,-1.85084917233975,1.17758603632948,-0.00620991111212559,-0.48568619588845,-5.41566707859437,5.60970363119242,0.830940809737309,-0.677067712789473,1.15341027562092,0.539061452229832,0.541572315967677,0.677505104265413,0.792818298332783,0.957314044669506,-0.547723774180299,0.621808131013001,-8.62830646028409,7.87220667496638,-0.590754345928187,0.687925054629645,3.7010337473781,-0.322875811630444,-0.156336977328744,-1.21964332009108,0.0785995035026709,2.57239571609555,-3.98795876606182,-0.0200974145022484,1.29161660133604,1.61505287101972,0.80298410143089,0.248210209696609,-0.349701697690222,-0.551017270409778,6.09100006208271,0.507400282067902,0.90731079964505,0.950230778255177,-0.948936164213715,-0.345085282601768,0.658436385894955,1.39690339253182,-1.94147849772355,0.470341180548655,-0.139119592527696,0.366180860043437,0.623697092318219,1.02843022389103,-0.0831102935692099,-1.60729891880347,-2.28098754890498,-0.729393068748754,0.636341060473481,-0.956636990120595,0.990564505707655,-0.590000833465939,0.59204604255973,0.718734703810174,7.21900747207595,0.958627046206977,0.136340895562178,0.590138557741483,0.62623556653033,-1.44906175595277,0.917798329112869,0.806443491099825,-0.492625034160243,0.587799681304158,0.664841029423924,0.137136019063929,0.7662242561959,0.414103107876303,0.501876868288872,0.776097299499117,-0.300898672907945,4.89549630515743,-0.267369554394906,-0.3545432500859,0.878077959249316,2.47605021875033,0.604707453866508,0.786006362313376,2.90448952169628,1.17638803887597,0.274908964312376,-0.649378507870637,1.57610697617594,1.65516582423862,-0.279704722744759,-0.320736236603106,0.593040124281472,-1.81700937835851,-0.805823950750909,0.702323696108392,0.201407812425123,-0.624788692195901,-0.441603208974461,-0.343824356245299,2.47624403036333,1.74722874121962,-0.521952850938075,0.0613845502253471,0.934966621546554,0.574002285870839,0.576527035278661,0.640837811644374,-0.0884148337350214,-0.885567714378148,-0.0903502934996057,-0.59370430654804,-0.532807718684779,0.0027955273617592,7.91485361406957,-0.208817402559523,-0.401768885261989,-0.176438803582111,2.48395029098543,-0.297981537535631,0.55512436187195,0.500559975351188,0.576254399408064,-0.403379481683954,0.202327646761532,-0.0058005575051153,-0.82364420583191,0.869137921395257,0.531460789384697,-0.0767344343642774,0.891373506077836,0.634203841660625,-0.0725187155892457,-0.706993930389087,-0.131918721024843,-0.923267336759944,0.415303525602075,0.694296524739881,-0.70029544919119,0.407579382655036,-1.0077067685757,0.784989208478533,-3.04171806606542,0.35393621409571,0.702932402156836,0.271212313477295,0.828088502540285,0.687422974417727,-1.02267296924792,0.810316815583586,0.0445085300320622,-2.65984220193881,1.61111723350367,0.342887764995256,-0.984292297356335,-0.957512606650708,0.88680485604391,0.22282097754216,-0.42630761284065,-1.10541958245284,0.116531969538529,-0.802034000042843,0.285126770508219,-3.50859407623978,-0.957785326920032,-0.252214317577024,0.602574883513317,-0.380058378865248,-0.375097852115088,-0.289459524959261,1.9200871179104,2.7835617296992,-0.938650892517967,0.654650520649112,0.534777280515045,-3.07958729728867,-0.637853788183177,-0.446870072821944,-0.356935976230082,-14.1935529662403,0.323600581482163,0.818973095680701,0.154124647882356,12.4943735804752,-4.2864355083526,-0.693392801400882,2.98569373811502,0.209519240076189,0.861572402738159,-0.0734753223115722,-0.574036731822674,0.0987298396357198,0.618107765567011,0.493029265015715,-0.222245891290143,0.592956178562843,1.88876871321922,-0.174512769865384,-0.93675993628057,-0.828702977370749,-0.271598173972597,0.784039693597652,0.432439131058076,-2.15482437251472,-1.35000866161022,-0.0520191882519287,0.608705144048984,-0.114541680542649,-0.412416151397886,0.797024251434673,0.0641423632489577,0.698293063504329,0.346005133680687,-0.0156444003021169,0.85606304056049,-0.735184842971453,3.45786641965054,-0.173855148905472,0.597600606236174,0.391593430724411,-0.715702618906356,-0.77960330567657,0.269972199616753,0.143427400644873,-1.27298731487398,-0.455380345804006,-0.0278618681804849,-0.886119251758895,0.813367740822118,-0.408334655348578,-0.419006107649123,0.667481207389494,-0.661508839758831,0.449263436565653,0.646811191462059,-0.847738203728808,0.506875730186217,-0.760870505347989,0.700346957288911,-0.315497489602633,-0.475015594596077,-0.585143859113319,-0.763970867450618,-0.837696687569747,0.284785011227829,2.51669674996483,-0.491467952009932,0.311413525869665,1.68617824933495,-1.04684928195881,-0.983659684628992,0.805325644659475,0.10843504005652,0.664398329892597,0.43231634109023,-0.64388327772612,0.834476778954391,0.122121103011739,0.857254414405899,0.237277019061649,-0.135211758450426,-1.20672261886246,-0.123512229823418,0.235674074211165,1.01388531736199,-0.559544165001804,0.805297466430319,-0.767559339151568,0.15213263048139,0.307336401561279,0.111283371516248,0.117336256695601,0.880078928279754,-0.0427814309617955,-0.00686903547702997,0.38941120178769,1.15553903149086,-0.877883469974391,-0.692819214553795,-0.341308380629409,1.09705595399054,0.149010999699499,-0.088373150185583,-0.519700034505703,0.146588358149808,1.08681748667673,0.136115087579925,-0.308649041233473,0.944924719318942,-0.537254442765371,-0.328213256834791,0.862550523536839,0.140765292714689,-0.291332485288776,-1.34444845928884,0.566806795952489,0.748971451809393,0.116842609024913,1.20863157012868,0.176544641083145,0.409257458342098,-0.262189941223318,-2.18540392176354,-0.0338634541449205,-0.201218091581616,-0.171852918489603,-0.00739318780421517,0.331934585265777,-0.355386510463091,-2.44975259091938,-0.975282706789738,-2.36459996307597,-1.38989565323342,0.349796307128763,-0.280905825612908,6.63784704713424,0.500537821482841,0.465734468185638,1.42179649393247,-0.13322253763989,1.3424040506341,-0.0786873261138903,-0.873366799084245,26.4523998480357,0.234454759671299,0.47241097805777,-0.221910566980903,15.0631274685906,-0.544904233898041,-0.594092569889163,-16.7317965323115,-0.167778402134811,0.77748466004852,-0.53822149924206,-8.38184820076527,-27.1338301753003,-0.168905350367569,0.349201783182922,-0.787516273743871,-18.3996504031833,0.0244031893624036,-0.492924154348261,-13.5646979532126,-0.182043215342689,0.95901938686797,-1.16102602018532,-0.0752709277367311,10.7794029966449,-1.04657580522445,0.214701353800718,17.8445850873081,-0.509287420549621,13.4024439504129,-0.724557892579707,0.684435859614226,-0.740684327102076,4.9279413328045,0.191425745032168,-2.00859440466291,-1.2627346888049,0.781954683593747,0.201545532740835,-0.106219598351299,2.47804142314427,1.87336587678599,0.439517745208729,-0.680819660673186,-0.773330895386361,7.4925999233058,0.112963042326398,-0.432164546746426,-14.0860519318318,-0.868608541975204,0.254004311884979,-0.596266051769623,1.37002336716763,-1.05648915433604,-2.59893270456666,-0.677925610741231,-0.706918285075378,3.11876658425476,0.822042518607413,-0.133001216114754,2.09800791047205,0.469769592162278,1.03395146861485,-0.199455801336217,0.403122347034698,-5.03422576340272,0.948944780388029,0.613997980487436,-1.9657045707674,0.448626121555462,0.638406696641919,-1.76548643101989,0.712033234003904,-0.854817277300856,23.7764200590068,-0.805604524234244,-0.373256458736884,-0.291993388403728,-3.68615697497055,-0.966505737855883,-0.114889132535519,-0.128522614443076,0.394255767895037,0.254005512170632,0.0944354492845973,-0.768591755429978,16.7445624981682,0.697524346723533,0.166629100693312,-1.49578442732041,-121.522880834533,0.033826429551381,0.463970572499361,0.900822539589524,0.610255909577237,-1.04687027158028,0.773900853729691,-0.480074800705517,-3.2725599602927,0.773562611656102,-0.202275548128683,-1.59432191133545,0.82312037384516,-3.07341719553194,0.195686125050753,0.229770241000538,-18.3526783492249,120.366345077012,0.346306154724514,-0.150500000765164,0.21525002771254,2.43249375245991,-1.74627874289294,0.941233893482696,2.74522670868683,-7.16173474423027,-0.639050700587391,0.501093958893162,-9.59665017806516,-2.05743685465956,0.84671957557806,-0.784002164623733,-5.58578805702169,-3.18625014961363,-1.1854622289807,-0.0110263224223054,2.86722882852191,33.9923544487538,1.20705670110103,-0.12653601191017,2.81074042743939,8.07668139372346,0.617906783827276,-0.722469720507297,4.588614277161,8.55537842999642,0.591032985089244,0.527163734120609,0.603362976632397,2.67737861798237,-1.09843627153211,-0.408498767499114,10.8079599132512,-6.20084165890994,-0.790955841302022,-0.0210565493373169,-4.77725250123162,-2.64566007292104,-1.09047699138532,-0.354434397698023,-3.72103763424795,-0.875009643252667,-0.427982725301702,1.55517452796263,0.637781644438532,-0.766171394691028,0.67900029005512,-0.996433806710044,-0.106873531640465,0.147136981252143,0.818817045076498,-0.685564877905863,0.158883243482608,0.701547378271928,1.7643092169922,0.758429371417521,0.617514130636851,0.0694460185590124,-0.884941523969322,0.0261882154093371,-0.109855102570282,0.440800577566384,0.686986347699976,-0.387323459374663,0.701668584408156,-2.84214784831831,-0.574757037446018,0.428799685174459,-0.471599836160673,-0.893574440819413,0.478446665520041,-0.495255094682349,-0.1196544148471,0.0685049107424472,-0.0365071190626878,0.0581972964189599,-0.150756446283438,-0.542337159265512,-0.804305582998669,-0.669958526371394,-0.899164424424111,1.34601569440351,0.0850159704301355,1.39670494304397,-2.44016166316227,-0.0792886171968397,-0.561683213274766,0.406803773952843,0.718157303943028,0.0280058826515378,-9.15834019003171,0.468529990776949,0.450244344699656,0.851578001559139,-5.42050762802668,5.49573082431381,-0.765515746815356,0.89064052874219,20.3459115396533,4.29990210931928,0.419085309304756,-0.512437219762211,2.43665686912041,-0.25670148918502,-0.646184524274835,0.00560967106927028,-5.14024782756964,0.282771084510277,-1.48980478238196,-0.569024816609287,-2.4621007127568,2.07180430215959,-1.82112690058682,0.180366409328965,0.934922075390776,-5.25008244702714,-0.263132858929515,0.975959747938962,-2.91152954363972,2.05954432642004,3.8817069490036,0.953894952155005,-6.2599589710898,-0.722078155376763,0.922788327304073,1.00202701306218,0.182523822186035,-3.42438139899067,-0.710891395491746,0.233517710548724,1.89170203576935,0.924264540317802,3.10417788846237,1.04954606952637,-0.230316717985449,0.032737519566236,-6.51024354059748,0.853292286536288,1.19663962132754,3.59206457744023,-8.33512017579489,-0.102869003194234,0.762187223334045,0.216431320717141,-3.15579915701005,-0.0654706592656042,-0.317050157627708,2.48562381202216,-1.50667534362347,0.790615349473448,0.124648392253411,2.71207005489199,-0.88933721919878,0.0993793745406954,-1.11289085859528,-5.01159835504425,5.37553188923821,-0.627711653407879,0.577395154048383,-20.8147484945813,-1.32872252359085,3.47230543223122,0.203324433689061,-23.9965764108409,0.282468689033146\nbiasActivation=0,1,1\n[BASIC:ACTIVATION]\n\"ActivationSigmoid\"\n\"ActivationSigmoid\"\n\"ActivationLinear\"";
// Junk model 40 4 4 4 4 4 2
// static const char defaultModel[] PROGMEM = "encog,BasicNetwork,java,3.4.0,1,63644976912205\n[BASIC]\n[BASIC:PARAMS]\nlabels=\"Morten\",\"Anton\"\n[BASIC:NETWORK]\nbeginTraining=0\nconnectionLimit=0\ncontextTargetOffset=0,0,0,0,0,0,0\ncontextTargetSize=0,0,0,0,0,0,0\nendTraining=6\nhasContext=f\ninputCount=40\nlayerCounts=2,5,5,5,5,5,41\nlayerFeedCounts=2,4,4,4,4,4,40\nlayerContextCount=0,0,0,0,0,0,0\nlayerIndex=0,2,7,12,17,22,27\noutput=0.562563282531989,0.437822192630827,0.632317542511967,0.625681581174168,0.39864761248837,0.949700849580177,1,0.632578617795363,0.000605920277472321,0.00151056008861802,0.0648917030849507,1,1,1,1,0.00000000000000000001,1,1,0.00000000000000000001,0.00000000000000000001,1,1,1,0.00000000000000000001,0.00000000000000000001,1,1,0.947575,-0.79405,-0.718125,0.40033,0.652125,-0.8521,-0.68795,0.18781,0.233475,-0.85685,-0.624625,0.164865,-0.25105,-1.074575,-0.58485,0.00391,-1.1623,-1.52275,-0.287025,-1.807495,-2.176575,1.15685,0.589,-2.91,-0.67865,1.455475,-0.2398,1.18843,0.370575,0.593275,-0.89345,0.68503,0.6331,0.1503,-0.650175,1.75422,1.362875,-1.299725,-0.66045,0.635935,1\noutputCount=2\nweightIndex=0,10,30,50,70,90,254\nweights=0.7808950693133,1.59502340223518,-1.13509393090671,-0.947516285984316,0.112180672269858,1.16427450380989,-1.19896508580275,1.10908299284042,-0.220855026177495,-0.468413211569832,-0.328425220140501,0.0737711429140736,272.872333506606,1.21267533136925,0.258999478792086,-0.33024001976082,-1.50704772290098,-1.82439299498454,-1.75327831321958,0.840079759980813,-1.21256128108946,1.36786601418686,664.740909008403,2.83730113792475,-0.833140116058751,0.231923759304524,1744.94207210093,1149.11686924838,1.73950884993856,-0.114536714118585,832.735029366382,-833.240129755856,0.222174380843384,1871.13232867456,0.82622114862384,-7.1260789199869,-0.504511437646226,0.880201244293183,-0.168355869586219,-0.65776691861403,-5.52959276710668,-1.75577747794921,-0.661467711756428,-1517.89933956872,1.45307488163267,3.61640508757058,-4.7386441283454,-0.796337856256118,7.66482884316333,-0.749365677116641,9062.88084117971,2168.57872899834,-4709.79216119777,2329.79771093189,0.602950076086468,1695.39868550822,-1367.30961620773,-2378.06962400064,-10.9852523797882,5.60897893242939,1812.22541528673,-555.443711566134,-7100.87293463288,220.960441719196,5.83584291407352,-5927.74395658444,5628.96541215721,11228.9002740586,-19.3597595828691,1.00019255806049,3502.02485006294,-331.805591312141,-5304.96852801399,-1901.55831819073,27.1629354336226,-3102.84455455229,3993.96466304802,12399.0690169781,-4507.60470711467,1048.40073184883,-7318.38615297099,3582.6793906508,8210.30179082712,-2485.52560290409,-1.45691764343282,9133.25202398519,-3574.44081343794,-18317.4954444328,-135.164866610819,-3.57453378762576,9711.87683375299,9967.80765170153,-8299.79771213523,5134.81378119369,5520.92585559527,10724.2596580886,-11797.978123225,3737.39120862601,-11380.0859819646,938.397310211482,-12457.9193024524,8202.98370747032,-8972.31060842846,4701.57429307552,-9182.27323063559,6254.27648605652,-5926.67862575361,9266.60124034512,-6648.89060837801,-5033.09943242947,-9200.82149087938,7501.64202538254,-9776.4586942377,-5826.50677825574,-9933.51171274747,8232.89954965388,-13679.5246573531,-10774.2385762838,-9717.81070272231,7166.74149166144,-11549.4383135341,-9041.87601971778,-13769.3778053734,7149.84526939378,-7250.05194524239,5502.48024588247,-2213.89823119539,7513.63498310629,-8973.99196415964,2286.74915366001,-0.567193150948933,-8074.1730904805,-9703.4777113039,6022.43528840879,-2965.58727483425,-3426.66881679522,-9816.25427804351,12660.8428851352,-4632.90266027284,9037.73651584126,203.419146134051,15204.2558026187,-7437.39410536635,7345.38734374771,-2659.67592427768,9175.88278160908,-7025.88439514427,6742.09807385687,-7835.11510149221,7808.21004909035,4283.80319823013,8504.78449400956,-7245.44712427733,9588.59167097389,8968.71943996079,9550.67441158482,-8185.82155009162,11049.2965697286,11457.853269838,9446.20255349892,-7738.05765302306,11797.9625566582,8500.6728913305,13834.4153772219,-7334.79531305551,7128.37904896767,-6352.36083487378,976.889363755336,-6995.45783214274,8530.56602352225,-3418.59755785796,-3.07179693958655,-7659.49460299703,-9615.57102530621,8279.71685692369,-6059.43118110134,-7079.75088886203,-6705.98943408592,15431.0661553005,-5968.0947569319,8923.75250183847,-840.664943039471,16403.0650761066,-9505.60504080822,8049.0987656295,-1887.98968795676,13356.1090870872,-4553.51621095434,7913.98989225122,-5328.44631740083,11257.4806821267,9408.41966154677,5725.28039516849,-5851.41185753674,9728.26574665054,9219.82864426867,7409.9111281902,-6165.34492918801,9071.64959821315,13716.7145634833,8471.95246049708,-4489.69203405785,10608.7867336519,6013.52907173481,10318.109547449,-3870.94985680266,6610.15086443235,-1010.58571186167,8278.21932045192,-4197.75129046614,6837.67354215604,58.4050531562152,-4.60324055283142,-7894.01462434576,-11218.9350881669,10839.1895801315,1585.53895437912,3659.97768677771,-12529.188012419,-11616.0852164786,-11452.4830900988,10080.200427342,-16382.624592742,-12797.5074890453,-9713.08388360394,8486.7931604733,-14507.9445413284,-4372.75251479002,-17069.9563157625,-12792.1428921229,-10283.8605054239,-2732.21396792226,-27917.0772593167,12419.0315408464,-10117.2083842568,9551.41045308015,-24414.8356955455,2198.44335311652,-6992.98945346399,8549.63671508391,-8826.01109003548,12361.1644361715,-10715.496965322,6904.83512812095,1159.33086592816,7770.41709719425,-11054.6443775565,12518.380692375,4408.35734873763,8987.4850014442,-9901.86095167349,11235.2992641636,14606.3961482732,0.595595217838957\nbiasActivation=0,1,1,1,1,1,1\n[BASIC:ACTIVATION]\n\"ActivationSigmoid\"\n\"ActivationSigmoid\"\n\"ActivationSigmoid\"\n\"ActivationSigmoid\"\n\"ActivationSigmoid\"\n\"ActivationSigmoid\"\n\"ActivationLinear\"";
// New probably drunk 40 100 2 model
// static const char defaultModel[] PROGMEM = "encog,BasicNetwork,java,3.4.0,1,63646788507978\n[BASIC]\n[BASIC:PARAMS]\nlabels=\"Anton\",\"Morten\"\n[BASIC:NETWORK]\nbeginTraining=0\nconnectionLimit=0\ncontextTargetOffset=0,0,0\ncontextTargetSize=0,0,0\nendTraining=2\nhasContext=f\ninputCount=40\nlayerCounts=2,101,41\nlayerFeedCounts=2,100,40\nlayerContextCount=0,0,0\nlayerIndex=0,2,103\noutput=0.00000000000002288545,0.999999999999995,0.406381740219899,1,0.00000000000000000001,0.876268499605086,0.870326226860116,0.0599143223543887,0.68537212066904,0.845067640344017,0.999874250390702,0.00604642415407107,0.00320326028971713,0.995242371826322,0.779690133806948,0.00000191168933709359,0.999811660708683,0.53189448615233,0.312178597164051,1,1,0.948197083299157,0.999946912340488,0.00195729335207738,0.98686721534459,0.00000000265643130863,1,0.999841073323151,0.855005248226925,0.00000000000000441542,0.774214955989476,0.999141182126108,0.141398395589103,0.00000001816298229049,1,0.00000660059255368276,0.975790476207317,0.0000183808697741688,0.103573477084657,0.550749319738408,0.0123544890645162,0.00000042606372734531,0.0000162766783219726,0.00053185298924983,0.162267172883715,0.999999952176695,0.00000004697061954466,0.0491032942626083,0.999720130771044,0.997225484871197,1,0.000565301613671166,0.41029341611393,0.206931791900289,0.794205375030922,0.642225290604735,1,0.889746725589966,0.99999997773668,0.00000000000000000001,0.101666690020542,0.187866393786954,0.910126482905558,0.25427511509391,1,0.734599663291035,0.100324206163072,0.00000000000000000001,0.996442817402076,0.00173918684611845,0.00000043777624936641,0.230746331916482,0.00000000024668833157,0.939514352756267,0.959781161874875,1,0.0421981748222462,0.956446022733456,0.00000000000002130028,0.999886260866328,0.185358485077157,0.999854842332776,0.0373676898786709,0.955157990487422,0.66668363806844,1,0.999999999722334,0.999742800593039,0.996517967548357,0.760972794463339,0.402906530230082,0.0000000029438491666,0.00000029479768841107,0.768147625397248,0.999999818601206,0.97906486321056,0.991789844865821,0.000101124667787889,0.652043558157108,0.000829340722384127,0.632965730401673,0.0116541307377987,1,0.856924999999988,0.659925,-1.09885,-0.55035,-0.69585,-2.06165,-0.460475,-0.101675,1.188275,-0.0175,1.38795,0.160875,0.271645,-1.3945,0.566675,0.03735,2.167255,-1.08435,0.258375,-0.751425,0.129825,0.818825,0.552175,-1.025475,-0.18143,1.07165,0.454825,-1.0269,0.01057,0.662925,0.46,-0.9886,0.146465,0.092125,0.474925,-0.9353,0.116905,0.04975,0.397125,-1.038975,1\noutputCount=2\nweightIndex=0,202,4302\nweights=-0.5343556351,-0.2197692654,7.3692067653,-0.6570321335,0.7875503445,-0.6014819907,11.2465047534,0.2363940882,-3.1952983642,0.1483420871,-0.05583264,-0.5794707426,2.5643472387,1.0203562618,-7.6300798974,-1.1298425766,0.0476084739,-0.6084238293,-0.7259012022,-6.8918634256,3.5007897051,-0.3046425416,0.1161081894,-11.2315191783,-0.3415612255,6.7052219946,-0.7229716943,-2.4041315245,0.9882141681,-12.4991066957,0.6788276111,7.1116049623,0.3336593642,0.1842666187,-0.912115444,-4.9748266761,2.8624962363,-1.9472701271,0.0138817194,12.2486560227,0.5728349621,3.0263807005,-13.4262368,4.8055169139,-2.0093902065,8.8851020472,0.2666252027,0.3705548608,0.1306921627,15.2397042546,0.2360233462,-0.8284357364,0.810053497,-4.7183071729,-8.6487070725,0.8764560968,-2.4437410146,0.4243543214,0.8512479513,-0.7703634305,10.5969128996,-0.7408837377,7.2836995137,-12.4812847915,4.2449563871,-0.969888538,-0.2976349153,0.4808303425,-0.6319507176,-4.106602361,-8.2829267588,-3.004311006,0.6737957662,-0.4062543364,5.8363604814,0.8104030818,0.3241710872,3.5792910777,-3.9960202633,0.8184359,-14.9598666714,0.4867564317,-0.7571413613,-4.2482751024,8.8054244174,0.8334221779,-16.6703566768,-2.948014756,3.0509310132,-0.4387276319,8.2692805198,-0.8589837199,-0.3797093115,-3.92975126,0.4341808707,0.2250444668,0.4137961693,2.3466117885,0.2839403125,-0.1367668817,-0.5127670556,-0.5637810068,0.7034181992,-6.973919346,0.1472585469,-0.7889961221,-0.8211951839,-11.3814897624,-0.8883963591,2.7903277806,0.9388563719,0.717808894,-0.2288469584,-1.1937781538,-0.4400315366,7.8736618135,1.5400358519,0.1483766367,0.2269313151,0.5619670671,6.567928241,-2.9924787921,-0.8657755492,-0.4930775238,10.5978580351,-0.1357395247,-6.9455154845,0.8958301616,2.6480284493,-0.997099031,12.1349164124,0.763203112,-6.9642341001,-0.6968050896,-0.621704125,-1.0123565246,4.9043538428,-2.0982395284,1.009889311,-0.7851389392,-12.480003708,-0.0454443589,-3.7125638333,11.5975772743,-5.039632221,1.0234900895,-9.2835608757,0.2709449369,0.7697601796,0.5975198443,-12.9846635565,-0.7162971244,-0.3802152136,0.7384063505,3.9681317328,8.4439632562,0.7740683551,1.9850201035,-0.3382865896,0.3966369447,-0.3668703364,-9.3996730161,-0.477654302,-6.4495033158,11.695762988,-4.1738297007,1.2760163534,0.0588764398,0.2566503465,1.2606745275,2.8088912651,7.4599725102,1.5213205131,0.5549605018,0.7876755281,-6.5244136939,0.7127531577,-0.113365733,-4.3191240493,3.6818484527,0.5109964949,13.636919009,0.7876904394,-0.5251451837,2.7538680089,-8.7094311247,-1.3662334517,17.8676088167,3.3115433504,-3.0085325096,0.2746805313,-6.7749037259,-0.5994436517,0.1049773718,4.2021696193,0.0138390658,0.2884485143,0.2109040247,-1.9527361111,2.0685511476,0.2327782415,0.2553686087,-0.5099538453,3.8527006019,-0.8024543567,0.8078983751,-0.2141750592,1.9770104127,-0.5028749584,0.941514453,-0.7559352811,-1.2909495726,1.0846604714,-0.8045162387,7.3919925196,-0.8887759195,1.1423378988,0.502349239,-0.2455097095,0.9098449692,-0.375822147,0.5628405817,0.1708392405,-0.0920820953,0.7279871708,-0.5575890815,0.6944218401,0.2110253301,-0.5550430829,0.9783224791,-0.0492061547,0.0641063289,0.4662932655,0.1959389089,-0.9569292854,0.0228578314,-1.176679889,0.4083360163,-0.3144664962,-2.5466715274,0.3086271781,0.7895626867,0.6079440277,10.5233518788,0.7363851515,0.1993692671,0.8336432864,0.5921970098,1.2063696898,2.7735050342,-0.233032329,-0.3697784071,1.0312878551,-0.1597469184,-0.5506069135,-0.5844134184,-30.8878262214,1.0334562316,0.5146025349,2.9300109408,-3.500399333,-0.5413231267,-1.141337055,-0.5831568373,-1.8747416935,1.1345879623,-0.2450601523,-2.8188502979,0.2674216636,0.7277006445,-0.677752248,0.9386292877,0.2264533353,0.9503153703,-0.6624784636,10.5865713301,-6.3362841454,0.0820421393,-0.1964976742,-0.4969339849,-3.1641204849,-0.0172870719,0.6702899754,-0.6443077187,-0.6987851611,0.5352249486,-0.7141754997,0.7735202998,-0.6683504327,2.4277049798,0.3163340648,0.7166886859,-0.3666084605,2.6604029609,0.5458625622,-0.2305363032,-1.1262292607,0.2236342482,-0.7683282138,-0.663953504,-1.5830846445,2.9259286944,0.3843403768,0.7431788599,3.6166206528,-38.3705637676,0.3847239308,0.1789029517,17.2279407614,9.5983954066,-0.3436240558,-0.2177751912,0.0630324659,-12.3308679325,0.552517519,0.5484781551,0.763048521,0.1282741725,-0.6432817973,0.6763971933,-7.778423515,0.4981535726,0.7692836564,-0.4179790277,-0.2496555118,0.1337349576,-0.185905386,4.0521399549,-0.9391400574,-0.4565434677,-4.0636411001,-0.2819489336,-0.9513260533,0.409235449,3.4435649806,1.1401089219,-0.2223070171,0.9662823246,14.7956478893,0.7482090611,-0.8139509349,-0.1442120044,0.4055290325,-0.1684517671,-0.0005441692,11.1927198982,1.033613256,-0.1067411225,0.0452450202,-3.1556132441,1.0543925268,0.5052973986,-0.3621158607,1.0096752085,15.2134181415,0.4332711935,0.5928964374,-1.1679994014,2.6629125824,-0.1938734769,-0.1169299507,-2.8998649665,13.0232641958,3.1407298238,-0.7088018092,-0.812960681,-1.6089676852,-1.166918645,-0.7343128152,-0.933464282,-0.2971700538,0.5121341753,0.2804440638,-0.4117478697,3.4845770278,2.4561326323,-0.308910128,-0.2396750481,-5.0396750908,-6.4738543694,0.3925647039,-0.6692935093,-5.2153585932,-0.1079753485,1.4938218816,-0.8475938365,-2.2252360079,-0.0569785685,0.184790601,0.4223717011,-0.3302584871,0.6888085072,3.6152021748,-0.3809729976,-1.0550998196,-2.411299633,1.0043735755,0.9453780707,3.3937588548,-0.7455908484,4.1468147413,-0.5725937084,-0.5644422239,7.5951208245,-0.4790680897,0.009652324,-0.7847807788,0.0008411734,-0.0539621033,0.2482982654,-0.0610124459,-0.6787699607,-0.1038618432,-0.169932262,-0.1974261826,-0.9609222627,-2.6968895694,1.0834300014,-0.7489973192,-0.4270774297,0.9511054758,-0.3752239232,-0.0797605857,-0.2760786212,-2.9759107264,0.83402681,0.1149485576,-0.388690573,-0.4937650475,0.3186719731,-0.5687005353,0.5921969263,-2.3695369765,0.237521512,0.4876149068,-0.4960438662,0.1917325542,-0.703912533,1.0446009117,1.1075588987,2.0049223369,0.1846110221,0.3917668446,0.9235877134,2.6357620354,0.0018869017,0.5882629089,-0.37918569,0.3968302987,-0.3321766521,3.9510420263,0.2006582848,2.3316394888,-5.395857698,-0.0259646036,-0.4613121038,-0.5407951055,2.0666896081,0.7488259939,0.7604196645,-1.4308373846,-0.31726651,-0.9787052828,0.4402998825,-2.8900228914,0.2400399844,0.4981684994,0.2234130149,-9.0364535406,5.0713475681,-0.0036609061,0.5985292115,0.2692452424,-0.0035063377,0.6229085636,0.7367119626,-1.7352642589,2.1487232472,0.7668304467,0.3695356947,0.157609884,-0.2240870618,-0.4667675421,0.7886461612,3.7988479565,-21.3578902343,-0.0749583845,-0.0855809529,0.3982761937,0.3301444083,-3.6385504096,-0.4611675086,0.3714498107,-0.5467220999,-0.7300400187,-3.9455258085,-0.500793947,-0.458972686,0.6467326186,-0.7740246756,-0.9834373087,-0.6747997791,-4.5782824176,-1.497236793,-0.6939967077,-0.8746817502,0.0698189157,-0.0206773426,-0.4476800367,0.153802061,0.4454401899,-0.1939351111,1.000767624,-0.0641933204,1.3664451649,-0.06746623,0.1993497324,0.4424367418,-0.5238001338,0.2571621986,0.5401407658,0.6426688574,1.8404541347,-0.3831482235,-0.2287295142,-0.6183741578,4.2599155244,-4.794115026,-0.0125886494,-0.4163085216,-1.1353587324,-0.3158812318,0.4894250888,0.8040508015,-4.1824919808,0.0541760898,-0.2226133722,0.3901365994,-0.9641852794,0.2974895311,-0.5951152104,-0.0599002079,-0.56423205,-0.9579104663,-0.3602877299,-0.4800069963,10.6675703598,-0.3221283248,0.5046044814,-0.4447084882,-79.7917341931,1.1742391312,-0.411944209,0.7918441339,-0.975248256,-3.2360172342,-0.7617450864,0.3586819093,-3.1451080188,-3.468668769,0.4192184634,0.9560752211,-0.0176729777,-1.55263634,3.1201566183,-0.4404333534,-0.4809010691,-0.8276526759,-0.439181666,-0.8506666451,0.541722298,-0.5610860234,0.8609507115,-1.4672900239,0.9353924136,-0.5913736047,-0.7482960492,1.4124433568,1.1815221683,-1.024600334,-0.7151100869,-0.1530074515,0.0793320854,-0.2840326453,5.1315971541,-0.3572904485,-0.1238763389,-1.0376713122,-1.5354926056,-0.5024756025,0.6476298558,-5.3760416171,0.182341343,-0.2933027183,-0.7309709322,-0.1884637735,-1.3293614809,1.5780165741,0.0893202504,-0.642797616,-0.9225730484,0.7554794631,0.0039051182,-0.3317133117,-0.0194558926,3.330495414,0.986062226,7.9419565725,-9.5635696872,5.9635930866,-0.5868902693,-0.4652701427,-0.5443483654,6.034239815,-2.0728285684,0.5461499274,-0.1418569563,-0.6288868062,-0.1311572243,0.6922784462,-0.5533336369,0.5111919395,0.9530116256,-0.3023523568,-2.0558117035,3.1647527201,-0.7268160658,1.1364420807,-5.087396711,-1.2077992116,-0.5142095073,0.3060892744,0.323538677,1.4961830809,-0.7653345089,-0.173654723,0.6362834106,0.6006628862,-0.5064067223,0.1724680376,0.1268839083,0.256948438,-1.8834622579,-1.0206339951,0.9976739147,0.3616100538,-0.2432828227,0.2910081496,0.7535063148,0.0149186875,0.1554396693,-0.9097648284,-0.1513212345,-0.7536230056,-2.6535799947,-0.7306272849,0.0952463454,3.0734139228,1.3971624661,-1.3782056282,0.2977139075,0.2070719338,3.3737480101,1.0865995485,-0.469171867,-6.1009275294,-1.9397780976,0.751749978,-0.2052528464,3.2609125651,4.7901721335,-0.546305842,-0.0590724546,2.0892627413,0.3374351481,-0.2206653403,-0.1324170842,-0.3504936118,-1.9492235414,-0.6807735784,-1.1904688564,1.0516296869,-1.1229165749,0.9256962024,-2.0826420794,-1.9282858452,-1.9909430682,4.5009190662,-2.3358191019,-1.171420822,2.6349574874,0.4036507994,-0.5928116408,0.715226837,0.7748993676,-0.0998908353,-2.9735434263,-0.2699002025,0.2405750084,3.1072872058,-0.5535887713,-0.3876600928,-1.2083079843,0.6135506176,1.1169798738,-0.9472705605,-4.581307278,5.5565805606,-0.2003397755,-0.1168751285,5.8856139151,2.9070708973,0.1755182094,0.3561244671,5.4706067371,-0.7461717822,-0.0922654444,0.2500452663,0.4105721793,3.4444088827,0.1852914349,0.3361625154,0.0624460618,1.4560774167,1.3928285695,0.9624391903,2.1195013156,-2.3745064552,0.1190533026,-0.3636242873,-3.1452078692,2.2191388434,1.7196192108,0.9514370324,-0.4207291465,-0.3390055276,-1.0254979614,-0.047232604,0.7599545851,0.0769535497,0.9045496965,-0.8746180492,-0.5110192612,-0.4589239692,0.1310032752,-0.0844728071,0.625662778,-0.465665652,-2.6642623603,-0.1420969468,-0.8138780359,-3.647444506,-0.3076051553,0.6020438721,-0.5531354006,-1.3717236646,-2.842446982,-0.6001796334,0.5849036475,-2.4944389111,-4.6279986123,1.0076150437,-0.0374976629,0.5163898026,0.4982744973,0.4602269769,-0.3649215085,0.9213440432,6.2874978879,0.4732512669,0.6717043162,-5.4782084297,6.3484039489,0.9221121589,0.3962848978,0.3144884111,-0.0288735491,1.0517226781,-3.6342721527,0.7069886641,-0.2111794541,-0.3972828402,1.0453896691,0.7272344328,-0.87710368,-7.7096573428,0.452689429,-0.3561305873,-0.3773040719,1.0503109252,1.0263747513,-0.2562644535,0.4817057513,2.9299557863,-0.680606484,1.1788847977,-3.0829593225,2.6990673526,0.5197414764,0.9087518551,0.0126009026,3.1653203592,0.6411464705,0.9603288858,0.3914355637,3.3108413025,0.7892945186,-0.8617636848,0.853650659,0.2438188983,0.3960104772,0.6866094364,7.5634965498,1.4641667456,0.1890711904,-0.5091022938,-0.1097754009,0.0560876488,1.6224153331,1.6542823821,-0.984096843,0.1239866095,-0.0302230443,0.9194792548,0.2304468861,0.1316373751,-0.7030404828,0.3169507978,0.7002810625,0.0671823196,4.8840018067,0.6514947247,0.2875449517,1.3881484816,2.1898834949,-0.8643884211,-0.8871193818,1.0494099447,-2.8560228304,0.4478686213,0.349385858,0.8743673404,-1.3353360663,-0.2604656134,-1.1320933027,9.2634598845,12.0685849045,-1.8805635806,-0.5589623072,8.6364978468,2.0458675303,-4.5011988169,0.3815305376,-0.0970159397,6.114485281,-0.2982276059,-0.7996219331,0.4789874913,-0.3081198274,-0.8352477212,0.7003108453,0.0237664826,-5.608570353,-9.9590041994,4.7779860237,-0.3468652845,-9.2571076271,15.2351832472,1.091906995,0.5949600228,-0.0317638018,11.3634433976,9.45719365,0.7696832716,0.3470739207,9.6657757956,0.39491657,0.8807306357,11.9272318258,2.7159833129,1.0206043131,-0.4755545697,-0.7260078915,-0.4338134777,0.5500317925,-0.1571581102,18.4210526963,-0.4670296988,-0.4276677211,-0.9827792137,7.5349091269,-0.1067818277,0.781725424,-0.6302628771,4.7295298394,5.3489779649,0.0649194299,0.4514759273,0.9569937443,-4.452179172,0.3246907183,1.7129059486,0.5397626434,-0.2828860018,-1.3518688371,0.9660812342,-0.496259113,0.1965308589,0.1183574408,1.1132987498,0.2461498131,1.0554160578,0.345404667,0.8057134442,-0.1908865428,1.5992949511,-1.7181641873,0.9037855163,0.1543152489,1.6891202196,-3.0100141324,7.9227024043,0.6032458278,0.2297730661,-0.9307539273,2649.012759964,-0.9978121306,0.5460136472,-0.6266359304,1.7297321583,-0.908015279,-0.1277184852,-8.2981394397,5847.1973841349,-0.4800575586,0.7103478355,-0.2443704454,1550.9736940233,-0.098700386,0.2293906298,0.4799282935,4.8627365303,-4.4846087241,0.2183908727,3.7991152417,0.5615496185,0.3572245784,0.7975689969,0.8244412513,0.4056549123,3.7844833612,-0.2469017358,0.9061917121,-3.4132351018,0.5504489459,-0.3322152547,2.1605788823,-4.5656385278,-1.6254115072,-0.8365115041,-0.5709729841,-0.0889082487,1.8426044729,0.1547867725,-4.3038010429,2.6777689493,1.8224184645,-0.436221104,2.6709394906,56.3650260902,0.4547265579,-0.1322625363,0.3698395729,10.0654776462,-1.4684236009,0.7090976968,2.0840442518,5.1373541707,-2.7527616267,0.2200937968,0.3075437681,0.0065244749,0.8624636098,1.4800804323,-2.4637807076,4.2690024558,0.9687326258,-1.5830746655,0.660674287,4.3753298269,-8.0452462712,-0.7247161797,0.8092648667,-5.6742224385,0.8777052863,-0.5110891966,-0.8987043608,0.285080988,1.6645356093,0.1794230974,-0.9915796086,-1.4269510249,-1.897219977,0.452708459,0.1356995083,1.1924833601,-0.0686662219,-0.5659308653,0.0682417112,6.126968846,9.0916116465,-1.7925830985,-0.6549923615,-2.3973684361,3.2172343984,1.4168596983,0.5054177698,-1.3020465887,34.448848443,-1.9264791125,-0.3614870468,0.9417507854,-0.3033795055,0.2755424966,-0.3519264966,-0.5250767827,-0.3535684754,0.1858669337,0.2776737692,-0.5893049743,-0.8383398528,-0.6948356016,1.1514526694,-0.225426869,-0.052153823,0.1503116953,-0.4115856425,-0.9899291574,-2.0708620557,-5.4060114712,0.9568139573,-0.019875487,-0.0539846452,8.2393135588,-0.832216993,0.5327594678,0.4654384825,2.2913883698,0.8640111502,0.7967556399,0.4802092629,0.1397513896,-0.0774726433,-0.1157298845,4.6582141114,11.112050315,-0.316405137,0.3448652482,-0.3786389288,0.2234290935,-1.2631402975,0.0730743058,-0.747430775,0.6027070539,0.8403653163,0.3247605828,-0.6204407601,-1.4770753926,7.4484902202,-1.3894294819,-0.8559304619,-2.0418842233,-1.6475872964,1.0122434374,-0.3001150577,-3.508609756,-2.4195826804,0.4417765775,-1.1194352094,0.6813660092,-0.8095463419,-0.0617610946,-0.2936173008,-1.1481525536,-0.667710803,0.7919216422,-0.7110056834,-0.1960625182,-1.7954578404,0.6186512482,-0.4479288657,2.1037074912,0.4013652434,-0.4567135125,-0.019906024,-3.747223125,3.9054818942,0.8123237862,-0.9835157068,0.7266778488,-8.1192382167,0.7510641185,-0.6726710803,0.9475971929,0.4725192689,0.5316601827,-1.9983647532,-0.2668107649,0.2830384577,-0.4381286088,0.082991892,-0.883120737,0.0542105917,25.3200854099,-0.6513709597,-0.9005094477,0.4289261286,2.3155920711,0.47148503,0.9078573279,7.7464756985,1.5121039924,0.2967293194,0.2181967,21.3672931281,0.7670231466,-26.585235262,0.6315998402,0.9516092457,-0.4642050624,-4.475848802,-0.7736562069,-0.3272335152,6.3251661566,0.4539174565,-0.408566473,0.2496115405,12.5194396138,-0.6782856378,0.4560946441,-2.8866669425,0.779481156,-1.5041778916,0.2110734652,-0.6510322916,-0.8493561623,7.261197874,-0.9642808556,0.1862691989,-2.7901043527,0.3862756086,0.6972806694,-0.861322104,0.2514188445,3.1378598293,-1.186119297,-0.1030867488,-0.1023381482,2.4569475453,-1.0347985266,0.5001093166,-6.913037522,0.1522394146,0.4572436505,0.4030981407,-0.4632644641,1.1503040591,-0.6363011158,-0.1120354608,-0.1788023201,-1.0120672347,-0.3900558962,-0.2765309655,-0.0215029246,-4.0569661863,-1.2159633026,-0.3827019802,0.090144785,1.5084574501,-1.0022276712,-0.7470121775,1.9329743867,0.1332533882,-0.9978117983,0.9075768672,-1.0033907482,-1.0401995749,-0.455056254,3.1271760327,-0.4297526621,0.047605969,0.9793597423,0.8973829212,0.5098414014,-0.697879327,-0.0906777904,-0.0433650375,0.0012010184,2.2622533298,0.5242181323,-0.0940100868,-0.0292478621,-0.4589965625,-1.2008546495,-1.3179231929,-0.6670096681,0.903232905,-2.7353464206,4.966042683,-0.7537340546,9.2707113907,0.2670449401,66.8962399597,0.3890573478,11.5677578836,12.5590448678,0.1047452425,0.8355744625,-3.1445600071,-0.8877372344,0.4956108715,0.7941141818,0.3240333935,-10.013822941,18.0354861372,-0.5575428693,-0.2363401643,0.0487599031,0.32299358,1.3028918888,0.644606451,-3.5810192414,0.1189281836,-0.2936645172,0.6231715274,-4.3861947351,0.8718170764,0.6069894693,0.5255065217,-0.508483632,2.202657242,-0.8379867642,0.2321513873,0.9586971571,-1.4040277175,0.1377926798,0.5771459272,-0.0594835759,6.9947998375,-0.707372953,-0.4635763265,2.1105570395,7.9257159241,-1.0504376528,-0.8252227871,1.0451315495,0.1107362934,-0.9445383419,0.8242365197,5.6674238706,-4.696609882,-1.0749840934,0.642362015,0.3660441639,-0.8218066048,-0.2418605824,-0.0649964651,0.3544453713,-0.5793766141,-1.6498669116,-3.2944827713,0.0752295817,-0.9438670129,2.7508797997,1.9371574109,-0.8898371176,-2.4723074198,9.1879050888,0.2584186485,-0.8746357522,-2.511020183,-0.5487893064,0.9482202639,-0.2703741818,0.4387864215,4.5459076706,0.3699395678,0.0469025129,7.8775558178,1.3003910254,0.3811886157,0.0670943123,0.2981058227,3.1358107712,0.5560205668,-0.9849123643,-0.1931485377,-0.9471810055,1.3185047368,-1.0254312566,0.9230763113,-5.3586977203,1.6895291888,-0.1057197929,15.3334997773,-0.6132717272,3.2283152131,-0.6128507413,-0.2285401803,-0.0163921219,-2.4785883948,-5.81150514,-0.0706574792,0.122116118,-5.2766655308,-2.1511017213,0.5012206198,-3.8299442817,0.5435080157,-1.8130851778,0.749096315,1.2741259269,6.0929241705,-0.5381338537,0.5520434533,-0.742180329,-1.8616152052,-0.8389113025,0.3052931613,-2.8215829507,-29.3406957386,-0.4228101991,-0.8315978036,2.0323502888,-9.7455342373,-0.6013431006,0.5123059902,-3.0181855145,0.6580957505,-0.4588369718,-0.8211274251,-1.2519907273,1.2556866472,0.9573188512,-0.5882958245,9.0508189493,0.3906130833,-5.2485038434,-0.2158189642,0.0895914287,-0.0940655668,-2.5523413729,1.069076114,-0.8121895848,-1.6728751719,1.5579162502,0.4860638591,0.9608346999,1.3394000667,-0.5749729295,-0.0072861047,-0.3859604821,-3.0247248806,-0.8337426315,-0.7798766956,-0.3295262501,1.8288674654,-4.3220923096,-3.3937710473,0.5076549021,2.1925405794,-1.6441054872,0.3360819615,-0.7935586243,0.1040075501,-6.7794798719,0.8977110766,-0.0497724728,-6.7098293128,1.6338920368,2.3790558235,0.7198815613,-1.9067934995,1.4846820047,3.0218209168,-0.3874761449,2.6550292396,7.2591206941,1.3690748369,0.586935983,0.5177259517,0.2043439048,-0.0344554126,-0.5343791858,1.0127543112,1.5769004683,-0.5556218406,0.0216611999,-0.8015784302,0.0617300765,0.434884109,1.2117293691,0.8749925974,0.5502243284,-0.0185411461,0.5504711781,1.0458644648,3.3414677464,-0.1207393577,-0.0342887983,0.7186988927,2.1825982561,-0.8321239,1.3090236303,-0.8642812298,-0.6413756456,-2.1191102897,-0.4209376023,0.6637220365,1.5505961251,-0.6051641045,0.6689830172,0.1682884371,-0.9233325489,0.5099900358,1.0874143197,0.1085151465,-0.1571083002,-0.2466267209,0.3583949781,0.2909687758,-0.5574636533,0.4233264499,0.7590510306,-0.5919689985,-0.8416389549,0.2723403302,-0.3386668883,-0.5962082537,-0.7768699154,0.1107907915,-0.1813935993,-0.4983783422,-0.4422029131,-0.5585387308,0.0674409547,-1.0362336314,-0.4336571341,-0.8973101725,1.2513297385,1.035875145,0.3066809728,0.4291461793,-0.7898319262,0.8084769653,-0.2790872733,-2.917522017,0.6981054573,0.6763277487,0.6128052711,-0.4212895636,-1.521963225,-0.4058010577,-0.7567903294,0.4222775388,-1.0047516239,-0.3297059171,0.3610551151,-0.0082468008,-0.3237002437,0.7847322793,-0.0597342069,-0.3788146611,-0.0757280047,3.9028970344,-0.3119368287,1.9349485585,-0.0473797531,-0.7552719352,0.5703630964,0.0235732723,-3.6904011899,1.3364662479,0.8274572876,-0.7947877289,-5.2190659061,18.9347384907,-0.6566238829,-0.699519103,-0.1249061498,-5.1819685705,1.0960175246,0.8973993415,2.5878829287,1.7018661767,0.1630886639,-0.0398977289,7.6717013508,1.1903689401,-0.0888004304,0.027321632,-0.2857589648,0.7361983249,0.5471725329,-0.3269698847,-0.4718158644,35.9970512697,0.4009600071,1.4178921727,3.844250679,0.5667952222,-1.124202244,-0.1217469917,0.7088765383,0.4690320495,-0.30875035,-0.2621529174,0.4970041601,-0.4301870568,-1.0106970157,0.6897997218,0.2892234126,-1.8978401416,-0.7041262919,0.0527384506,0.1747867184,-11.9322146765,-25.9813022258,0.0905530611,0.6131464017,0.8094508212,-5.1856164401,-0.1640234289,0.7152415795,-0.216718202,3.9657118328,0.7249546401,0.0480291369,11.2827605345,0.857465568,-3.0144811421,-0.7969501959,-1.9645664829,-3.4885756701,-0.916675721,-0.5056048355,0.057264599,0.1355835564,0.4538341337,-0.6631453712,0.7682736252,-3.2727912852,-0.2076871654,-0.2736118119,-0.6421791146,0.3884796862,-2.5742156704,-0.5864898568,0.7595411,-0.9242526554,0.9025674898,1.4931708088,0.5344495086,-7.0326555629,-5.3285563959,-0.096423976,-0.8422210824,-1.5343927764,-2.3684897332,-0.0844620707,-0.368095574,-0.8652815143,1.7216000029,-0.2793877454,-0.8183143517,-3.1851485822,-2.0766740038,-1.0488562899,-0.4258467592,-1.4445647507,-0.0643485518,0.1579014928,0.2894726971,0.269613685,-0.2057180892,0.1086617281,-0.7834900936,-0.5214090647,5.8097929034,0.1382447238,-0.5432854326,0.0041405357,1.66894914,-0.861229727,-0.605054009,0.2733078648,0.4850206293,0.4096827519,-0.7129258963,-0.2394041479,-0.1606338661,0.5554575811,0.7373066554,-0.8154989275,0.0122086218,0.3734075102,1.0590601448,0.4700690236,-0.6680811362,-0.7034869593,-0.9673706938,0.3255828979,0.3782671062,0.2190626264,-2.1275829412,0.2007151325,1.301166507,-0.1620227385,0.5054955325,0.6551389504,-0.4168710542,0.655802789,-0.1959678567,-0.3645671462,-0.2819896391,0.3816367311,0.6047492663,-0.1089628327,-0.4240078982,0.0765704524,0.0812937211,-0.3687029069,-0.370678076,0.567987877,0.632146803,0.3751098157,0.1688094105,1.2585936295,1.9758866674,4.2312628444,-0.0130580272,0.0562437108,-1.6874675479,1.0843631316,-2.4796895603,1.2831438639,0.5936422901,-1.4516707837,0.4010780468,-0.0579779138,-3.3674451988,0.7036044968,0.3855506444,-7.3267994556,-2.7893685065,-0.5448139238,-0.4977107472,-19.4271589849,-0.7720262086,-0.7251561807,0.9956318243,-0.2078555886,2.6279511633,-0.5294436257,-0.8930003609,-0.6917634638,-1.1129175977,-1.5056640503,0.8630844298,-0.645890193,-0.4588897323,-0.3520086469,0.6492327351,0.0875180089,0.2417042433,-1.1474249341,-0.9227354583,-0.1505912033,-2.3095329861,-0.0702557184,-0.5366769263,0.2982747581,-0.6973854633,-0.6234114904,-0.0233955524,0.7317853476,0.1329756023,1.897836206,1.3144392505,-0.5242734769,0.0977864161,-1.1577172502,0.061808955,0.2172471766,0.2355102534,-4.6827695899,-0.5883824431,-0.2810078402,5.5065178755,-2.4048412233,-0.2277037205,-0.8736856094,-1.1711778829,-10.068463796,-0.8724314511,0.1682258209,2.6693397097,-0.1039424473,-1.1277897355,-0.7000775334,5.1296756617,9.7045576403,-0.9554878252,0.3367571605,1.4587126488,6.4993658885,-3.7462911881,-0.2403837104,-0.0955376727,0.7981739072,0.8341087371,0.2172053992,0.4981635882,0.8657604701,-0.9186580278,-1.3768007836,0.80152004,-0.0914561104,0.6663710723,-0.1151022954,-0.9439621498,-0.1567126543,1.1648167674,-0.5424321772,0.7819531579,0.8766241014,-1.4545910733,0.0561387729,-0.6007562354,-3.3587038875,1.412663376,-0.7126856144,0.0705503526,0.226886202,-2.0774052065,0.4836834312,0.6429841939,0.414885427,1.1310237957,-0.806167173,0.1030639657,-3.5471505717,-3.6942906631,-1.4430848787,-0.110178442,2.9130300429,-0.1603306568,-0.8869117178,-0.5936503669,-0.911441925,0.6118225377,-0.2457962383,-0.0634262912,0.3893523634,-1.492137159,0.8372500723,0.8235265332,-0.5800311332,-1.3474021659,-2.3745776476,0.2019566333,-0.8147252538,1.656866903,0.6198242638,0.7637513481,-0.553265217,1.4968006932,3.161030477,0.4317226601,-0.6906683415,-1.7824231585,-1.5744501782,-0.3035311737,-0.5319442229,-3.7404836158,-2.0098064518,-0.921071544,-0.5359639694,3.7346777025,-0.3419187349,0.1209901703,0.8227780683,0.2488737929,2.7312931172,0.8453284787,-0.9351317589,-0.7199534795,-10.7128414143,-0.0557366278,-0.106632016,-0.2294718806,-0.3894865209,-0.6071822088,-0.8074411629,-0.3431567169,-0.4958339051,-2.4109613906,0.5237089504,0.4187736844,1.422581537,-0.0572507147,0.8252568755,-0.7403038352,-0.7285255775,6.7015546051,0.7064861182,0.5002708725,-1.0933986808,13.1841718805,-0.3283658125,0.2531718895,-0.8156322196,-0.1426964458,-1.0955312793,0.1561833283,0.1662234581,4.5752757775,-0.6874233562,0.5758055489,-4.2145673705,3.5834379587,-0.9233023926,0.3245612149,-10.284316592,-1.8122308325,0.6759199559,0.3383260396,-3.5740960013,4.8817311789,0.4637318167,-0.4447604988,-0.0639353562,0.0563875628,1.3059973762,-6.8407745116,-0.6733147104,-3.8189831124,1.1902830269,0.6506754138,-0.8333388439,-7.1939646817,0.0479325716,-0.7739468128,-0.5706207407,0.1277620128,-2.1584566677,-1.846572809,-0.3261216045,-2.339666463,0.0329990033,0.2869403951,-0.8470239295,-19.2044693304,0.8442108538,0.6652297614,-0.9222761758,-0.9203047128,-0.4671914211,-6.6198514483,-0.0560654464,4.4027136007,-2.2906736922,0.0478800205,0.0574508112,2.529413755,-6.6892155647,-1.357327121,-0.0999660398,1.4903655552,-1.7046564264,-2.8326241409,-0.2715508397,-0.854215631,-0.3458437577,0.2072157478,0.4535896757,-0.7960351396,-0.9662435686,0.0940945249,-0.0367002963,-0.0890465715,-0.353584739,0.3886254151,-0.1878687884,0.8209264548,1.0794980514,1.966548724,-0.8931370813,0.7867602055,0.8348602756,-1.5932225846,-1.9457705606,0.4709299181,-0.3204934172,-6.2493930195,0.3210956792,0.6753658457,-3.1852588737,-1.1369745793,0.4869226391,-0.0093474602,4.8173614267,1.3724383635,0.1756994191,0.3449375222,-0.0564959089,3.3923797656,-0.913852158,0.8764910945,-7.6690746754,0.5490548688,0.4677422108,-0.4003302935,-0.4218137725,-0.1777729792,0.3022458105,0.3009324402,0.6626649436,-0.4660168529,0.7261015175,0.2265028009,2.3235048697,0.5213072487,-0.7728879256,1.0891427364,0.2435435561,-1.5174539459,-0.9228279006,0.5636648918,1.1476937809,-0.0444983567,-0.026945879,0.8342958916,0.9554279963,-0.5696163959,0.6014355741,0.3051700513,-0.1596687775,-0.3631412391,-4.1695568334,-0.0438858537,-0.476167382,-2.0506814501,0.7174386124,0.7471530028,-0.2736432839,0.3663887472,-0.4980167589,0.2242470986,0.3799413301,-1.1962932028,-3.2120332812,3.8507540523,0.7338459474,-0.4427320226,0.9211915262,-0.0472893913,2.0210747874,1.2892369365,3.6785505418,4.975086271,0.8134751954,-0.0413964825,5.7041540766,-4.4426010257,0.5622065429,-0.8041083121,1.2683043642,0.6341231352,-1.3906625395,0.367053345,7.9536372469,0.1201874332,0.4541126385,0.9188442293,0.7343509627,4.0710325006,-1.1368746051,-0.0503210429,-6.8727890356,1.0660705188,0.5950432851,-0.1710430989,-1.4880835674,0.0527269842,-0.7708259995,0.298567027,1.6799757311,0.9220207096,6.3378585204,-0.3370564759,1.1406749559,1.335373222,0.685771966,-0.7184969091,-0.4445650454,-0.9486283074,3.5705198947,-0.6498139577,0.2456802905,0.241445463,2.0568550168,0.7910137184,-0.0489656445,3.7203811784,0.9124747459,-0.6518898416,0.5424863182,-1.125421592,2.6247177449,0.3525728158,-0.3888648023,-5.163354305,-1.6561624226,0.1515915605,-0.5606912035,-4.9269311572,1.4202572383,-0.3447997265,0.1961251543,4.6868764985,-5.1250958022,0.6813217794,-0.0281387365,1.1173052952,-0.7367650725,0.430601721,0.041335813,-0.4051555784,0.5726267996,0.0818609378,0.9144336568,9.0043272243,0.2993804916,-0.461264151,-0.9470940158,0.0451443616,-0.8396197892\n   -5.1374643359,-1.1313538784,0.1637484827,-0.2697089314,5.6104723246,2.8425872329,-0.5348209376,-2.2316501413,-1.1162294455,-0.0475879163,1.1414157897,6.3230342362,-1.7656743489,0.8161304075,-0.480159289,0.5378308599,-14.0747409919,0.0493758064,-0.4624931457,-5.2259822755,-0.6187154322,0.0683747512,0.9227905361,-0.8070865688,-4.3619596455,-0.7591118459,0.4125545443,-0.7237223383,-2.7202704171,-0.2387900596,-0.0997161546,0.1282907336,-22.3569359169,10.1180449497,-0.5038466511,0.9363216393,-2.2906434316,-0.0282717347,1.0519846743,0.8153049834,0.1105683926,-0.1282549001,-0.6791618631,-0.6546563696,-1.1707967632,-0.4096835666,0.7641359861,-0.3991409942,-0.8821735971,1.1101113104,0.5748258507,-0.1034478004,-1.4905696162,-0.6579904091,0.5257808018,-0.5247529902,0.3807218145,0.6461960699,-0.2448037496,0.511237907,-3.9512082687,3.3457591368,5.8814151274,0.0636411703,-6.540680117,-1.2626195733,-0.4721732559,0.5226930949,-1.3952585857,0.0765514246,0.6939845116,-0.188159938,-0.6444287819,0.2633477903,-0.0807525157,-0.674297617,0.0539933545,-0.5737712565,0.7795414429,0.8637198471,0.5902416694,-1.7459715393,0.3991941181,0.4548218584,0.0427390331,-0.1907089233,0.4151402079,-0.6688312383,-0.0197927251,0.8592856395,0.1497907727,0.6755009722,-0.5180635972,1.3411540034,0.0234045172,-0.5188133764,0.4856610886,1.3736003102,-0.346354555,-0.241480786,-0.7896460557,-0.0519246478,1.6107744597,0.641697809,0.258591817,0.3794425033,0.5757653668,0.5435780599,0.1823477001,-0.0259710424,0.8081284327,0.2509850934,0.4205931243,-1.1483677389,-0.4893151202,0.0618038474,0.0687037873,0.722874553,0.0342215575,-0.1598676052,-0.2332226996,-0.0197278905,0.8660552468,0.4919516857,0.3537751047,0.9950528148,-0.8107309575,-0.9140301556,-0.0857409382,-0.5063190176,0.3791587077,0.2633554512,-0.6161648642,-0.1043180756,-0.3425356175,1.0716477741,21.0560673344,-0.3022220008,-0.0398400169,48.0236304227,0.4257204638,0.2271641586,-0.3329796855,-0.962153693,65.3512730143,-0.6762790353,-1.2904997409,1.8613100916,5.1484867763,0.6502224131,-1.8111969153,-0.3053520769,0.6766999736,-0.6961489338,-2.7185012377,-6.5214488873,48.1608950572,0.9365123198,1.7420630772,-15.3451428699,1908.2161678399,-0.6256163897,0.9347920895,0.4642491449,-0.4744084188,-0.2782185415,0.3919553973,1.0312061763,-3.9775523653,0.0227701356,0.8160112182,0.2120770838,-0.3928054296,-0.5426048146,0.3199295335,-0.1021557278,0.439837656,-0.1441757187,0.726876143,-3.2932715342,0.3231428034,-0.5423029708,1.010372148,-1.0038941235,-1.2218497555,0.500743294,1.0298531182,2.0099601105,-5.3621797543,0.4532128133,-0.3987494116,1.1592243792,0.1230993952,0.8170449837,0.8909226682,9.3210648352,3.1504483847,-0.0723506052,-0.8145191299,-0.6951217132,-0.8215684572,0.4321074373,0.9892175475,0.8961739777,-0.5726441434,0.155829757,-0.4050290488,-0.8909154477,-1.9032829631,-0.6937149868,-1.2668601914,-0.2564955843,-0.4589520695,0.6958851665,-1.4045851164,-0.5488151704,-0.6815297401,-0.7614366628,-0.0491777529,-0.3798247542,-1.2860125347,-0.3964278643,-0.5338975801,-0.8842526737,-0.4852570065,1.9293509037,-0.9399253703,-0.5221418913,0.0931516642,1.1189723269,0.3987593338,0.7495414239,-2.3536136625,-0.9499311968,0.4341711826,-0.9480455549,-0.3187364374,-0.4289597209,-4.4503432834,0.3771081247,-1.1732367068,29.3919643325,-2.4839564698,0.7084704036,-0.3424294983,-0.2921410864,1.7927146343,-0.7367071186,0.0812060766,-0.4688846649,-0.1941053661,-0.0768938724,-0.734196029,0.6195955068,-3.0291459875,-0.1319815132,0.2114079918,0.7954811416,2.7375909064,0.9298540121,0.1654156242,0.7659818879,0.123677358,0.4551520286,0.1423605316,3.5039913551,-3.7027616492,1.0874727281,-0.5430988369,-0.7936373966,-1.1756670284,0.0048797046,-0.4071060141,-1.7416479838,-1.7722206242,1.253526987,0.4055200379,0.4148765653,0.3223439709,0.8715691382,-0.2745822403,0.4416355447,-1.3022248491,-0.1236315792,0.3871128695,-0.1498679997,-0.4693561669,0.1007744777,0.0096543258,0.0993854463,0.806522411,0.7962502786,0.493448582,0.2925699452,-0.502744851,-0.4594622799,0.4289298044,-0.2889781131,-0.8098168186,-0.1901919901,0.868150794,0.6422378282,0.9101399563,-0.1428691308,0.1479459745,0.2226421863,0.6708099968,1.8682052796,0.586550614,0.0811025786,-0.0145604893,0.069782765,-0.210191,-0.8780191855,-0.1307253026,0.0401744812,0.0109632211,0.4782149116,-0.7685136567,-5.6578322684,0.1821597276,0.1170015966,0.8773026918,-2.4028118756,0.4899711221,0.5568984008,0.4514058642,-1.8302613833,1.7366560914,3.4286787192,-0.737341612,-0.7688583525,-1.2103829871,-0.4363726531,0.7247026443,0.2063101662,0.0748522721,-0.4528936105,0.8421143624,-0.3113953592,2.2068005202,-0.183890323,0.7329878948,2.0768574339,-0.9684032417,-0.7809718226,-0.9204601506,1.4596375092,1.2031828266,-0.0893203823,0.9769216272,0.7553401007,-1.2027441601,-0.1148007861,0.0554056184,-5.48985191,0.5486587421,0.0826294715,-0.7821183095,-0.495527186,0.2341380118,-0.5294757372,0.3460540153,0.9027720055,-10.7649278312,-0.4231991703,-0.420501194,-0.2595110353,0.5061643888,-1.9743967048,0.0188786203,-0.8911124631,-1.534357649,-0.224455265,-0.3245947826,0.5881654701,1.0947715263,2.5475115662,0.8384501112,0.9288093028,-4.0151912915,-10.1227641493,3.3750292899,-0.3571201749,-2.0418324199,-0.7491041656,-0.0243550845,0.3389566827,3.639033007,-0.3761282869,0.4329500603,0.9016335708,-0.223662304,1.2099224333,0.3791873818,-0.9140803152,0.0378045987,39.9747758766,-0.3796859908,0.2037291378,-2.9433774275,8.7277863307,-0.1927197782,0.0735277293,-20.5565457619,42.1808773401,0.7763849953,0.2916011088,-0.631033827,-0.1498631117,0.3463082628,0.1542075276,0.7571162234,-0.5289824186,0.7178459824,0.4083771904,0.4982847337,1.180695384,-0.4879579076,0.7461501336,0.3567432838,-0.5046676008,0.5590195528,-0.8349007826,0.446131117,0.6072533787,0.3287017346,-0.3655539434,-0.3584639082,0.4217158226,-0.0677356979,0.4396927999,-0.9263694426,-0.0797644297,0.7234061477,-0.5203501633,0.3127084249,-1.0131397505,0.2684230883,-0.515441501,-0.8363179476,-0.9745075146,0.4890410155,-1.0389175804,0.4452351663,0.6743815393,0.4550357883,0.5466549253,0.372408188,0.5537305249,0.7679151905,6.3962738745,5.6783857288,-2.1631973534,9.4012563397,-5.3417744608,-0.9450752247,-0.4090827446,-0.1841768598,0.3308627694,0.0835556097,-0.625194202,-2.9991395171,-7.7637896446,-0.4121959218,0.6086800083,-7.9255579639,-4.2796878539,0.8506497458,-0.1751142217,-5.6577159072,6.7976371799,0.3737466506,0.1373343879,-2.4491548113,6.7188306227,-0.6745715375,-0.9635767822,0.096075626,1.9517646976,-0.5444366229,-0.9257895171,-0.4541202399,0.1963812744,1.0523857903,0.2389728964,6.0790902366,-12.7396370192,1.2994190495,-0.4003075422,-0.9852867462,0.7115276595,0.4431867183,0.7370974446,-0.459448884,-0.0012067493,1.8313002991,-5.0799912562,0.687174178,0.224746309,-0.4111940411,-0.2321510029,0.7314032765,-0.755523584,-0.3052616249,-27.7027086876,-0.2547791887,0.4472499627,-1.1227004774,0.791533907,-0.6683240031,-2.0780932111,-2.4598526389,-210.732773564,-0.3603258212,-1.5989269831,6.226107134,-3233.593928804,0.9990832302,0.9717127876,1.0577539707,-1.4546440555,-0.042358812,0.9422489899,0.8876377555,-6451.3993925777,0.4070068072,-6.8790979386,-1.476719139,-530.4220247387,-0.4846793088,-0.3674477541,0.0169623719,1.6394340917,-3.4238836773,-0.7956387992,-1.0940063893,0.2962610977,-0.2005798657,-0.5025129857,-0.0624968254,0.3349191484,-1.1307849774,0.78338908,-1.2540360367,3.8261516853,-0.0742584136,0.2216329127,0.7153689845,1.0303630576,0.1230565559,-0.3238972215,0.1373253326,1.0272874172,0.3935976913,-0.1865101793,0.3008763312,0.2712591797,0.0266687435,0.385919744,-1.1164558731,-6.8583816626,-0.7910604004,-0.9682064887,0.9052896681,-0.1383170745,0.4490106129,0.3309831906,-0.4059912416,11.3081528309,-0.7133257945,-0.8649128645,0.447467351,-0.8482274644,3.3463331788,-0.1148862331,-0.6168729616,-0.3297745641,-0.0192138323,-0.7920194032,0.3293883178,-0.0233834535,1.6896015833,-0.3720221747,0.2271794523,-0.0290626549,3.5888234104,0.0479232241,0.4639634819,-0.6660817073,0.7141792194,-0.6204057126,-0.2195667528,2.6937622678,0.6019015361,-0.2466157026,-0.2305416702,-0.2801714168,-0.2581331833,-0.3431109223,-0.6219291203,-1.664431701,1.0998741311,-0.188860911,-0.9951189846,-0.0731032328,1.944325123,-0.2876044239,-0.2269785609,-1.1284507767,1.0029723234,-0.2771119269,-0.9378871975,-0.1275000647,-0.4001315744,-1.7270418442,-0.0916151859,0.9616916554,-1.9783690405,2.1178671176,0.7564782913,-1.0156237499,-0.2164744191,3.2339787121,-0.2168260954,1.0074654126,2.0533362371,2.7355470388,-1.7142781586,-0.4966293637,2.3142838079,-2.3624458581,-0.5475929666,-0.729744721,-0.8344479273,-1.6420013205,-0.3872876826,0.5657086986,-2.3736307835,1.6597601176,0.8279140011,0.6501914333,-4.0452058719,7.7285810341,0.4091192308,1.2005056673,1.8395373676,2.3228721943,-1.5695647296,-0.2890928373,0.9621079088,0.13626378,0.3493573509,0.3675964617,0.5385718188,-1.2927306611,0.4160382046,0.5920731288,-0.625485436,-0.953033141,0.5703784736,-0.9574162043,0.4979442011,-0.6693504432,-0.8736491237,-0.4625115134,0.9730843936,0.0507364393,-0.0493495869,0.7237691106,0.9227735404,-0.6995194046,-0.5205878006,0.3163014421,-1.0009012818,1.4676125506,1.3657121237,-0.1192788741,0.494027903,0.8128190277,0.0302952952,0.5083673617,-0.7037497886,0.3207496592,-0.4789184778,0.2875070998,0.2229834702,-0.3784987732,0.4490723408,0.11005478,0.4266428488,0.0392602591,-1.7559378046,0.6366784657,-0.8125882043,-0.7842979017,-0.9011239478,-0.4909059172,5.1591181551,0.2422416675,-0.4413462425,2.7412077856,5.1082741207,-0.4240294324,-0.4737005352,-0.0058530029,0.2631096336,0.3226943268,6.0115786845,-18.4138606792,-1.2199530512,0.4564297311,-0.5773280062,-0.072380857,0.7468422828,0.080725746,1.1914345409,4.0038450366,0.2792387642,0.8406016252,-0.3234794479,21.0222923693,3.269251835,-0.6971450255,-0.6581369844,1.3264127297,0.6838736418,-0.2611984652,1.066758539,2.9976097267,0.0591402023,-0.7842167826,-3.5994869994,-4.3020060837,-0.1052333805,-0.8111104315,0.0736744852,-0.0133132894,-12.6900931594,-0.2737909065,0.8371929276,2.7495223364,-1.9645830697,0.5378449621,0.4305534062,2.9728885801,0.6116410245,0.4654339517,0.1169470481,0.7783941302,-1.8122095233,2.3570377582,-0.2892202324,-1.0174478662,-2.2840262779,-0.3866930528,-0.1226404755,1.0205326446,-0.8006371269,0.6077871951,0.6848763675,1.2700540108,-0.0572545811,0.9855778658,0.7335638723,-0.3625902906,0.8511074835,1.0327693026,-0.1969072179,0.1365472589,-1.560216263,-0.7463842058,0.5632054441,0.307233723,3.4006615676,0.6796253122,-0.1134608304,-0.1271115797,-0.1854240373,2.2959580993,0.30399363,1.4829395377,0.2092231404,-0.3699307181,-0.3865393532,0.8850631653,-0.3395300332,-1.9709568642,-0.8886019138,-0.5396845624,-0.9124876179,-0.8276127482,-0.8435567668,-0.7958319045,-1.0453887218,-0.828675955,0.3718077705,-0.5896667897,-1.409942014,4.802281201,-0.1039245945,0.6584155928,6.185399881,-3.3300520161,0.977513731,0.5208670097,3.061197077,0.3003473916,0.2051476364,-0.0967708654,6.3701984755,1.7479480103,-1.1638794627,-0.3224853797,1.6527890821,-0.048585759,-1.4676393634,0.8478058843,0.7867461694,0.2629777279,2.5379511989,2.5764638691,0.6435033303,1.063420993,-1.1008797694,0.8747986448,-0.5545243088,-3.1918846713,-0.6020463509,0.0098607358,-0.7019707234,-4.6126625661,1.7332393576,-0.7991823453,0.6300760454,8.201437766,-5.2710496106,-2.840538248,0.2919112452,21.9061038981,-123.022226057,0.1540562949,-1.229563751,-1.3727474917,-0.6748541012,0.8567792473,-1.1393357303,-1.225616373,4.6559004189,0.7846061997,0.5477099345,1.815764905,0.1893388743,3.7287042823,0.014909198,37.7231966031,1.1354750515,-0.6856835003,0.3819656677,0.1274299582,-0.7215036017,-8.2555856632,-3.5994003444,0.6772735393,0.7184171506,-0.2374599662,0.6674065903,-0.9425619114,0.0734026184,10.9447838761,-0.0434246661,0.4169244755,-8.8379318351,1.7508797158,-2.5071379544,0.296080581,2.7879796073,-1.6365429503,0.0851672613,0.4348331004,18.8207012079,0.6040658533,0.0629782315,-1.1215554877,0.0766073088,-3.0676375706,-0.3577199982,-1.0286871481,-34.4356255834,-0.1667523464,0.880322348,-2.9448331535,-1.414251878,-3.2574284313,1.7552017389,0.5271568315,-0.0163549252,1.4902623127,2.2958890163,-1.4433453671,0.3045729069,1.2120104854,-1.0907799556,-0.5890935739,0.1293747359,2.1460900952,1.0559444758,2.0594660304,0.23301483,0.6662703244,-0.2926808624,-0.0989362483,0.8738572647,0.7434573402,-3.2078307366,0.5739562558,-0.816969201,0.59117893,3.0635945152,-0.359752208,0.1040075243,0.5631897373,-0.0234518745,-2.2367045307,-0.604400946,0.8929449165,-0.4862004088,-5.0045792541,0.5528416967,0.0096076648,0.541420696,-0.6337957037,0.399389695,-0.0634095078,1.8870301864,-1.4908216978,-0.707023761,-0.6239879404,3.1495159389,-3.4776658257,0.6610947116,0.1186973696,-0.2417528957,-8.8456003926,0.8805965549,-0.3294016469,2.7501091052,-1.1373502663,-0.4339271755,-0.7177796406,-1.9001122087,6.3474256973,0.6705220522,-0.9140537376,-1.1128768179,0.6015693811,0.4853851861,-0.1949409123,-0.3805354038,3.1664702007,0.4197301293,0.0705737727,31.3402436204,0.1497963011,0.0417612512,0.8070070819,11.2172453248,-2.22578389,0.0407598493,-0.8077765066,-3.9073686878,-3.2583705149,0.898091277,0.1514980753,-0.7323579188,-5.6921284157,0.3601376853,-0.042322399,1.9994053841,0.7019424019,-1.7030647388,-1.8327750795,-0.8049754915,0.2363575968,-1.0601010079,-0.5950008501,-0.1702788783,-0.5792680789,0.1159567551,0.841662268,0.4063249601,-0.3205089147,0.9327374591,0.6095343313,-0.2434210253,0.5161809178,-0.6989811636,-0.6463667047,-0.1035927692,1.2948795437,1.1532242767,0.6634321307,0.4834754253,-1.1457249159,0.1200789688,0.3393920547,0.9697318615,1.0335904299,-1.2926560678,0.2022604286,0.7729477843,0.0089843979,-1.0477503418,0.7009389482,-0.6779867728,0.5615547284,-1.442709823,-0.3099632207,0.9640277231,-0.8330079978,-0.817839496,1.2193527682,-0.7366143459,-0.8863180816,-0.0690791958,-21.2086784228,-1.3675583617,-1.1397228243,0.6245167637,-1.5044348282,-0.2605862356,0.565341797,-1.4735690699,0.1895823825,1.2151082299,-0.0481094647,9.2899599419,10.7153272896,-0.6747178758,-0.732926342,-0.4241858096,-6.3877708339,-0.7214590563,0.5277402687,3.9016156005,-1.9940571009,-0.0225611272,0.337552657,4.9236457658,0.0540733912,-0.6005722316,-0.2294813283,2.7053503252,0.5073160447,-0.8348350903,0.369465796,-1.087435904,0.4713509424,-4.7871561245,-0.9368166554,4.8206717155,-1.5228361027,-1.8213815539,0.5112944381,-0.425172217,0.0016678848,-2.0866826818,-6.1085550405,0.5222479142,1.6124503612,-2.0497892855,0.4508868516,2.1653469802,-1.3124998625,-2.1452079434,-1.4534837475,0.5660744461,-0.9865705566,0.1003376297,-0.2887344817,1.2068201844,0.9967808137,0.5678848138,-0.0986459122,0.4324351287,7.2991907033,-0.0070108525,0.7850996684,0.4347618248,-1.2988923378,-1.0721129996,-1.1719084461,0.1525186501,1.0253011301,-2.9213480585,-1.5028247858,-0.1674855761,1.7035199664,-0.2960532049,-1.1783165212,0.4331993609,5.1768496205,11.6979909174,-0.7374311934,-0.0590909926,0.7099492044,-0.4918390788,0.1488063562,-0.6201351254,-0.7693935007,-0.674877272,-0.1855980537,-0.049393078,0.700144269,-0.2204301111,-1.2707982247,-0.3315112377,-0.0803325888,0.0806756679,-0.6229934551,-0.6744079828,-0.7894243483,0.0532221435,-0.204362,-0.6444869594,-0.1229386074,1.1366360146,-0.9245160332,-0.6657336209,0.1734775276,1.1979443486,1.763434132,0.0603188692,0.4916939739,0.2942224336,0.6070988894,-0.5038626417,-0.6856626325,-0.4440566998,-0.4032311162,-1.2906517813,-0.5649348071,0.350775123,-1.0628567267,0.977546395,-1.0110578428,-0.5738152792,-0.3163158691,-0.7961063286,1.3731388987,-0.4252036853,-0.0891467535,0.9294560171,1.5671068958,-0.5906392119,-10.6344524034,1.4134987188,82.6024362865,-0.4994257611,-0.1186868754,-0.0574213278,51.5094101442,0.1925910627,0.0356591369,-2.0759176684,0.722346361,-0.0637793106,-0.4341848151,2.5272926305,1599.9120989717,-0.9307422747,1.3025478439,-0.7187760602,24.2322382248,0.0759553472,-0.1889259131,0.0722017273,5.038040997,0.7038875435,-8.7604154063,-283.1610796199,7683.0594973904,-0.5469618515,-0.6670188555,-8.0094904891,72.041925226,-0.1206006216,-0.6461036516,-0.486546219,-0.3080261102,-1.412886472,0.3510496691,0.2140085739,1.4100800436,0.5769252256,0.4311218698,-2.230638326,-0.1468279463,1.0730654892,0.3886758878,-4.7349796787,-1.112739712,-0.3546444339,0.2771186145,0.9881356035,1.8326039915,0.9132091212,0.8202012845,8.2359010769,1.4153398505,0.0281560696,0.0427971934,3.8506341546,0.0095672259,-1.1148874442,-0.7621637194,-0.2806593289,-0.5018341643,-0.1527954247,1.0755892886,3.6794064844,-5.1390683695,-1.0795717675,-0.1930382742,3.8184389936,0.5825585528,-0.5927844851,0.3206250332,0.7934885505,1.2293918032,0.7024389488,0.1201477619,-0.8848917559,-0.684149214,-1.2661822063,-0.4393936176,0.4171839118,0.7285979565,0.1378400867,-0.0909333481,-0.0166673082,1.0358264153,-1.841674593,-0.453342711,-0.7569956956,-1.5234275762,-0.6340004145,0.6258720817,0.7613347798,-0.9795071294,0.1078974798,-0.4646357745,0.9574503861,0.503512155,0.8296670365,-0.9116184735,-0.0748736026,0.2728000752,-0.8949228002,0.6633062214,0.7505085461,-1.0529630529,-0.7817148539,-0.9652564994,0.6071112792,-0.5783943181,1.8865487666,0.1603217765,-0.1476872116,0.5500092172,0.4894138159,0.2511304995,-0.5435050588,-0.2996051913,-4.9592977913,7.9303150968,-1.3869176903,-0.5784352621,1.2480605826,-3.1183519697,1.7474586596,0.9179112002,0.0315497276,1.1812371442,-0.4148716512,-0.655493361,-7.6068116227,0.2558927952,0.1864830245,-0.0299375528,-0.6231792671,-4.0858630956,-0.2978097116,0.4472422539,-0.2829826091,0.2756047602,0.2240700823,-0.9918669993,-2.6689746821,-0.5722028936,-0.6903836548,-0.7967680737,-0.1116130805,-2.1444991962,-4.6415280984,-0.3830412692,-6.7061184526,-11.0948194593,-2.6318269993,-0.4239190463,0.3747040247,0.7637219153,-8.7531855505,-13.3489571772,-0.2239294155,0.905821391,6.0257367273,-0.8377995306,0.1286540679,-0.8523727454,3.9116921682,-0.1304452938,0.9128786144,-0.4419871943,0.1125161641,0.4446153978,-0.3675813914,-1.3173237597,-0.2931863282,1.0316072406,0.453031407,-1.9420946143,-5.8694734379,0.0765168464,-0.2852789515,1.0732483092,18.897943092,-0.6414463742,0.4569181245,5.7853003666,1.3030148508,0.3207256831,0.3416419941,4.2356420087,0.6873145794,0.3194154315,-0.1255962037,-8.5058963749,-2.0839064186,-0.0492743211,0.0723366578,0.7897764483,-1.1072961912,2.2885837231,-0.7780289574,0.8791251337,-0.9492074557,3.1526794099,0.4792322612,0.6060780232,1.6150463694,-0.8667681847,-0.0068033363,0.6903022468,-0.0295854334,-1.1267378322,0.638786575,-0.0418406579,1.1599325101,-0.2611913221,-0.3754592398,-0.0468407329,0.2627503977,0.6704490345,-0.8339569654,0.3060351632,0.6215130233,-3.8312365373,0.7918354303,0.781051518,-0.2631387181,0.0792075672,0.6065285836,0.582185342,-0.1764441068,-0.3069283489,0.0139659123,-0.7013442746,2.3849821347,-11.0511295446,6.6040064958,0.8826220521,0.0690942601,-0.0941385887,-0.7276390228,-0.6001511806,0.7628199243,0.8555703043,-0.8946768278,-1.066801994,0.2257281497,-1.1648969096,0.6540898477,0.1268768746,0.1127390542,1.2389964914,-4.2113980168,-0.4554551548,-0.4581554522,-1.2186730512,-3.1582555494,-0.2301531091,-0.9568316303,0.2397044944,-0.5536490333,-0.9574052582,-0.6217104475,-0.1144760558,0.6453520748,-0.613966724,-0.9455698464,-0.4411345732,-0.6834034303,0.7001083288,0.0852062573,1.3459189218,-0.0856994103,0.8584063137,0.5292352394,0.8159425813,0.5269976247,0.2582182446,-0.1445506204,-0.0815818703,-0.3078419702,0.9768490987,0.7660723406,1.0221130432,0.5806923365,-1.0816863381,-0.566489834,2.4360567278,1.3977324379,-0.0027061742,-1.1604484066,0.3462606657,0.8638974774,1.2741283873,-0.0025341733,0.9310514229,-2.167805583,0.3952800606,-0.6190971759,-0.6466146445,0.8554192016,0.1947555154,0.0772958408,0.7765694545,0.1443881825,2.8086784402,-0.2198857365,-0.1537945756,-0.3278658664,0.7161919228,0.0479993756,0.2033720969,0.7422498916,-0.1924784998,-0.5626280625,0.3570079767,0.435625451,0.960657351,-1.3793821998,0.1011387796,0.3525401226,1.0747905396,-0.7131315972,-0.3501087282,-0.7309607495,0.1571833328,-0.3906146427,0.330516776,0.3801398932,0.6783714059,-0.6106270081,-0.0795121602,-0.8199279151,0.4310458547,0.9387617013,0.403893175,0.5359805084,0.1260388197,0.7611440901,-0.547365942,-0.4002235469,0.0126790107,-0.4713988225,0.2505024941,0.4752257081,-1.6471270085,-0.0274245153,0.6326939,-0.5165927397,-1.2230588795,0.5549745452,0.7154275143,-0.5225884317,0.4950948345,-0.5866295294,1.6140391388,0.5290564166,-0.3686087753,1.8929943818,-0.5707716586,0.399422876,0.8230498497,0.7337647459,-0.6664527894,-0.5955718795,-0.0992660486,0.2028319054,-0.6117856432,0.903229451,0.1286044508,-0.037278868,0.2449331351,0.0005013768,0.1030962449,-0.2168094376,0.9113804313,1.0363223564,0.0752425274,-0.0744588185,-0.6311411521,0.4486874692,-0.956528767,-2.6735889551,0.0786288475,-0.5931402542,0.6919297311,-0.2007564032,-0.1112129219,-0.5161807856,0.770495143,-0.3065615739,0.5277967268,0.407922342,0.7969901269,0.2373379791,-0.0755860301,-0.7160278246,-0.5797509275,0.4959199717,-1.0239172442,0.0138437321,-0.6693241524,0.2615997417,0.6097250314,2.2744750795,2.2238616333,-0.2589048008,0.3553710776,-0.6398729932,10.8795398214,-0.734857507,0.9538654247,7.1725399225,0.2680024127,0.3735680761,2.0143912898,-4.1062034888,0.4783770619,0.1187365866,14.8483649252,-10.7751077088,-0.2186844671,0.4605751884,0.263168681,-5.3488522378,1.0793004276,-0.7975152843,0.7156029882,-0.1930604408,0.1387829239,-0.7071845066,0.3188935508,-0.9994244711,0.8317707685,0.772076221,28.2600015727,-1.0409043381,-0.65730436,-0.6547429609,-0.0218028378,-1.9671168191,0.6667860871,-0.0874377751,0.6206499279,-0.595365087,1.2718758392,0.6594618571,0.9307868279,-0.5285803155,-3.3279788715,-0.3719724235,0.2487131848,-1.413411326,-0.1130837343,-0.5803717057,0.0884547051,1.967427145,-6.5537430772,-0.8645222833,0.2313805971,7.0530234433,0.4968980918,1.3912460946,0.5770853328,15.6637103115,3.5168001827,-0.582985117,0.6414700487,3.0244869491,2.4650456237,-0.424581159,0.9034498857,0.1060713418,-11.7756417063,-0.0064044719,0.1575084746,2.7798355734,-6.8281745925,-0.8065203397,0.6812487673,-9.094865239,-2.0622742396,-1.0665735417,0.8088024166,0.8713616811,-0.6362917,-4.1503433801,-2.1312928531,0.17639885,-0.5745109294,-3.7306410995,-0.6278419179,0.9180101864,0.2133081164,0.397814734,-0.9143745836,0.2253795793,0.219183784,-3.1095875789,-0.8368573347,0.3118172527,-1.8229323992,-1.9244051618,0.339606194,-0.8677450949,-0.1078722557,0.0461057312,0.6002258766,-0.8098624636,-2.63139361,-0.6899054038,-0.3736593947,0.0289760987,-4.0484176728,-2.0935679503,-0.4478179229,-0.186832892,-0.8596536976,-0.6379125011,-0.3802460994,-0.3629353286,-4.4380828896,-0.12216756,0.3934261728,0.5540421068,0.8932062339,-0.4072960521,1.7146804928,1.0942278354,-0.151512352,-0.0678918902,0.5908675465,0.8145969994,0.8444927326,0.7157818693,0.1427241413,0.9323677974,0.704248339,0.0756193417,-0.3414725934,-0.8099620569,-0.1221839254,4.0646977624,0.6689300442,0.7955921898,-0.2492720006,-2.5177294814,-1.2219597455,1.1732922799,0.7654948302,0.2005734836,-1.3951526332,1.1089526593,-0.2345415065,-1.067203498,-0.0855683997,-0.3246014512,-0.2392589337,-0.4235786673,1.5034990725,-0.3381278498,-0.1319312248,-0.0327300132,-7.3140856495,1.0895226034,0.1834918688,-0.8223243701,0.1258153919,-0.4575209236,0.4894510417,0.2260111243,1.8395293491,0.2962005298,0.1432753928,1.0018160157,-0.0400224676,-0.8572659611,1.0576143607,0.4935559162,1.422164812,1.2077781611,-0.5573636521,1.3252487179,0.3111138905,-1.1404476815,-0.4523689447,0.6996975492,1.8824773043,-0.6054626326,0.122708963,0.1357300888,1.5778654876,0.4168571692,1.0264332671,0.2017820931,1.817766342,-0.2418673826,-0.2422595467,-0.6849894767,-0.9182615624,0.1038994819,1.9653037228,0.189418583,-0.4091036366,0.1362669892,1.0458938715,-0.797753266,0.4978019969,-0.6539610973,0.8854885047,-0.5847435132,0.8059299856,0.5523007053,-0.0309786624,0.2949832188,0.5872117914,0.018200184,-2.345037733,0.2302449448,-0.5819825176,0.2574951776,-3.4984691992,1.0363963867,-0.8269511803,0.6298952532,2.9429503614,1.5417951308,0.0223356359,1.0901528519,-1.8345886799,-0.0338229997,-0.1055817495,2.1086084729,0.0495221264,0.5496815944,0.4113580499,1.5221342431,-0.4293830566,-1.1472546897,0.1854820533,1.4304368656,-2.0323343346,-0.6963162305,0.5536755647,0.8044945621,-0.2643317284,-1.0286387895,0.2907024609,-0.2409001059,-0.1789893308,-0.1715673415,-1.7443332607,0.5307035164,1.9800066622,-1.3410871789,-1.2270901197,-0.2679775646,1.0744102224,-0.8386218591,-0.7070831321,-0.7389018638,-5.6883863289,2.2137852506,-0.2805266617,-1.0044314402,0.8699639574,5.9149361234,0.6470611673,-0.4276638832,3.0919028291,-0.0802516115,-0.9415530193,0.4883285751,11.5298366736,-8.5371552547,-0.7418418745,0.2000857608,3.348387196,-1.5183168153,0.1538122892,-1.6225263265,-1.1469837847,1.1200338136,-1.1212070232,0.2061629766,-4.0707366688,-12.666657656,-0.7504018019,0.7582264593,0.4434891386,-2.9259412732,-4.1674500097,-0.2089271062,0.7130643282,-0.3743865724,0.3929206831,0.6327494708,0.3572705192,-0.2075457649,1.3753399777,-0.2833610036,0.1797359693,-1.6382415809,-0.6077848746,0.2531125594,0.7732323939,0.4377555237,0.9783090498,1.4786010733,0.5885919405,-0.5082041006,-7.7119662638,-0.0950304781,-0.2133225202,-0.1710881992,-1.1870449464,0.6578208017,-0.9492309355,2.2285148873,-0.9563914055,0.7011838408,0.6660442273,-0.7092206573,-0.4326973464,-1.6660118139,-0.6055751148,0.6336121217,-0.1592119034,-0.683503207,0.5447824791,-0.2390134059,-0.9351289393,0.509597703,0.304038222,-0.2210976257,0.5519877128,-0.6679443066,0.1226013973,-0.9202990927,1.0243426134,0.9538618949,-0.2364569042,-0.2725513291,-1.3640327573,-0.6441019588,0.0292798719,-0.4796720317,0.3784349357,1.1220173051,-0.7796294269,-0.4987296552,-4.6400827842,-0.3849460335,0.8398358777,0.6603889242,0.0780653809,0.9724721967,-0.5388610963,0.3588908064,-0.1334723639,0.4771602196,-0.6335070984,0.5726571955,1.9457479039,-2.0565484578,-0.2100233095,-0.8805298464,0.0282117094,-0.2403218302,0.6652752331,-0.6569118627,-0.7844309606,0.0344157388,-8.3831722347,-1.2770273868,0.2825416587,4.1284663463,-0.3675541315,0.1186985033,0.2276541096,0.4939265273,0.8574199852,0.9516976046,-0.7011464633,-3.1109540319,1.7835483313,1.3165385105,-0.4380646305,1.5585755177,-15.4093012403,-0.6118715279,0.6383865188,4.5569349689,3.3971270084,-0.147993975,-0.8054051336,22.1583343042,2.3290358649,-0.8287485352,-0.9111214913,1.5838115196,-0.4191849281,1.7831964517,-0.56626526,-0.9994672328,-14.8920083695,-0.0921255227,0.5127991631,3.6800686706,6.3290004596,-0.7542071933,-0.9606502693,-0.3289802681,0.5069653453,1.1527430563,0.2669628868,-0.0813451238,0.4179126242,0.1751947925,2.3571654826,0.3956034656,-2.9008257553,1.4480244883,-0.0188649829,0.1208214521,