#include "test.h"

// Test-126-Model-161-72-7-13-3369bcef-f2d6-4129-8bf2-d22eb6b78450.eg
static const char testModel[] PROGMEM = "encog,BasicNetwork,java,3.4.0,1,63647641099758\n[BASIC]\n[BASIC:PARAMS]\n[BASIC:NETWORK]\nbeginTraining=0\nconnectionLimit=0\ncontextTargetOffset=0,0,0\ncontextTargetSize=0,0,0\nendTraining=2\nhasContext=f\ninputCount=40\nlayerCounts=2,101,41\nlayerFeedCounts=2,100,40\nlayerContextCount=0,0,0\nlayerIndex=0,2,103\noutput=0.887910288854455,0.076683022300296,0.992286780110984,0.0254629591809903,0.489027065122702,0.951709393019631,0.0342069820808707,0.141063057681311,0.919444045593928,0.103896017378112,0.00171138208910612,0.0391216790660468,0.473440981242261,0.206558389371858,0.341975466963955,0.000576864101412496,0.0229016068710704,0.22013877980839,0.111851007958882,0.640389359835606,0.399333554347669,0.106809232314796,0.0197235497792904,0.734805491331957,0.0237136781700542,0.0605437768343212,0.0155676517592657,0.068547964742896,0.00988701301782261,0.726672200519024,0.429743293136514,0.204054706645926,0.434014778727945,0.00731727818341566,0.0828131835650294,0.987785976764308,0.850700495762278,0.96265149625194,0.490994135279516,0.870725700356212,0.157082943838397,0.0146916405580553,0.997029875299845,0.923805970579322,0.955443828561073,0.0476996717707178,0.865383237664916,0.724177667004481,0.63063898593784,0.484888815310231,0.193125760958591,0.222092019860446,0.20647176252261,0.185794174797372,0.985922851780747,0.0103963357414939,0.305751466842347,0.0154905621366169,0.826311094899227,0.984378273201707,0.279849618622209,0.46287130506723,0.988780307587076,0.0856467855167604,0.779150122406156,0.899232756513944,0.0425815692931112,0.0507585059473005,0.0907242970434576,0.945287608210286,0.255579613866541,0.0182021557870791,0.0231037714786683,0.0469255888102369,0.0460939041715666,0.0183521014037264,0.0214994345301031,0.906579749165806,0.410467239015457,0.0129960542888952,0.224738799345822,0.0533423196307551,0.799289193347066,0.911017106376392,0.18085857865561,0.890758045362118,0.947749659745033,0.458293398714705,0.172498203282562,0.65282419347782,0.0155751791184339,0.856014690796829,0.0104884259358073,0.832186172052659,0.15941828001956,0.0362863633057903,0.637749965133919,0.216681994592364,0.788586336257917,0.991743039954701,0.307987035300941,0.0172418247809463,1,-0.028125,-0.359475,-0.938575,-0.77966,0.025675,0.06835,-1.0041,-0.763505,-0.008325,0.4121,-0.96275,-0.602605,0.00275,0.626875,-0.89715,-0.33929,0.060575,0.69415,-0.8612,-0.03437,0.009375,0.6283,-0.88525,0.142955,-0.004625,0.538225,-0.923025,0.241035,0.03945,0.415075,-0.9822,0.2882,0.03205,0.254,-1.0314,0.274325,0.013625,0.14625,-1.065825,0.208885,1\noutputCount=2\nweightIndex=0,202,4302\nweights=-0.621345372,-0.4300166025,0.1883019967,0.4472308985,0.1122634487,-0.0753265827,-0.7164808854,0.4205723316,-0.3502869036,0.1381674649,-0.8551740823,0.2956471124,-0.2406197465,-0.9731504124,-0.1027095628,0.9560041024,2.3786631587,-0.0632034555,-0.2878869949,0.0876512001,-0.8545309132,-0.6066897109,-1.3942210532,0.3592822923,2.401413669,0.5915329196,-0.7279450186,-0.2177902979,0.4952743152,0.5428941858,0.4286886973,-0.6787288346,-0.441810764,-0.600918781,0.31610194,0.0076284768,0.460889199,0.4805942111,-0.5513845198,-2.2453890009,-0.2182719402,0.6451282204,0.5099389069,1.3190698416,0.5232711763,0.4761497573,0.7819954945,0.8520080869,-0.5081322055,0.1384964288,-0.5598794342,0.2455563805,-0.1444200155,-0.5003594434,0.9525092973,0.7131256597,0.3392681841,-0.7703099491,-0.6087980985,-0.923141935,0.0739320491,-0.6494958669,-0.0476421395,0.8578688786,-0.9180157765,-0.7666526861,-0.9646651257,-0.1159916541,0.084650734,-0.9565416279,0.580746728,-0.9001668169,-0.7203146606,0.4948144541,0.8609071015,0.6209415999,0.8940648268,-0.6865914411,-0.1149556213,-0.1670170447,-0.9428222088,-0.7061161066,0.7021557981,-0.7320938781,-0.2212175293,-0.93239297,0.8588818212,0.4611383134,-0.4572460183,0.5877109576,-1.0421012981,0.4553983328,0.9598950188,-0.9493104395,-0.3214113156,-0.4862018939,1.0040079826,0.5231661367,0.1372239104,1.4643966711,-0.0668894917,-0.2169132324,-0.9430142059,-0.888684851,0.5652536232,-0.0140635877,0.9598174841,-0.721820091,0.5430041916,0.7495285849,0.5473560529,-0.2027043014,-0.5233569824,-0.9164148865,1.7407436205,0.0361118411,-1.0355583957,-3.5117143878,-0.0084493609,-0.0157670425,0.4091592668,0.2720713702,-0.8572582888,1.1839173449,-0.6858630337,-2.9216134294,-0.9571344826,0.5146123743,0.5312673202,0.7136940675,0.0396547541,-0.9599609529,0.2923763317,1.2002343783,0.9840192691,-0.5502487177,0.6647090472,0.8841215266,-0.1760171249,0.1960531994,1.8000692153,-0.7594291014,-0.0944702736,-0.9594921899,-0.9035719638,0.4214578607,-0.2180838948,-0.8321368316,-0.9346772488,-0.6044439206,0.4317480744,0.3502439269,0.2981696542,0.9534827131,-0.4617475731,0.9765952801,-0.7315842485,0.6792080444,0.0847264552,0.9155973305,0.2576127216,-0.6379789284,0.9225400813,-0.8495382602,0.339685819,0.7377330835,-0.5376528335,0.0250163984,0.4641610541,-0.8019957624,0.5841625664,0.3405001009,1.6192283166,0.1091415465,-0.8682119606,-0.1329900139,-0.4043341926,-0.6945443123,-0.4804609166,0.3466097296,-0.3534791171,0.2268965592,-0.4765191952,-0.0061424499,-0.6528311008,-0.174026608,-0.845685061,-0.1794958369,0.6098351569,-0.1750012248,0.7374848809,0.8098319483,0.1803996263,0.6984833756,0.7816373654,-0.4970862727,0.7093015844,0.203481083,-0.8100367853,0.6188373932,-0.2550339349,0.2040718272,-0.185342643,-0.0203477525,-1.0148222126,1.0786750115,-0.7758267703,0.6287590702,-0.4852435784,0.1907958353,-0.7019610612,0.2045826913,0.6249842264,-0.8601168649,-0.6055634918,0.2449883877,-0.9724676378,-1.1194968081,0.9440239048,-0.2276127058,-0.9376990422,-0.9513278993,0.6733231922,0.571905489,-0.2437860617,-0.6890632316,-0.6086111709,1.2861349203,-0.8621118575,0.5577834317,-0.5353907778,2.254141132,0.5445427821,-0.8065723953,0.3296403477,0.6183218782,0.1226889344,-0.1778269787,1.1461406928,0.8612934521,0.8541109279,0.6503139386,0.6032773065,-0.3530567078,-0.3381057651,0.0634475162,-0.7724561762,-0.0854005417,0.6327857681,0.9317192422,-0.3017368248,-0.667067603,-0.9416609223,0.2345851872,0.4537633354,0.4339890442,-0.458612949,0.8290299886,0.3407729426,0.4428809645,0.3017871212,-0.5414929069,-0.2270967981,0.2538585613,-1.3064670814,0.5283182366,-0.6943309817,0.1681773142,-0.9708110566,0.5851951969,-0.7261966881,-0.5456477742,0.7738810431,0.6443753702,0.0026971811,-0.580388384,0.7633571839,0.3506565232,-0.7104205559,1.3566108305,-0.2689061982,-0.7612908519,0.748514193,0.0529083182,-0.8638727465,0.5743548228,0.9284850592,0.9990819743,-0.386472849,-0.6829568725,0.2135839643,-0.2582532189,0.5540662296,0.6334518366,0.6266731291,-2.5211356821,-0.1404344303,0.8710109542,-0.6887827531,-1.4205659629,3.3697652187,0.1681704855,-0.3311863428,0.4225600698,1.0516648645,0.3373604029,1.4970247671,-0.9146683283,0.8226063457,0.681986852,-0.2775830884,0.5080959198,-0.4539072334,-0.9477796806,0.8001445981,-0.0767317827,-1.9735749112,-0.5339036766,-0.750271891,-0.9903922479,0.2691987364,0.5991867338,-0.3205103515,-0.1759779622,-0.5347767013,0.4698777388,-0.3685221045,-0.21616898,0.0327616644,-0.2477530087,0.159497211,-0.2015192,0.8344487914,0.2011483855,0.7900443633,-0.8326340852,0.9625763364,-0.4041710101,-0.26959639,-0.6558787274,0.9354399044,0.4838126386,1.0306060587,0.8335541019,0.7630419616,-0.2868537364,1.499642721,-0.0070426582,-0.8327159964,0.8030600106,1.326180498,-0.0101622806,0.0523034938,-0.786305239,0.4765390507,0.5012484307,0.0542723934,-0.2905707825,0.4833430869,-0.0395058158,-0.5484201327,1.0846810166,-0.6825776697,-0.7191507733,-0.5580808713,0.6501222387,1.3504327039,-0.5500466742,-0.0376490489,1.6375460546,0.4995272958,-1.1496093319,-0.3498772443,-0.4467392883,-4.0874144523,-0.733067775,0.2961097665,0.1900081877,-0.4148432962,-1.1803738789,0.7579787156,-2.5829882335,-0.737543002,-1.1984882355,-0.3984729168,0.1598713132,-0.136837899,-0.630729797,-0.4862412991,0.2507446445,0.3974731542,0.315845783,1.035853267,0.3873148217,-0.0817771442,0.6599973659,-0.4399555236,0.4948017817,-0.9871973601,0.7425784214,-0.259392412,-3.4621515782,0.5024723457,0.5475072009,-0.1860130002,-0.5817404458,-0.9921922689,-0.6443427038,-0.1711075683,0.5009062014,0.6636111796,-0.8710531143,-0.64809269,0.9194993185,0.3836839298,-0.3518437739,-0.2091386343,0.8886038424,-2.1012251858,-0.5542823286,0.2748706052,-0.3235214434,0.8722021279,0.1153451363,-0.6585861351,0.2408835694,0.6650328898,0.2354920488,0.3647909052,-1.2082683386,-0.3060559292,1.3693111962,-0.2918894827,0.1121807184,-1.2675043298,-0.5607736642,-0.7933010526,-0.5633124856,0.1833354745,0.5199321689,-0.7710448827,0.5412741452,2.0089461929,0.149234698,0.1402819914,-0.3136259724,0.3713972499,-0.61534199,-0.9718839903,0.0956627704,-0.5185033218,-0.5273560923,0.1235409903,0.5835028815,-0.6495562918,-0.5670838411,-0.2938627929,0.2137320105,-0.1481763987,-0.4472214922,-0.9419678699,-0.3019859785,0.162576652,-1.0249815546,0.7795558681,-0.1588884284,-0.5597985754,-0.9084231899,0.81355532,0.8299177541,-0.0268371331,-0.4183445419,-0.6501772388,-0.7360158558,-0.3586521781,-0.1898617799,-0.2249006573,-0.9781118169,1.0472859394,2.8110442946,1.040996694,-0.5110230264,0.2537813044,-0.4119963345,2.1793510501,-0.1151361989,-0.3322529978,0.1624358408,-0.2286321789,0.555573631,-0.4274531775,0.6694930265,-0.2196091332,0.9318661782,0.2455124426,0.7705420819,-0.3164335659,-0.1589224752,-0.8532620959,-0.5370556668,-0.8703896474,1.1432290947,-0.6073627536,0.1874475605,-0.6622376512,0.2264062461,-0.5280688712,0.3760971036,0.2846416089,-1.7058446006,-0.2949179052,0.727248104,-0.3604809732,0.0525861007,-0.3487981165,0.0652536306,-0.8598051465,0.0933916778,-0.3434249136,0.0941276621,-1.0671840866,-0.1123246802,0.363348026,-0.5765284035,-0.2663721507,-0.0566872323,-0.9107028092,0.3441234422,-0.1915991993,0.7936534063,-0.1820790175,-0.3341873951,0.0990646104,0.5911653302,-0.1292826978,-0.0507101586,0.7583404971,0.0171585222,2.9351937245,-0.0998249522,-0.1311737952,-0.0437664632,1.0799140359,-1.1381969822,-0.7096638837,0.9621432451,-0.51585863,-0.9931653365,0.3040396686,-0.877781628,0.8963774115,-1.1895034043,0.6480174551,0.1463359372,0.2961039573,-0.7195191618,0.8804044557,-2.2508541139,-0.209379182,-0.3140668347,-0.9001377945,-1.6880212467,0.6043570659,-0.9202151991,0.8016235691,1.7013751724,5.5288808085,-3.1623858759,0.3598941261,-0.5815743036,0.3499323448,-0.4110228073,-0.1116485958,0.9176367226,0.3542196095,-0.1344120056,-0.3491084237,0.2401687678,0.5704546552,0.4329530292,1.2459055192,0.3910504546,0.3843041915,1.1748507137,0.3680930605,0.9708889045,0.6550208706,0.5188204414,0.5139802047,0.8050655126,-0.1771941602,-0.3802539826,-0.2700024299,0.6045615307,-0.7084891558,-1.3510420276,-0.2123459775,-0.0155609762,-0.7954829879,-0.660794219,0.2569777289,-0.9941985597,-1.5995771838,0.9726744444,0.7509047958,-0.203694963,-0.5024286301,0.2137618871,0.7908582937,-0.3561343113,-0.6439812415,-0.3136638706,0.7364364144,-0.7877084749,-0.9234833753,-0.574875325,-0.679946257,0.2225036401,0.0855114216,4.4041597362,0.9711621866,-0.6004860909,0.5937549017,-0.4732086805,-0.5690305478,-0.3913141857,-0.2889439603,-7.7342354705,-0.2040381106,-0.3958114106,-0.3546806979,-1.685598103,-0.9488787865,-0.8232796079,-0.0307009483,-0.4661301198,0.0972103304,0.3022442251,0.8707084797,0.3663989356,-0.2397504273,0.4850975703,0.7939406141,0.4077883741,-0.5311873023,-0.3901563283,-0.6814531013,-0.4576163142,1.7285586052,-0.4841734162,0.2004697025,1.9146981781,0.5851421916,0.5139413178,-1.8079457444,-0.6629288888,-0.9170713594,-0.1362593389,-0.467243452,0.0059520623,0.4334493448,-0.0963039475,0.3863591866,-0.886478586,-0.8419379331,-1.2790108156,-0.6179988126,0.2612611679,-1.1258938539,2.0259623059,0.1549398409,0.1329613723,-1.6555075541,0.0174116947,-1.0411588792,1.1991506964,0.5529786856,-1.292898666,-0.1771889709,1.1641285767,0.357141824,0.2319816161,-0.1819560899,0.3406488972,-0.8850417961,0.6321896856,-0.5064015165,0.9124020178,-0.8216688192,-0.2388193825,0.978134696,-0.4294001228,0.5480006396,-0.4630707656,0.6865076058,-0.3273452861,0.8675088895,0.1615390756,0.422117615,0.4523863138,-0.7230076605,-0.4994144482,0.749143038,0.7286234574,-0.3424350405,-0.5869159329,0.8292886178,-0.2166522362,-0.2283815644,-0.8078995363,-0.437165286,-0.0817244832,-0.3547978805,-0.6191571472,-0.8151768342,0.1195221625,-0.1213199438,-0.2102303764,0.8783204095,-0.2615246431,0.3249092933,-1.2688212095,0.1860430786,-0.2386080766,0.8932937563,-0.5506032639,-0.5695275304,-0.1883367597,0.8349950181,-0.5695810698,-0.4505003518,0.2290496717,-0.0429993033,0.5241902389,0.1061836307,0.0505384083,0.0610720294,0.1176478526,0.7926642635,-0.3498736024,-0.4921917811,0.0436437725,0.0571371936,-0.8286873382,-0.7609863121,-0.5974292844,1.284519172,-0.218570573,-0.5647616315,0.3500549247,-0.3978854052,0.7263279135,-0.7453647362,0.662938341,-0.7655310088,-1.1798487545,-0.2880797902,-1.2176367381,-0.5482167668,0.180666024,0.8929230543,-0.2463058195,-11.0531666046,-0.5177951378,0.1614443181,-0.0545481199,-18.9287189665,1.0817831762,0.5190319115,0.1611276495,-1.1108969894,1.0127137767,1.6511961984,-1.1532268026,0.1898376611,0.7668948814,0.1644999496,-0.2431968057,0.3203101961,-0.2061416873,-0.2358684231,-0.9437451503,0.1810936657,0.2907476241,-0.5319243279,0.211327701,0.1618379225,0.3014704195,0.3209445958,0.7009292802,0.4586978555,1.3904708586,0.0314870008,-0.5161035334,0.0754770436,0.9169267707,-0.3478302509,0.0491588739,0.3270418264,0.8032721881,-1.1264787481,0.0955906576,-0.0760869984,0.7513564031,0.6693506868,-0.4205448298,0.9956915114,-1.2211764413,-0.4512213908,-0.2214033618,0.5201890461,-0.6093384947,0.0893236617,1.0832609799,0.3665744282,0.5256435584,0.1327261229,0.2216533727,0.1872644546,0.0662659871,0.3002115128,-0.8377481554,0.2760630719,0.5211393648,-0.3713243587,1.0606355638,0.3459887765,0.2458686912,-0.4953759422,0.4140815283,-0.3491651305,0.3146663181,-2.6330486855,-0.4788287127,0.2932150675,0.2396788508,-0.8006041286,-4.9833156948,-0.4044236944,0.631129278,-0.6232155476,0.183698513,1.0224563119,0.0285900235,0.1136723127,-0.7974414977,-0.2356315332,0.7581981179,0.6006398826,0.4190084506,-0.792479237,0.2967975313,0.3486692567,0.3029663047,0.3774176353,-0.4180367279,0.2398848602,-0.2948056765,0.3278004304,0.9096323329,0.4391808118,0.6512720087,-0.6106683651,-0.438082818,-0.1048656189,-0.1928350015,0.7361772942,0.4943837957,0.1473475814,0.3209718636,0.9228985677,0.6978365827,0.5726696233,-0.6858336277,3.3482335942,-0.5909592532,0.9012368018,-0.6740767407,-0.1327334338,-0.7989422727,-0.744205037,0.2380143015,-1.313893672,-0.026908229,-0.6726832533,-1.0110281306,-0.8604593353,0.7921468763,-0.6711735964,-0.2163961624,-3.5030313159,0.089135012,0.7466992972,-0.5964841041,0.9645117183,0.5935801414,1.1186582588,6.9234947563,-0.8641672006,0.9584124333,2.0349866412,-0.3996287923,0.774738478,-0.280750356,0.3659499067,-0.943969841,-0.1910005748,1.0032521207,0.8877758909,0.1082690831,-0.5228372653,0.3450586356,0.5798750556,0.4116191349,1.0676730727,0.6186517896,-0.310303323,-0.3131710945,-0.6890293884,-0.3739971955,0.1834893701,0.1131794783,0.5786142792,0.4703539277,0.5711610016,-0.7966231932,-0.5798363063,-0.694839055,0.9818170433,0.0559529562,-0.898074721,-0.0347115794,0.019065609,-0.3466979696,0.8850245034,-0.2679186063,-0.9706580341,1.0298173682,-0.2493815855,-0.2339117925,1.0125675252,1.1918369655,-0.85782013,1.1608320163,0.504015517,0.6597495807,0.8142786816,0.5023379917,0.3632786704,-0.4215725516,-0.6100287793,-0.453090908,-0.6136261577,-0.415558312,0.2139499421,-0.0078571002,-0.5770303705,0.7033201748,0.8619403913,2.8859299096,0.2762903628,0.9570481642,-0.9097493785,0.7433708885,-0.5591928162,0.568190125,-0.489620955,0.5574272114,-0.0598516625,0.0552651214,0.9419046089,-0.4300419298,-0.1622003379,0.9900107418,-0.0126463238,0.4359906759,-0.743825398,-0.5396014374,-0.4830773625,-0.528705842,-0.6281799181,-0.4317399707,0.5363993598,0.8024895256,-0.1603239868,0.8549856482,-0.6851593076,0.5832701024,-1.1456936103,-0.0482910883,-0.3351815663,0.3016496074,-1.6917709107,-0.2061268059,-0.277873638,-0.5527002844,0.6862179921,0.8161859603,0.7682900237,-0.8228684461,0.757153946,-0.4796164592,-0.7208840797,0.5064265304,-1.0558123005,-0.4384255095,-0.3926357357,0.3827945828,-0.0444221524,-0.5021677424,-0.9850167032,0.8098118594,-0.668541699,-27.6950668079,-0.9992043272,-0.4635231376,-0.5194017441,-38.6963120939,0.4978121514,-0.1889643944,-0.2508809185,0.6339545153,0.6042879045,-0.0870954086,0.2254295379,1.1783749032,-1.0058988895,-1.0140878524,0.7591231558,1.8339829793,-0.3014282652,1.0872387174,0.9398114365,0.1914715596,1.5540739622,0.7525242252,-0.6449629016,-0.5068224629,-0.6516807951,0.2238338579,-0.1458077976,1.3734593237,0.575353134,-0.1693060765,0.1350343725,0.0877987501,-0.0234649105,0.8958380396,-0.5736392241,-0.4559356719,-0.2223098294,-0.2876444629,0.7939512842,-0.4929896509,0.5912430452,0.0759438487,0.1154490158,-0.7602625788,-0.315959591,-0.0706185542,-0.3435030531,-0.8029597134,-0.9218154337,0.6734151977,-0.184997877,0.5004265629,0.255594364,-0.2668942027,-0.6513527362,-0.2526332694,-0.4716987675,-0.4144700853,0.0849271232,-0.6450426643,-0.6841061434,-0.4552978685,-0.7165386401,0.1772406493,0.9398635894,0.3302000296,0.0480600805,0.3347579032,0.6650144928,0.6787797143,-0.1986815743,0.3448998872,0.0100072244,-0.7228392571,0.2265989751,-0.7195309095,-0.6779082356,0.3175198872,0.0151372881,-0.8002577412,0.2435117932,-1.271243844,-1.0575547602,-0.0862711824,0.1533416699,-0.5265132443,0.4964186529,-0.2361265876,-0.6933424867,0.1198675886,-0.0518972264,-0.2973649325,0.1092964596,0.7437663449,-0.3617529687,0.4412017917,0.9490839912,-1.0631057209,-0.0138377363,0.1949150224,0.5563599317,-0.3398765242,-0.2720476499,0.310251346,0.6940995954,-0.0349787436,0.5523840777,-0.7616731531,0.5984782558,0.681260196,0.761453023,0.939539242,0.209604058,0.2121767603,-0.8580076908,-0.1302755581,0.9761910364,-0.01285985,-0.9371084889,-0.4418915985,-0.5001112275,-0.2057756065,-0.0089651116,0.0669506919,0.2281519586,-1.8227847205,0.6670505796,0.9789017549,-0.3352511746,-1.9897077601,-0.380373404,0.2163623985,-0.5453916956,0.2046467904,0.6382420271,1.4046123177,-1.046066028,-0.5549153848,0.5525157755,-0.0166149322,0.5343112016,-0.8261717689,-0.6082357604,-1.390502263,0.7107728785,0.6330199467,0.7103726927,-0.0319337168,-0.8193968627,-0.1351459808,-3.5769415773,-1.8744305028,-0.6598439447,0.6714095866,0.4236467956,-2.0595832142,0.1897159151,1.0983071657,-0.3540868723,0.0501459382,-0.9657378185,-0.524614561,-1.0172243211,1.1540680132,0.7385341033,0.918556491,-0.3656407179,-1.4144314917,0.6303938407,0.2277212332,0.0359066184,0.0898231212,0.0563910374,-0.4918539702,0.6029872094,0.4705023315,0.654830134,-0.0549546342,-0.5937290002,0.1290007449,-0.846803841,0.0042159009,-0.3966628075,0.5020501552,0.6959738972,-0.098614412,0.4695869658,0.5972223304,-1.8489922102,0.0639408618,0.5993157634,1.1228948452,0.6688686566,-0.8233667266,0.1761533433,-0.812690111,1.066298728,0.6378362216,0.110327537,-1.0525456956,0.242241617,0.2250283772,0.385266447,-2.0278631289,-0.7146639466,0.4675509274,0.3079435165,0.3689269116,-3.9720481257,0.0256337573,0.3210444836,1.6524078568,-0.8538534591,-0.4473470339,-1.6696870254,0.9080365202,0.1285878028,0.973410541,-0.9208365495,-0.0451783422,-0.0872155249,-0.4242379057,-0.6120780972,0.3080271045,0.6096907787,-0.9271041242,-0.2750630991,0.4474946737,-0.6265264697,-1.0229391526,0.1115935845,0.2525921006,0.6328605911,0.9794519727,-1.168213477,-0.429010468,1.707797803,0.6254326392,-0.0962400927,-0.5343370266,0.1512465268,0.0898880004,0.5036393994,0.6616527664,-0.0699704003,0.0660486643,0.5325751324,-0.4737631204,0.4234904777,0.4001944925,-0.3336808798,0.8686252965,-2.4166275344,-0.0280659609,0.6621436249,0.3503514784,0.7031835987,-0.8831441122,0.898801496,0.1391469342,0.5900041506,-0.4854124615,0.5927531295,1.2102042641,0.8761816512,0.8021737583,0.8841031918,-0.4182501303,-0.0679720066,0.7694565632,0.3446864747,-0.4840688709,-0.0972461631,2.4992718996,-0.5625042695,-0.3592926099,0.616861117,0.8903675037,-3.2258265809,0.1563123542,1.0056304996,0.5744415012,-4.5707203812,0.5217740525,0.8627195006,-0.4574820526,-1.5737171897,0.3603319791,0.5662099494,-0.7079353437,0.4483960652,-0.1720865323,-0.2339422711,-0.2484961295,0.1511119173,-0.0500403387,0.0237561227,-0.0712371717,-0.3130087936,-0.0696550636,-0.0057984042,0.6919921659,-0.1151587436,-0.1175834805,0.9388348373,-0.2422173611,-0.908383459,0.8434870669,-0.1754077874,0.4993693086,-0.9931178012,-0.3520063626,0.776951175,-0.3441898524,-1.3411053567,0.6141091025,-0.0496842096,-0.3732679325,-0.3011922308,0.0098262419,-0.1086042722,0.7460849245,-1.7044848556,0.9226994827,-0.1664079113,-0.2935563494,-0.677733291,0.6480253431,0.651118067,0.1889396498,0.1335553135,-0.620177712,0.9299888337,-0.0613735014,1.3159415739,-0.1871894511,0.9595872512,0.9447312882,0.045268145,-0.4025056608,-0.0870419743,-0.2922337466,0.6898332497,-0.6702590608,0.9235941841,0.6838434359,0.4590518801,0.323382492,-0.3388702053,0.0709073717,-0.3416510047,-1.2203274424,1.0270685548,-0.175014274,-0.4677755382,0.8493271318,0.4437818742,-0.6581040977,0.9335636511,-0.3141361814,0.2093823457,0.540741903,0.2246895479,-0.1983178726,-0.5557209984,0.6211323702,-0.8850619229,-0.1319916236,-0.4681342751,0.3683540192,0.4946252961,-0.3401192508,-0.716846623,0.2087117629,0.1517362924,0.2347512509,0.0951976533,0.7676051462,0.3454487099,1.1722974254,-1.1044755323,0.1083915308,0.583928604,0.5656108399,-0.8306858861,-0.647489999,0.0005826759,-0.0620128053,-0.0493140532,0.9797073903,0.4929569205,-0.7447432027,-0.4218998121,2.64277517,0.034321309,0.4442996685,1.6048720959,-0.1575921549,-1.0050877839,1.044273451,0.5780305736,0.3375556796,-0.7488102783,-0.5395076352,1.2897088555,0.9922932917,-0.5729184425,1.0321740906,-0.421352824,1.0618725877,-1.0847110926,-0.5932809575,-0.4908128205,0.3417948055,-0.5383175907,-0.1795305603,0.061563892,-0.0108727532,-1.0346373704,-0.0280126932,0.1726391802,-0.9933424993,0.2785913291,-0.223123059,-1.0043310958,0.3799493263,1.4997138821,0.1780175707,-0.3121915431,-0.9548841862,0.6865024789,0.0357909122,0.6001767646,-0.1075825182,-1.2867173529,0.3125655473,1.0048297955,0.3924602636,-1.0160202451,0.6128616169,0.1331675626,0.2338316687,0.5411860669,0.1587188879,0.9443868986,-1.5087077807,0.4718176765,-0.9614197846,0.4584896641,-0.4477977228,1.0398898181,0.1045145769,0.2396539289,-0.1431111097,-1.2442198227,-0.7121820811,0.0565613453,0.9334398915,0.6873899254,-0.4124206963,-0.5563593554,0.9135431606,-1.0770464643,0.0844200865,-0.7670677151,-0.8548451194,0.2056823636,-0.4973774904,-0.7049716471,-0.6237044952,-1.3888140273,0.98239832,0.5265959012,0.8259319146,0.3774412096,-0.3896657666,-2.6314525501,0.8713844274,0.5905421315,0.11571285,-1.1627476759,0.0475922292,0.6120482127,0.169024146,-1.1645256294,0.1938488033,-1.0570366299,-0.4614132188,-0.4810038865,-0.0365522674,0.6515721992,-0.3365758866,-1.5805823963,0.8394699759,2.874705225,1.4582731453,-2.3181413748,0.5880151639,-0.8929550519,-0.3874926603,-0.5697788065,0.8369507958,0.0759384576,0.528463595,0.0956108591,0.1026074532,0.1950286867,0.4077374554,1.2989279095,-0.4627735342,1.0709818627,-0.4923400217,0.6207329021,-0.965511367,-0.4165341952,-5.3416710519,0.057627738,0.6506430767,-0.195039165,-1.7217146396,0.0009874495,-1.1927597827,-0.1529527174,-0.1384786641,-0.6661833253,-1.2336275939,-0.4075022446,-0.0954385959,-2.192627585,-1.3012572235,0.7605591815,-0.9527395368,-0.4237816862,-0.8893341975,-0.3791502398,2.4472848471,4.4699563786,0.2096352823,-0.3148764515,0.7165642592,-1.2778013197,-0.5458521923,-0.1008325384,-0.2247804371,0.4660301056,-0.3399366325,-0.5863823555,-0.700165792,0.9542356391,0.0831662915,0.6989923627,0.2194012569,-0.3936354753,-0.0252975692,0.8583794401,-0.0645755855,-0.4556127068,-1.1690511109,1.1986409847,-0.6627028355,0.1615841141,-0.063584502,-0.3632785711,-0.5958118813,-0.2440683225,-0.4914647379,-0.0368090418,0.1364337662,0.4431951305,0.3593908445,0.0211201549,-0.6478662208,0.5040730405,-0.8645204345,0.2855280884,0.215272608,4.7876088231,-0.6967083258,0.2948720362,-0.3622142313,-0.3998664344,-0.3262088161,0.3232179735,-1.1205053276,-0.7784735923,-0.4918722569,-0.337069536,-0.4390741586,-0.6524291866,0.2851668979,-0.5798341491,-0.2249614891,-0.4660435732,0.9245236145,0.3539519372,0.3378658171,-0.8198262507,-1.3200213377,-0.1691560745,-0.8791219659,-0.0494469882,1.4210488356,0.234736953,0.1122287966,-0.0762762477,-0.1253192876,-1.3004895309,-0.8166878407,0.0253619767,-1.2291011349,-2.7457618311,-0.3915736173,0.2472011803,0.8074289628,-0.8472959709,-1.1008135731,0.3169600659,-0.1489058754,-0.3982415578,-0.4943355289,0.2620935489,1.1670296496,0.96011661,-1.9274307582,1.5397061752,-0.4277667347,-1.9221881714,0.0704807033,1.4676558693,-0.0104259677,0.8013671355,1.0184654157,1.1365848403,0.3747175181,-0.8647714727,0.3216845354,0.9958243619,0.6986830872,1.1749810079,0.2083433198,-0.5409913746,-0.2639357364,0.4801200989,0.8868868991,-0.5964356349,0.4938266154,0.1928502521,-0.4982778889,-0.2338714201,-1.1472663181,-1.6859857648,0.5611263322,-0.6074749038,-0.6948549468,0.5578771847,-0.6531261016,0.0112399798,0.1256588626,2.6793920286,-0.8135356357,0.7334436989,-0.3794444409,1.140387835,0.5875755512,0.2340560233,-0.131248189,-0.7237281483,-0.2397027719,0.1952824587,0.1480723046,-0.2949097759,0.0139659095,0.4574184634,-0.4052575563,0.6020494334,-0.0337960282,-0.7501887001,0.7933807404,0.3648536454,-0.0529869549,0.2415290801,-0.2468571884,-0.5225739759,-0.2268940603,0.718603195,-0.0960772124,0.3744845167,0.9236801891,-0.313405104,0.8678476725,-0.886087566,0.2757672837,0.7656155942,0.6111584495,0.7015451951,-0.3929989395,0.7652240661,0.2575283649,0.907833443,-0.5234495682,-0.3867143528,0.0665016185,0.4417678379,-0.8755343552,0.057558053,-0.2972081897,0.0510528134,-0.8703549528,-0.4069281033,-0.9721553499,-0.4062100047,0.0409425488,0.5302176014,0.1744920837,0.1930142528,-0.8318542895,0.8850785361,-0.7966017948,-0.7766679792,-0.6901315593,-0.4908312488,-0.1163274712,0.0035030844,0.8906163491,0.0650605008,-0.1830396875,0.112776315,-0.9267847315,-0.5824257008,0.8568463359,-0.6362809847,-0.4951812754,-0.409029891,-0.4976716447,-1.0621401533,0.8033881951,0.0242402896,0.7985138204,0.6583650078,-0.524606813,-0.5268833857,0.2909481808,-0.1553062179,-0.7727180268,4.7551850304,-0.5497333668,0.398994461,0.4675631832,0.2869090719,-0.7615036054,0.2289878924,-0.0362200367,0.5806066961,0.3870705421,0.133160593,-0.2115133032,-0.4880465675,0.3532475271,0.9525807935,0.7767853977,-0.4406304444,-1.2896158301,-0.2124540308,0.4469273726,0.0146996582,-0.3878571538,-0.0753081137,0.6431440764,0.2604654443,-0.4076176154,-0.6099197657,0.2787997661,0.5763153452,0.5432989048,0.3525875276,-0.0533101983,0.754390166,-0.0469376661,-0.0768481304,0.3223984211,0.0682885679,0.0939830556,-0.799175458,0.7480548921,0.0564273759,-5.276957682,-0.8138785053,0.2751502607,-0.2880949959,0.9018498068,0.919155211,0.2428111872,0.0946407206,1.2993328953,-0.8476267012,-0.8089394594,-0.0184034744,-0.2671023173,0.1765244167,3.0437884971,-0.533686141,-0.321167396,2.6657828388,0.6330541927,0.6348513526,-0.5848268602,0.077779721,0.7405141742,-0.4335036914,0.1439327353,0.2508164715,-0.0940251538,0.1084133716,0.6971854403,0.3771959779,-0.2368074607,1.0392643971,0.9185035429,0.1967556537,1.0461822033,0.0855649043,0.7994107827,0.5274290054,-0.1830701894,0.6320267391,-0.3238944553,0.5496767586,-0.9322311562,0.4158342649,-0.6137777778,-0.370286831,0.2252183003,-1.175325441,0.6055201958,0.8161512872,-0.7172615217,-0.5365238081,0.6845454861,-0.6905033588,-2.4147852376,-1.0175819604,-0.5174998975,-0.2796191516,-0.4168147823,-1.0811009985,1.0267382332,0.162320222,2.3485664145,0.0615620936,0.8047493647,-0.7060345014,5.0891008998,4.0585995261,1.5471051187,-0.8451560504,0.0053259635,0.6967716093,-0.5548673466,0.3150055979,4.3596350334,3.8681832083,-0.8271530304,0.0258668647,0.5679816981,-0.2812097316,-0.7918083156,0.7517437942,1.3825492521,-0.8115615339,-0.8860832229,-0.0643196613,-0.1932769765,-0.2762052587,0.6033030433,0.1420894616,-1.147806393,-0.3526984718,0.1210694377,-0.3664274982,-0.8287487233,-0.3329551085,0.7043083144,0.52364038,0.4956945464,-0.4459689801,-0.7833548192,-0.3302810049,-1.06659343,0.7156392349,-0.4296926284,-0.9968961444,-0.4141566827,-0.742880805,-3.522745315,0.4331027526,0.9724834816,-0.6055854164,-0.8268033917,-0.1456950504,0.7445061844,4.5841595711,-1.120024599,-0.52552278,-0.5140761163,0.0101351824,1.3066420309,-4.3414299884,0.4018527339,-0.7147681976,0.6013381878,0.2264404935,-0.3565874629,0.4954003107,-1.0645167012,1.9545403715,1.149962021,-0.1850368705,-0.4138956221,1.3983594376,-0.4336355658,0.5831978738,-0.9840794553,1.1174587689,-0.4628613787,-0.1363994186,-0.7925245176,0.957888049,-0.4183963554,-0.2003774583,0.5627924736,0.7760086314,0.5517706319,-0.4652370476,-0.4091471177,0.5524387116,0.076658839,-1.0121950208,0.3474551092,-0.4356893675,-0.4408318499,-0.5136234146,-0.6848470402,-0.9620597344,0.586700015,0.1411412487,0.2882590281,0.1373280986,0.1469855163,0.69861659,0.3743559981,0.8021910515,-0.9800339904,1.1103450112,0.0339342017,0.6618751609,-0.7084447565,-0.9447536568,-0.5106890013,-0.7244292779,-0.6339572689,0.5552066409,0.6056975487,-0.5178948826,0.8241408138,-0.8144828139,0.6892249382,0.8704976154,0.7911468918,0.1288391649,0.7951771386,-0.4346226197,3.6420358365,-0.3425825397,-0.496174803,0.6727988946,-0.308620479,-0.160943281,-0.169421976,-0.2946608653,-0.6585440037,0.6232067264,0.4019263019,-1.6580308328,-2.0849100851,0.5088574097,0.7089646038,-0.5485457368,-0.1556162935,0.1793189128,-0.503275196,1.0441586413,-0.7400322968,-0.4609545032,-0.5056833116,-0.9314523243,0.0388037298,-0.136932023,-0.4565896467,-0.837293085,-0.3276273432,-1.5556599131,0.6262964203,0.4300738677,-0.3042722559,0.2586101044,-0.1306070754,-0.7626971019,-0.3656364517,0.6564954309,-0.9917976319,-0.669073304,1.0030739998,-0.2850249572,-0.3286664746,-0.4490087703,-0.3422919566,-0.489235838,-0.2671853887,0.6706162904,0.5715710122,-0.702711679,-0.7955288024,0.922738623,-0.6290137176,-0.2717646687,0.3934767192,-0.5738814763,-0.4136499855,0.6748606684,0.1604029607,0.5539280681,1.0047393692,0.8124395985,-1.1570137512\n   -2.1760410503,0.0834235091,-0.4980350173,0.0478341291,-0.9203457452,-0.356785849,-0.2902127869,-0.2028952688,-0.5951644031,-0.5224320995,0.4620129815,-0.5627724762,-0.6799527665,0.0908777491,-1.608570096,0.0765379042,0.5255927232,0.7192616498,-0.6549760102,0.056598157,-0.806720701,0.443297993,-0.4155644517,1.0388231292,-0.7744146537,0.0806802482,0.7441746716,-0.3388741604,-0.8804478387,0.3968200953,0.9035830697,0.4522877391,-0.6561022296,-1.0542560908,-0.6821554253,0.3235779272,-0.1292734581,-0.5620785612,0.3732796804,-0.0952130369,-1.2961590871,0.7509713049,0.079654456,-0.2539908416,-1.774876732,-0.0521319855,-0.2939620155,0.481927926,-0.0436885252,0.5074694091,-0.0378929268,0.9117508445,2.8853603145,-0.0660609054,0.0585983011,-0.4952500755,-0.3256031662,0.5579069584,0.1635504642,-0.4313322862,0.675907672,-0.3975245778,0.0821028666,1.5149868578,-0.7616118876,0.3365113514,-0.3377937266,0.2751114044,-0.4278483444,0.2934141421,0.7311803198,-0.9286587048,-0.918241455,-0.1520364299,-0.208203234,-0.2820933283,-0.0906793512,-0.2291957593,-0.9473439823,-0.4657447429,0.2177754006,-0.275240915,-0.1587720332,0.1432667201,-0.6554457069,-0.7546133303,-0.2635273404,0.2604380513,-0.8559787178,-0.1288334907,-0.5116170056,-0.9239064525,-0.027633216,-0.4097038527,-0.3500360144,0.2572699951,-0.3065684814,-0.52035721,0.5335908873,-0.5662531719,0.0059430336,-0.238936244,-0.1363937085,0.4268601137,-1.1695905355,0.330073674,-0.9697079306,0.3863213304,-0.6487116795,-1.0249114232,0.666317504,-0.3533339213,0.5970755756,-0.6805018115,-0.2802272702,-0.6360355366,-1.6320032327,0.1129992064,-0.6065851993,0.6573973081,-0.6325525791,-0.3130402719,-0.0190284358,0.770443817,0.0889553308,-0.8445946382,-0.0071772935,-0.0627725005,0.7780414063,-0.3087337117,-0.1725907161,0.3039634428,0.6789895128,0.2116215853,-0.5865628913,0.9346869324,0.1839039538,-0.6974741989,0.6705449565,0.8511623218,0.6072413376,0.4400082728,-0.5267402073,0.3875883819,0.8815650076,0.22729019,-0.4041651901,-0.0842427601,0.9237864612,-0.664090852,0.8152264521,0.3368521168,-0.3013868129,0.7265610071,-0.268766335,-1.052315375,0.517909896,-0.0733824231,1.8829281819,-0.6453196209,0.0914884735,-0.1734875225,0.6475775705,0.856896167,1.3825387246,-1.0380217442,-0.6707087403,0.4879427233,-0.391151052,0.8113579927,0.0707408802,-0.2391834659,-0.988987886,-0.0776261271,1.0929078915,0.0966130582,-0.2459318104,-0.8568743967,0.2758288402,-0.6873890556,0.1610863371,-0.818735513,-0.4834178744,0.0687463446,-0.4438122991,0.8623223053,-1.9643325085,-0.5813032771,-0.9599868639,-0.7829609923,-0.0727747361,0.797590477,0.6249223186,0.3138220742,0.2008316276,0.7564103432,0.8860419601,-0.5067768644,-1.4172970186,0.9901674246,0.724282012,0.7850463479,-0.1078686712,-0.223043835,-0.4116681778,-1.4415231397,-0.1076664623,0.3696658488,0.1144598646,0.1967660117,-0.7244410583,0.5815495103,0.3097174005,-0.752081164,0.2424666227,2.6574330875,2.6656299464,-0.6854935452,-0.2405111985,2.5437576785,-1.6625589271,-0.4270121402,0.0153611876,-5.9704469257,-2.8574153207,0.1602488889,-0.5128143235,-6.7573721555,-3.1484584897,0.7299444094,-0.7551463431,-11.5346337024,-1.0736238006,-0.4844878735,0.3304763533,0.134924502,-0.4862070022,0.4474675358,0.9176016423,10.0838938026,0.0396050118,3.5295339966,-0.6000211579,1.7877771783,0.6289182449,-0.5836445749,0.3171576806,0.9301319643,-0.2213405413,0.5838978345,-0.1729512748,0.0527868487,0.8830372977,0.490124968,-0.6783005278,0.2354329238,0.3572195333,0.2818417724,0.28798259,-0.0733218608,0.2106936815,-0.4361013495,0.8619257731,0.9437296845,-0.1444473989,-0.063801659,-0.3124372861,-0.456383184,0.3524627309,-0.1202643202,-0.1531349332,0.9475369793,1.1130337197,-0.5962720627,0.2610143283,-0.0066762875,-0.1886528363,-0.6891491417,0.1765950225,-0.8944676195,0.4931765707,-0.448953044,1.0494104592,-0.950014202,-0.2389815564,-0.9666110907,1.1693289089,-0.50538773,0.2357347531,-0.2310588245,-0.5844869937,-0.3835155614,-0.4033703847,0.6938929376,0.1990480936,1.0319884215,0.7763708153,0.2316558956,-0.0966299792,-0.188748735,-0.1188671734,-0.7982323324,2.3905703236,0.4155500292,-0.3130403739,-0.1190995424,1.5908678833,0.0965144098,0.099792189,-0.1056183836,-1.3501418689,0.2194068266,-0.2031058333,-2.9973252499,-0.3590071302,-0.8299661486,-0.9577216772,-0.3988962873,-1.5747784395,0.4851315114,-0.931940899,3.9707285319,-3.405258338,-0.4428108549,-0.404355962,2.4533188701,0.8209077602,-0.8151641006,0.0714655418,0.0398314029,-0.6774990325,-0.3654909108,-0.5264327461,-0.2583262273,0.5900310098,0.4452283243,-0.938034928,0.9951357945,1.132692432,-0.3388488433,-0.5330024112,0.6225253643,0.8696968436,-0.9190644065,-0.4970076342,0.2715738749,1.0354942679,-0.0358608149,-1.3130917724,-0.4976755969,0.5489529104,-0.1641571865,-0.4150671223,0.7024078665,-0.3211941356,0.7458816845,0.3766410501,0.0475198801,-0.9088772391,-0.681180671,0.9042270506,-0.690333111,1.6590223296,-0.8530930698,-0.7061155867,0.1474854478,-0.9822641041,-0.4379052526,1.0192301366,0.5545643538,0.7352288394,0.979239509,0.8992885825,-0.4845754729,-0.5406362165,0.8222085977,0.4745354712,-0.4827639757,0.2716963442,0.5988651256,-1.1574809652,1.0320033178,0.8778594337,0.2105106372,0.3077300045,-0.5704836068,0.3577318372,0.5991892734,0.8957135438,-0.5464667188,-0.5149543811,1.0407551824,-0.4223458165,0.2298190793,0.0486844743,-0.42600081,-0.3053901648,0.4445724713,-1.1051979139,0.0005964234,-0.1020167695,-0.2377820676,-0.7107130645,0.0707134462,0.4709897957,0.743121647,0.489148248,0.0788840297,0.8981693989,-1.4959189589,0.6771240586,0.0746067402,-0.6203521275,-0.0977235203,0.5647793294,0.8051533803,-0.7962171024,1.1284463958,-1.0727369109,0.3513219443,1.3989348444,1.1366989052,-0.5690561356,-0.0364688843,0.7277385484,-1.7276330742,0.2035290672,-0.1707827509,1.2013350754,1.300873621,0.5016102586,0.5750209945,-0.0134966663,1.4251811267,-0.6633684814,0.9243183744,-0.0982585785,0.5523103552,-0.4282837616,0.4503370448,0.1433291156,-0.6827451982,0.2052459097,-0.7433778322,-0.3426602894,-0.3093467506,0.4487260056,0.1769885097,-0.8669355177,-0.5552431327,-0.7154698846,1.1456853965,-1.1576728123,-0.2340386454,-0.6192923873,-0.7120627365,-0.4420436962,-0.5552933152,1.1551229335,-0.1215630225,0.8194137645,0.3354160319,-0.6614035719,0.2837467487,-0.7667742803,-0.5462978565,-0.6773662068,0.841472359,-0.0611324995,-0.4073583282,0.2253640569,0.3770255745,-0.5985542544,0.5748921228,-0.2731206441,0.2332939536,0.7121935916,-0.618315228,-1.1207815381,0.5522944305,0.2522308957,-0.2613451922,-1.4404895617,0.2325585905,-0.768527671,-0.9435772699,-0.8261927864,0.2105857159,0.6073864781,-0.3078143138,-0.6172087682,0.4961849876,0.8616972042,-0.5407773256,0.8363622517,-0.3400255521,-0.9730751157,-0.0908492571,-0.066536867,0.8277344981,0.1155193594,0.6580637029,-0.7750878915,-0.7025640646,0.9774031432,-0.7023335139,-1.4611047234,-0.6914934291,0.1500511264,0.2810068827,-0.88278867,0.2102367782,0.0114265218,-0.6662158709,0.2828649892,-1.27910593,-0.7226715454,-0.3890715459,-0.6085722985,0.002809626,3.9387231969,0.1453757583,-0.6983048996,2.385076177,-0.1448125694,-0.7240005252,0.6415724365,-0.7692684706,0.9208041011,0.3964122164,0.9168167637,0.4680718362,-0.1976952056,-1.4398121399,0.2266495246,1.3132291187,0.0714084274,-2.4673471827,-0.5933636618,0.0580376696,1.0448938434,-0.0700887539,0.7567682262,-0.2509606106,0.2351756994,0.8048447297,0.0307598037,-0.9744716083,1.7916995797,0.1132497604,-0.6126372464,-0.4219271719,0.5584664163,0.7238576321,0.8339750879,-0.6304611054,0.6142444435,-1.1842833622,0.7676835959,-0.1798015639,0.2780388747,-0.7780138192,-0.9103344733,-0.2095041402,-2.0418875321,0.8045399876,0.7109973258,-0.6916361105,0.0287245936,0.4497004948,0.1001204829,0.2468321519,0.4729466526,-0.1513927631,0.0162498545,-0.0648480217,0.7608793057,0.5585023913,-1.1420834464,0.4644525623,0.9223345816,0.194635909,0.7957561591,0.7716004114,-1.3338093843,-0.8676715318,0.0961798019,-0.7729767138,0.2578878458,-0.4381051162,-0.3205155077,0.2493862226,0.8991467046,-0.9515269423,-0.1884448236,0.7969526318,1.2892169302,0.3845066512,-0.1254084982,0.4578784437,1.2361941633,-0.8860701495,-0.5527275996,-0.2696090706,2.9741342192,0.2390290331,-0.4306466691,-1.0304931156,0.64243004,-45.6413899126,0.2806556496,-0.1803458036,0.5947262855,0.1749449357,0.2869557923,0.1293090497,0.8739274662,0.709964159,0.067370654,0.3638895089,-0.7629661723,-0.8283407626,-0.0984378772,-0.6784431847,-1.0322779264,-0.8455652515,-0.2624495596,-0.4646811392,-0.949468793,-0.8247033853,0.1069479983,0.9039792464,-0.2384719881,0.2558763537,-0.3185099607,-0.3488954247,-0.5482443867,-0.2678307185,0.6228519402,0.563253377,0.3978669351,0.6836320402,-0.3685083304,-0.2743506728,-0.2065984566,-0.1805779628,1.3244427615,-0.0587556195,-0.7415737123,-0.0788787676,0.6638894405,-0.5365348545,-0.7893320757,-0.7532056293,-0.1431765685,-1.6003540772,-0.506097534,0.6472367757,1.2386883355,-1.0155457268,-1.0883533354,-0.0623507324,1.1242828372,-0.054987913,0.6277973802,-0.7038397044,-0.5475008704,0.0160454003,-0.7051346639,0.6812893442,0.0006803743,0.3824454167,0.476700418,0.8452249064,-1.07446041,0.2967347632,0.4278692219,-0.6218402041,0.4563460054,1.5503723746,0.4725530907,-0.2424720451,-0.0841204876,0.0259348336,0.4186085855,0.2220847285,0.3261724057,-0.5340609931,-0.7158827957,1.0782462255,0.8521883397,1.8189785891,-0.5067102014,0.7712103902,-0.8944754898,0.7449245946,2.3719087592,-0.3407442231,-0.326331317,-0.2233274999,-0.0577307587,-0.7625399764,-0.9321455284,-0.5699215431,-0.0160514865,-0.4792975263,-0.1479928445,-0.2093126271,-0.0330447336,0.5307386662,-0.538144302,-0.8334718223,0.794098358,0.8559343866,-0.0861874354,0.7656512085,0.2300509817,-0.6057574792,0.7191192086,-0.9554537296,-1.1698746705,0.394617441,0.6768749584,0.910930869,-0.3956142813,0.0633262117,-0.0602634106,0.4883828975,-1.1625783146,-0.8603720466,-0.037908611,-0.4024859668,-0.2149120424,0.6294724514,1.0199947777,0.4436883025,-0.0917134808,-0.0119641126,0.4292425905,0.1007488555,0.3328714956,0.4494380402,0.7444676063,-0.5613853575,-0.9369269829,0.7393125508,-0.1656325848,-0.8768843687,-0.967603724,0.7841635647,-0.3209327249,-0.8295360511,0.2893704874,0.0129933278,0.7707135351,-0.8943789231,-0.5119659351,0.2731361979,0.1608984279,0.7583907656,0.4866055878,-0.5502008793,0.3550844174,0.5747787478,-0.4390725865,-0.2774262894,-0.9766625559,-0.7947716446,-0.0578320972,-0.0754012445,-1.029291719,0.5308057153,-0.277784156,-0.3281654365,0.6167686369,-0.2143253902,0.1738745194,-0.6379118693,0.1882116259,0.2154370999,-0.0762564248,0.6869817273,1.0086411467,0.9280466998,0.2452830077,-0.4640890188,0.2357761043,-0.3046655011,-0.244322156,0.5040422467,1.1792718381,-0.4574039177,-0.5706198639,2.5170006831,-0.5865152702,1.0102714868,0.9984829615,0.6188854636,-1.7970456302,0.0141854101,-0.3037391177,0.0845067259,-2.2047267451,1.1656872906,0.1078342318,-1.4430444329,-4.6344676466,0.2179946836,-0.277909991,-0.9471067394,-9.4894093469,-0.0744344992,0.6804365067,-0.0290719201,-9.9100986918,0.4380755538,0.7411739052,-0.5632330024,-0.0859618841,-1.0410755797,0.3091982585,-0.7728834844,0.1416357393,-0.7928855912,-0.0839029445,-0.0342956622,-0.402935927,-0.1051629522,-0.6937249899,0.2445394373,1.1513440718,0.220283009,-0.4613078755,-0.0769390153,0.3950762002,-0.7305818869,-1.2523450563,-0.208061946,-0.5122378041,0.5408013312,-0.5951079178,0.9894720812,-0.7805452741,-0.505627754,-0.0021908114,-0.2906771269,0.3090807513,-0.5483249203,-0.6630462068,-0.1343561372,-1.7244631885,0.0623138519,0.8916302918,-0.4957505516,-0.769240915,0.1349339376,1.8132125219,0.6289268276,0.6848950406,-0.0873279777,0.4438696025,-0.5225836608,0.3816790355,-0.2308431986,0.1399550254,0.4998528513,-0.7988648228,-0.3819277574,0.2899787228,-0.0397387341,-0.6611516009,0.2178152959,0.5991968155,-0.2968120497,-0.4391925149,2.7159212189,-0.4296001469,0.2324645675,0.7705658713,0.61398144,0.5065989486,0.8159709265,0.3488827356,-0.1343529094,0.4019737126,-0.5405054526,0.5232950825,0.3877560045,-0.9603676927,-0.0733296069,0.4789246655,-0.8976165872,0.7416483069,1.0976699766,0.3423588815,0.617626581,-0.0465186208,1.1741974035,0.7292216244,-0.9789977316,-0.676567002,0.5145607054,-0.814667073,-0.25958091,0.9549861229,0.0765498835,0.1246365783,-0.8730166186,0.8397243962,-2.8310543174,-0.4461113727,0.570282535,-0.279975594,0.2703895796,0.2051802678,0.7962502521,0.5311971846,0.7947874994,0.2158624526,-0.8841391957,-1.6270922541,0.5932635863,0.4538653595,-0.827845256,-0.0399140707,2.0008936928,0.8102957152,-0.9555599564,-0.0099356133,-0.5381046564,0.8134206239,0.4873129714,-0.1624442258,-2.6755452674,0.7579219833,-0.3662339025,0.6116973485,-1.4820795673,0.9096232317,-0.8071514094,0.6404509835,-0.7580051361,-3.3764749305,3.6949852164,0.6298795875,-1.1056892222,-0.519960278,0.5506383666,-0.3685085206,0.4108070339,-0.8050284973,-0.1977691334,0.8560778264,-0.7703101031,-1.9330052353,0.0720661105,0.2368802191,0.2301760704,0.223172548,1.072276135,-0.0952989352,0.3058671798,0.3877598037,-0.010911157,0.1108927712,-0.3642983725,-0.3204678773,0.5570588032,0.988971793,-1.2073817951,1.1811196744,-0.2593276885,-0.9022604461,-0.7793571216,2.4105537078,0.8186146113,-0.793128991,-1.1220940357,1.216329807,4.115307784,-0.0756397868,-2.3747575109,-0.8740763723,-0.2479784346,-0.5199287153,-0.8642048601,-0.493664616,2.6702059657,-0.6484458246,0.8828658232,1.3115181054,0.4139603278,0.3167176291,0.3545811937,-0.0862776824,0.8418870488,0.7458352307,0.3235601325,-0.042527176,0.6494273188,-0.8400322489,0.5819601331,0.6388551543,-0.4336306849,-0.3202561288,0.266224399,0.7679180155,-0.8121776638,-1.0536898492,-0.6769092043,-4.916163473,-0.8233534452,1.15586488,0.2979006898,-3.9319365804,0.1027781612,0.4106242857,-0.8989775725,-5.891497502,-6.6470204807,-0.6813488148,-0.5734339626,-2.744252713,0.6879334486,-0.8589688437,-0.0869190044,0.1619542279,-0.3513849251,0.0851645133,-0.6439642126,0.1933421677,0.1064040866,-0.6417704839,-0.10556507,1.1559417376,0.1831745401,0.0321156835,0.1360315744,1.2189259513,0.5065558401,-0.952309605,-0.2401704658,0.1864533266,0.997088245,-0.4494994366,-0.7687045317,-0.469124371,-0.2952140496,0.2156898434,-0.8396128612,-0.0335501424,1.5102818727,0.7986900454,0.21602868,0.8937976666,-0.1885685527,1.0372034523,0.1572259787,0.2204643405,-0.3871263755,-0.5594143852,-0.2093331084,0.119692885,-0.0342442065,0.6726228311,1.4165493958,0.19373723,0.2111589334,0.1759210416,-0.6005756711,1.0216867086,0.8761115448,0.8019421126,-0.2840492582,-0.5133500745,-0.0888276117,-0.6246716184,1.1784100838,0.5580147321,0.1623099964,-0.0799137413,0.589466268,0.2990242948,0.6635449713,-0.179635273,0.5358780096,0.2055583131,1.0082237492,0.162744609,-1.0925547017,-0.5917068113,0.5690192622,2.0027994414,0.6517677589,0.8465426842,-0.6382087249,0.6856532301,-0.3657523209,0.1035663147,0.1655598016,0.3999218765,0.0204030676,0.4422789938,0.8481502376,-4.3513300851,0.3898186062,0.1859547255,0.2181926056,0.5143018122,0.6020666338,1.125623957,-0.4864392754,-0.2639027219,0.3523814304,0.9048885375,0.566211778,-0.2648724317,-0.1478109563,0.1573869057,-0.7550612594,-0.0018174759,0.9264400945,0.6948839735,0.4993161564,0.8057386983,1.7637853882,0.0734794494,0.7738634224,0.9902988768,0.6615862011,-0.8442331893,-0.5254526532,-0.239632876,0.8587351887,1.2222712204,0.5223087325,0.457515747,0.5599734111,0.2589133254,1.1194997776,0.7255459041,-0.6713536632,-0.0042493545,0.3009967939,0.127848381,0.8385921762,-0.6782836999,-0.4072915353,-0.6025372332,-0.5689117462,-0.466275899,-0.6481360942,0.2121120521,0.6899765985,-0.8663831296,0.7148134693,0.4103171099,0.6719372832,1.025059764,-1.1055614449,-1.1023835663,-0.367710807,2.3958338278,1.9557199867,-1.1532892486,0.630087418,1.553876626,0.6438096156,0.1844088788,0.103443223,-0.0557884736,0.9380508324,-0.6714671981,-0.0012745078,0.7538627207,0.3194244346,-0.2065624773,-0.875664035,0.5900080461,-0.5898575273,0.1283712881,0.2933235696,-0.6787508254,0.8940290533,0.5357067869,0.9538594554,-1.2347573473,-0.6523004509,0.3282538996,-0.9304616993,0.0725557867,0.0083211346,0.4892081071,-0.6692765773,0.6768185834,0.3744548311,-1.7692688942,-0.1689630049,-0.1059409069,0.1001616183,1.1242014568,-0.8296088223,0.7092935719,-0.3135297273,0.2377297758,0.6981968795,-0.1208107133,-0.5570351661,0.5620324068,-0.7011520568,0.352861379,-1.2435427637,0.1382286692,-0.5345393135,0.3279106431,-1.1690868047,-0.0821414612,0.0087431926,-0.3185777673,-0.7289094503,-0.8850628541,0.4884542722,0.6741703757,-1.4067895255,0.26458241,-0.3092248925,0.2346168919,-0.2110896035,0.3842930847,-0.7071980594,-0.1820109963,-0.7801000359,-0.1974412761,0.3285899657,0.0969529187,0.0125393971,-1.2517809195,4.8808879571,-0.1852882232,0.4649428205,0.6676934411,0.7060665673,0.7291676642,-0.5371300913,0.1328075858,0.7699791715,-0.7138724187,-0.3468767282,-0.4527384371,0.2590322279,-0.5611422258,-0.6370822727,-0.0338548935,0.6466264447,-1.0152965022,-0.7443411162,-1.0161810083,-0.6543609727,0.1943770133,0.8378432537,0.7637581143,2.666087404,0.7170480443,-0.6190280827,0.8545250132,-0.3270075659,-0.1045479064,0.012339343,-0.4067433479,-0.0276884725,-0.6654502945,-0.1492051811,0.8250585962,0.2905410706,0.5528924601,-0.824174835,0.7143257054,-0.168354192,-0.7118855381,-0.7914941689,-0.4494624337,-0.0113583901,0.4031023976,0.7005204297,-0.8882055262,-0.7074149448,0.2268858538,-0.4766382192,-0.5694113504,-0.5415097211,0.7043474481,-0.5142571204,-0.3207867642,-1.1105503617,0.7542649124,-0.6109981855,-0.815315544,-0.8478239702,0.7308860179,-0.3312256363,0.6713178357,-0.2292563326,1.0686563863,-1.0823428138,0.6245058432,0.8309502497,0.7729977319,-1.2495421514,-0.0415329448,0.2427736359,0.952642011,-0.977672318,0.5551486018,0.9270853165,0.9853461386,0.5881104094,0.1786157762,-0.2235028725,0.8134519784,0.2554584126,0.0505329399,0.6077234286,0.5125784319,-1.5153430412,-0.4410462624,0.7088133686,0.0030206227,-0.0149988279,-0.3391684477,0.5123474862,-0.3891723691,0.3439713458,-0.2311211077,-0.4509424988,-0.1303253904,0.9240874432,0.5769936059,-0.0280299966,-0.3835936406,0.5906684738,-0.5266245871,-0.0406392269,0.0269056049,-0.785107956,0.2637081143,0.3955694838,0.3626006263,0.624000892,-0.5274556778,-0.8570207942,-0.5434234403,-0.4884208721,-0.4948306074,3.3480862715,0.1406061,-0.3024008519,0.8911221344,0.9190397979,-0.6480915631,0.5282186477,1.5704768211,-0.5243143061,-0.3168775491,1.2920468162,0.1577038899,0.219061638,0.6653897861,0.8241190858,0.232975089,-0.4637196142,-0.5491549826,-0.1009245971,0.5222660684,1.0933973957,-0.1628387827,0.1666153866,0.3032951623,-0.4426579981,-0.8815979131,0.5472052506,-0.2565564299,-0.8407111109,-0.5825003002,-0.6481724707,-2.3737660133,-0.5751035338,0.3513725192,-0.03084272,0.3858798522,-0.272072105,0.6462794329,2.5747295923,-0.0262444292,0.0100185105,-0.8859038511,-0.4535859629,-0.1609854485,-0.5356718587,-0.0820305551,0.7297095099,-0.4973242659,-0.4098838621,-0.8231341971,0.9003736091,0.6024922884,0.7925793456,-0.8442657215,-0.8257010522,-0.9229265625,0.2697658088,0.044653768,0.5619401413,-0.8689870442,-0.3662101981,0.7259602629,0.5844056516,-0.555379324,-2.0971675525,0.191089961,0.8245670504,-1.2099148311,-0.4556322321,-0.137303528,0.9219921788,-0.6533956858,0.9630891534,-0.4172238979,0.2946120309,-0.2998302157,-0.4542115084,0.3008954172,-0.3130271651,0.4239966693,0.3266103603,0.5521621812,1.1950102997,-0.1356618981,-0.7185433639,1.0124518815,0.1099494803,-0.6694912522,0.426884331,-1.2681264511,0.1014035695,-0.5733304675,-0.6667728068,0.2398800757,1.0143329158,-0.5908688998,-0.5115092303,0.5652671796,0.930079589,-0.733450262,0.522034691,-0.4917542993,0.5261048418,0.6670252205,0.8671980675,-0.6670475891,0.9452646138,0.978648757,-0.7511099695,-0.9360922331,-0.4217556138,0.9618488957,0.1767666624,1.208654474,0.0753473863,0.8466893758,0.2065341453,-0.4533408094,0.6459271242,0.811555523,-0.5908749839,0.5974585264,0.3916820397,0.9104185017,-0.5510838916,0.6072435323,-0.0555448051,0.8663019288,-0.938389076,-0.728352273,0.0908841956,0.1708684692,0.4756978261,0.0819172698,0.5241138593,0.4868104617,0.4055090999,0.4742728187,0.7129019869,-0.5169859672,-0.6655129381,1.1360785329,4.6531269628,0.2263111172,-0.9580803734,0.6570123186,0.6274554522,-0.3361192527,-0.5277463501,-1.2635737999,0.8724377002,0.292826137,0.0640713948,0.2126660884,0.302052398,-0.9043687282,-0.1195062812,0.6805500599,-0.4788049627,-0.9724093798,-0.0622640324,0.564113483,0.0955454862,0.4969141064,-0.1355205006,0.8117643469,-0.2876889442,0.6800334737,1.3970249935,0.7840634303,0.5807984626,0.1773891885,-0.408756513,0.0562250076,0.018840766,-0.5428900992,-0.4614924404,-0.5561313179,-0.5093666092,-0.2827509128,0.5488079888,0.1976298349,0.8926835484,0.2312815215,-0.0287572797,-0.0363736565,0.0658468088,-0.6439267041,0.4400922456,0.9790360509,-0.5719054387,0.6107053174,0.3960916845,-0.745723159,-0.4142998332,0.4812156803,0.2573174567,0.7767620675,-1.1579785998,0.6506280125,-0.695364794,-0.9134748659,-0.937378259,0.1290731284,-1.1577281539,-1.0603948554,0.0889837563,-0.7606003812,0.8352586455,0.8860078361,0.9278097128,0.196918046,0.0626039324,0.4422584836,-0.6482020817,0.5575342547,0.7965613427,-1.0271306837,-0.6872670658,-0.655979827,-0.1115703213,0.3126121785,-0.854286098,-0.2069959516,-1.4989742532,0.469900057,-0.9659600559,-0.6932462045,-0.5106896386,0.3560874868,-0.0304830825,-0.2069485801,0.420100884,-0.9712623104,-0.2375962538,0.7029382569,0.1272950046,0.5264295618,-0.0404382962,0.8044471771,0.2511973712,0.5205356401,0.3225057379,-0.6507288883,-0.7040342961,0.5644640745,0.2203796231,0.1818418723,-0.1771446872,0.318836976,0.8131929797,0.3411997909,0.00336881,0.1629268565,-0.5306826219,0.62691719,-1.1761676515,0.334667213,0.3960445078,0.4456845481,-0.1379041122,0.5056958296,0.9187950798,-0.7908670968,1.0852851996,0.9465751937,0.1184117646,0.4741067384,-0.1710275806,0.0452748001,-0.2183972554,-0.866870175,-0.0382494826,0.9004517729,-0.7551922198,-0.4018773096,0.1903669599,0.0963702929,0.2524740227,-0.5603646105,0.7946179418,-0.6561524254,0.3152843223,-0.5958752807,-0.4415816339,0.2864856505,0.7745066395,-0.0429973735,0.1117319185,0.4581247007,0.4434279286,-0.9180567522,0.0720371554,0.2522285568,-0.299806969,0.0774430633,0.5098615796,0.1430643527,-0.1213070185,0.7595946103,-0.2995593299,-0.9096686597,-0.2535462354,0.583683305,0.8627667594,-0.4514558894,0.8662247161,0.0040122009,-0.5562322645,-1.0607112192,-0.1534999862,-1.0955632858,-0.7892032145,-0.9094457666,-0.0777825236,0.1457515337,-0.4557276696,-1.2157293427,1.5982543155,-0.9301723111,0.2784141035,-0.0839711572,1.0215015314,-0.6361207952,-0.0368760003,0.0306883005,0.5468230628,0.2633924726,-1.2061551459,-0.7745944798,-0.0932559055,0.251000525,0.7642038711,0.580966978,0.5977351962,0.0134108525,-0.6598558887,-0.3612562377,0.771409598,-1.0368461799,-0.5917943633,-0.1703016603,-0.1283341622,0.0764928101,0.0710162273,-0.1698150455,0.4689836082,-0.1699205598,-1.1120091936,0.3220015071,-0.1915741209,-0.0037936486,-0.3882692288,-0.7972417057,-0.1992313598,1.1318023839,-0.4561510649,-0.0790159728,-0.0216526542,-0.8158368007,-0.375027024,0.7623459909,0.6397900408,0.6318322151,-0.9318098062,-0.0264316412,0.7431175341,-0.1467547229,-0.9148816479,-0.0743997593,0.9502092576,0.2813719946,-0.064452099,-0.1426309741,-0.9523752815,0.7808331638,0.9986569385,-0.4239995877,0.9115669719,0.0035447579,-0.0882446384,0.4322379682,-0.0897679969,-1.5358161033,-0.0960503731,-0.402971506,0.9369383892,0.4489587036,-0.9435334567,0.0341682104,-0.8066862578,-4.6608849702,-0.4512743696,1.0912228121,-0.2180004793,-0.3555217505,-0.0968242317,-0.2408781454,-0.4427930445,0.5478235039,0.5946593108,0.3703574777,-0.8428774724,0.7207441127,0.3070861221,0.5860843246,0.442152557,0.2163226734,0.5414334182,-0.4201879098,0.3995308615,0.1716584964,0.7848762082,-0.1190850285,0.5309483835,0.8450016024,0.9663385699,-0.1186149424,0.0697703672,0.9660865381,0.6680405346,0.9059489164,0.7262868646,0.1455732955,0.2938909137,-0.1925632568,0.6375654485,0.1795740753,1.009607576,0.3285427833,-0.852389755,0.9226192818,0.0709245893,-0.9018840249,1.0675072862,0.9542007644,-0.2097858088,0.0914578427,0.6700193393,-0.7419398137,-0.5972049299,0.3228471953,-0.2245548196,-0.3418418338,-0.5797461676,-0.7346044798,0.4620357999,0.1735907378,-0.3309258319,0.0484879398,-0.0598880035,-0.7362473694,0.7391390276,-0.804177965,0.9520929226,0.2280761806,-0.2944232325,-0.3597281993,-0.5305366169,0.0424032712,0.2957334327,0.6820060913,0.5802094195,0.1610911531,0.279840022,-0.6165987317,-0.2620308218,0.1996635451,-0.8143289266,0.0725307821,-0.2536301363,1.1736958217,0.4479149871,-0.8538969405,-1.2368892561,0.5894237409,0.0820447002,0.2983525848,0.4677120627,0.5489318473,0.7786327354,-0.7065814699,0.8297977751,-0.870962966,0.0417090966,-0.6407856112,-0.20429724,-0.4418937152,-0.9329431474,0.4195314723,0.3495593712,-1.1181950624,0.6023098581,-0.1600963234,1.4140500689,-0.7446849906,0.8974062137,-0.2665738764,0.9743307689,-2.226602869,-0.168056605,0.9117280746,0.2789328538,-0.0177355617,-0.6827938615,0.8188034627,1.2998428468,-0.2200433926,-0.1696908286,-0.6599958219,0.9102809188,-0.3015476122,0.3364322854,0.3888128319,0.4754566629,0.4538583447,-0.0406320886,-0.5042818829,0.5106359907,1.4720672126,-0.2963662786,0.4072022325,-0.9179047913,2.1122896959,0.8215993427,0.2259394364,0.5946011066,0.3537111535,-0.9857838621,0.3646046714,-0.0560475218,-0.1156262267,0.5322072009,-0.0307649768,0.9297152214,0.058338816,-0.632672908,0.1709300298,0.8942837013,-1.2101216825,-0.3125056891,0.9038877028,-0.9753610289,0.5455138003,-0.880711302,0.8575912731,0.1505215715,0.4786845845,-0.3484605446,0.5836737029,0.2582072845,1.4160123396,-0.26600314,0.7558514769,0.1056113253,-0.1242842421,0.7722674715,0.7882503027,0.5678044835,-0.3186208412,0.6097086734,0.4830455316,-0.3786423936,-0.4623870207,0.9096760774,-0.4784001341,0.6829898242,-0.2058475859,-0.1717425351,-0.5820600732,-0.9034708255,-0.3977686187,0.5823899695,-0.2504376267,-0.0039166039,0.0972176765,0.2499353887,0.3978673096,-0.5384374709,-0.0031211608,0.1349667779,-0.2682742826,-0.4022090872,-0.1473462974,-1.4170541161,0.0908803832,-0.3293251807,0.6744393718,-0.8358959304,0.716910453,-0.6717543201,0.8004622195,-0.0559443694,0.4892888624,0.5251228574,-0.4901744698,-0.5271478344,0.8533878443,-0.432716446,-0.1443690821,-0.7321816072,-0.3530393545,1.1551675744,0.9127642078,-0.4654043076,0.7700816959,0.9833758996,0.0501454876,-0.278265908,-0.2916600478,0.8707482193,0.3988119862,0.6373301933,-0.278470586,-3.9275679933,1.9012509466,-0.6749483546,-0.452328289,-0.2003930247,-0.1235186422,0.971466525,1.1687012246,-0.7422845622,-0.0605209471,-0.3677311756,2.3713209767,2.1857526606,-0.3876605954,-0.7535123548,1.0116432441,-0.1436109956,-0.6055736473,0.6606902757,1.6071368788,-0.813623667,-0.3033947017,0.2373629694,1.9409983503,1.5886957826,-1.7596119404,0.9852066152,0.6077358652,1.3029127308,-0.8061649741,-0.1128067129,-0.9900297901,1.6983366931,-0.1448527391,-0.0377499339,0.9980816214,-3.5980058548,-1.685047878,-0.899761078,7.1135515882,0.0661751933,-0.1929784422,0.3128842068,0.8555144778,0.546864934,0.7888695788,0.2821799051,0.4995235387,-0.3704817615,0.57848464,-0.910653398,-0.5282984957,-0.6108808735,2.1047128528,0.1717078901,-0.5448015683,0.6453146936,-0.5667544874,0.516111963,0.518091491,0.5736706907,0.3023233349,-0.2608601868,-0.4662843306,-1.1934202091,-0.9519966544,0.1189062404,-0.7452481294,0.1887570153,-0.6038589613,-0.2746911501,0.0757805977,0.0561676061,-0.8671167259,0.4490368533,0.4758034675,-0.0072161748,0.9329526894,-1.0090833448,-0.5970715223,0.445559665\n   0.4683119001,4.1798083773,-0.9664542067,0.0829979667,1.0703842517,-0.1691928047,-1.1334505198,0.0664058728,-0.1077859706,0.930674769,-0.5964598421,-0.8907368272,-1.0754730849,0.2243607828,-0.6432410684,0.1218923191,0.3019279618,-0.1806057359,-0.2383170805,0.3138415766,4.8140906468,0.5003750346,-0.2451744222,0.7284703112,1.1319283581,-1.0214803291,-0.5988912134,0.3227702421,-0.6174501873,-6.8854455012,0.5515005711,-0.8223110957,0.8527460599,-3.3391940498,-0.3421411576,0.0523876366,-0.1285442598,-0.9081738287,-1.4689680909,-0.9203341552,0.5894043814,-0.7694450617,-0.3586574728,0.271734644,-0.7953110478,-1.1501760887,-0.8701067049,0.3949306371,0.9724677955,-0.8341482204,-0.8736874249,0.6416063404,0.4910660561,0.3050277984,0.0152213697,-0.6082101606,0.2634679432,-0.5986057474,-0.5894442246,0.0390465892,0.3401662351,1.0520081633,-0.0576096933,0.6764287335,0.0581112973,-0.0521357542,-0.925118558,-0.8864274655,-0.6032305951,1.1334611544,0.1788918353,-1.1948228042,-0.1022405863,7.6808215915,-2.059038899,-0.5097402835,0.5536445271,1.528860609,0.5259011256,-1.1664489183,0.4116881846,-0.2002387701,-0.3239085261,0.9051638718,1.0680446141,-0.6453389225,-3.2011644345,-0.2932335727,-0.9226514579,-0.6140637233,-0.5932472787,-0.5351161853,-1.19808409,0.5043006118,-0.2889541913,0.4556410879,-1.0311632697,-0.3098550961,0.5036997164,0.0036387852,-0.3571465525,-0.3050147357,0.2931524321,-0.1496943759,0.4743673324,-0.222578921,0.0749701319,-0.5734239026,0.2718716296,-0.5840787626,0.6512549291,-0.2507545274,0.7576306918,-0.8462996072,0.5392292923,0.2686913671,0.0366572626,0.5380407157,-0.4452213789,-0.2009226621,-0.1860651361,-0.1576709566,-0.6902602959,0.4557106658,-1.2890401292,-0.534602628,-0.8127367137,-0.5906143069,-0.6695947884,-1.3312284169,0.4613328577,-0.6268578686,-0.3100163078,0.4283023037,0.0054692503,-0.4141434075,0.5503464296,-0.9579564678,0.3860813661,0.4713332165,0.4921866265,0.5125130488,0.8549521455,-0.509231533,-0.3971067519,-0.8787374348,0.9059180431,0.9475110393,1.2543083593,-0.0763205779,0.8305720047,-1.1247289691,0.4948515514,-0.1491536417,-0.2042600488,-1.0289705158,0.7896933038,-0.0621765697,-0.8558435195,0.7840981577,1.1006564916,0.952020951,-0.1462523142,-0.7603874914,0.0333159953,-0.9407967848,-0.1541720128,0.8958309034,0.964444528,-0.2535988785,0.5797676285,0.0917213937,-1.0153156521,-0.6991951737,0.1146327535,-0.8744797272,-0.142671305,0.6178541899,-0.9101958149,0.2464229976,0.1960122915,0.4044854357,-0.988214866,0.4731105024,0.2988771266,0.1390173854,0.1600076432,-0.3944083022,0.8140626077,-0.2049984443,-0.2784544173,0.0057371889,0.6315304567,0.9662139071,0.0840452692,0.1004370076,-1.1325094071,0.5455906116,0.125590602,0.9702096597,-1.3500641849,-1.7274973455,-1.1669511967,0.858709884,0.2784149781,-0.1340748793\nbiasActivation=0,1,1\n[BASIC:ACTIVATION]\n\"ActivationSigmoid\"\n\"ActivationSigmoid\"\n\"ActivationLinear\"\n";

void test() {
	test_setup_filesystem();
	test_parseEncog();
	while(true) test_loop();
}

void test_loop() {
	static char input_buffer[100];
	static int input_buffer_index = 0;
	static ReceiverMode receiving_mode = READY;
	static networkResult test_last_result;
	static bool GetNextResult = false;
	while(Serial.available() > 0) {
		char newByte = Serial.read()
		switch(receiving_mode) {
			case READING_DATA_POINT:
				input_buffer[input_buffer_index] = newByte;
				input_buffer_index++;
				if(newByte == '\n') { // End of data
					input_buffer[input_buffer_index+1] = '\0';
					datapoint newDatapoint = test_parse_into_sample(input_buffer);
					parse_sample(newDatapoint);
					input_buffer_index = 0;
					receiving_mode = READY;
				}
			break;
			case READY:
				// Begin parsing type-part and set receiving_mode accordingly
				if(newByte == '#') // End of command
					buffer[input_buffer_index] = '\0';
					if(buffer == "datapoint")
						receiving_mode = READING_DATA_POINT;
					else if(buffer == "result")
						receiving_mode = READING_RESULT;
					else
						Serial.print("DEBUG#ERROR - UNKNOWN TYPE ");
						Serial.println(buffer);
						input_buffer_index = 0
				else
					buffer[input_buffer_index] = newByte;
			break;
			case READING_RESULT:
				// Read result
				if(newByte == ';') {
					double d = CharStarToDouble(input_buffer + input_buffer_index);
				    // Check if result matches last result
					if(test_last_result.results[test_result_index] == d)
						test_result_index++;
					else
						Serial.print("DEBUG#ERROR - RESULT DOES NOT MATCH");

				} else if(newByte == '\n') {
					receiving_mode = READY;
				} else {
					input_buffer[input_buffer_index] = newByte; input_buffer_index++;
				}
			break;
		}
	}
	if(networkFodderReady) {
	    test_last_result = EvaluateNetwork(networkFodder); // Evaluate test-ann
	    // Request next result
		Serial.println("command#send_next_result");
	}
}

double CharStarToDouble(char* buffer) {
	return atof(buffer);
}

datapoint test_parse_into_sample(char* buffer) {
	// TODO Parse string into datapoint
	double Darr[6];
	char* startOfDouble = buffer;
	for(int i = 0; i < 6; i++) { // 6 datapoints
		while(buffer != ';') buffer++;
		buffer == '\0';
		Darr[i] = CharStarToDouble(startOfDouble);
		startOfDouble = buffer;
	}
}

void test_setup_filesystem() {
	File f;
	
	// Init the filesystem component
	if(!SPIFFS.begin()) {
		// if it didnt exsits, construct a new filesystem
		SPIFFS.format();
		SPIFFS.begin();
	}

	// If the config tells us to OR the model does not exsist in the file system
	if(ENCOG_FORCE_OVERWRITE_MODEL || !SPIFFS.exists(ENCOG_MODEL_FILE_PATH)) {
		// Write default model to file
		f = SPIFFS.open(ENCOG_MODEL_FILE_PATH, "w");
		f.println(FPSTR(testModel));
		f.close();
	}
}

void test_parseEncog() {
	group test_networkFodder;
	test_networkFodder.length = 10;

	setup_neuralNetwork(); // We updated the file-system, so it will load test-ann
}